1886 100
) -0.076156266 -0.58017635 0.3707772 -0.07570582 0.01767257 -0.10335191 -0.16496365 0.32685634 -0.11466429 -0.441817 0.21892476 0.035454664 -0.040937137 0.33824196 -0.16038321 0.3398122 0.2533418 0.74508274 -0.36863017 0.033573132 -0.13870303 0.31518012 -0.2526767 0.12487473 0.6019544 0.19087666 -0.1452118 0.14531846 -0.1704425 -0.1437696 -0.17614232 0.4033262 0.3806382 -0.78185815 -0.23085822 0.38190553 0.18845496 -0.5649698 -0.44453046 -0.5226372 -0.6364382 -0.42968842 -0.62862086 0.62288266 0.54849166 -0.008410049 -0.2030501 -0.18650319 -0.066968784 0.30486497 -0.009742999 -0.3160037 -0.55045515 -0.042153455 -0.013830529 -0.06681577 -0.17714444 -0.54577667 -0.15142934 0.37111264 0.044284854 0.16729602 0.3477293 0.11660834 -0.34159952 0.38524908 -0.4947026 0.0300676 0.07455598 0.42737335 0.7432461 0.6623184 0.24927694 0.19178653 0.5163234 -0.37544045 0.42320445 0.38938388 -0.047880705 0.28610203 0.33117226 0.013320382 -0.00069292524 0.098777995 -0.44470602 -0.32394528 0.40079007 0.052590635 -0.29474893 0.21043639 0.36555588 0.36282536 0.40216306 0.33813968 0.5264064 0.21287167 -0.18103164 -0.9227624 -0.957277 -0.1467615
( 0.0027629784 -0.9341158 0.9181682 -0.3288954 0.36120325 -1.0068266 -0.19940296 0.9317623 -0.31631258 -0.53910255 0.20399095 0.036711726 -0.16878116 0.5871514 -0.15902384 0.34311864 0.06971956 0.21657261 -0.31395304 1.0164764 -0.059200548 0.061264582 0.011010432 0.06265181 0.60474116 0.20127626 -0.041465968 0.034443334 -0.24352227 0.21498285 0.14652 0.4157799 0.22131638 -0.8585516 0.06498874 0.66267884 0.21323633 -0.53541315 -0.34463587 -0.41325054 -0.25372586 -0.6360905 -0.48097348 0.54215896 0.17439911 0.16753636 -0.032255672 -0.023387656 0.061947737 0.32786924 0.0819844 -0.7246101 -0.6788093 -0.08779418 -0.12458537 0.33400285 -0.40385073 -0.6108263 -0.30240735 0.56819195 -0.012963266 -0.054094445 0.30121768 -0.010611869 -0.2629202 0.24228156 -0.348293 -0.35447633 0.3138924 0.41677028 0.39390633 0.3611306 0.13065203 0.23935403 0.3996267 -0.018522246 0.36253738 0.2881009 -0.026167467 0.524191 0.21337397 0.25981015 -0.028433403 -0.16903567 -0.38049942 -0.11646021 0.14560448 0.31933942 0.019867131 0.09882193 0.61100376 0.25542447 0.14817135 -0.008355741 -0.074400894 -0.033047173 0.16325597 -0.72168934 -0.7348647 -0.31352982
; -0.061626773 -0.18062282 -0.025929285 0.031400066 0.6515566 -0.3866961 -0.20544213 0.9316318 -0.13122435 0.0070489147 0.014245838 -0.12439341 0.46159136 0.1298466 0.107650295 0.68272215 0.60326135 0.62238467 -0.15463783 -0.45636564 -0.20134024 0.20904042 -0.5485649 -0.06039951 0.7082094 0.14161022 -0.023652788 0.30770913 0.07952502 -0.01044859 0.19231512 0.19432211 0.039203268 -0.20291065 -0.6542772 0.5622039 0.5156982 -0.123689644 -0.5104164 -0.42532307 -0.2380159 -0.4407878 -0.29238063 0.78123933 0.3655453 0.124051735 -0.5051054 -0.30632252 -0.09561668 -0.00414922 0.23047401 -0.54475707 -0.89523077 -0.1805093 -0.7605043 -0.06997018 -0.35831082 -1.2789205 -0.23570156 0.58896977 0.010127479 0.044470422 0.6884923 0.52813166 -0.24259888 0.39274138 -0.27313027 0.20416799 0.20877233 0.35931352 0.4802869 0.34363896 0.22948495 0.4667054 0.7028671 -0.28829783 0.90361184 0.39695415 0.016004005 0.33446285 0.20101398 -0.2131054 0.38002837 -0.1263966 -0.031788833 -0.3586489 -0.22981314 -0.023078948 -0.109575644 -0.26112852 -0.13426907 0.33153746 0.32243904 0.28631136 0.4119232 -0.06514699 0.24476852 -0.31934598 -0.45658755 0.07342883
= -0.2379944 -0.11938954 0.93986917 -0.2891895 0.11599287 -0.021367667 0.6139941 0.51371497 -0.035600767 -0.85963935 0.560007 -0.40598613 0.35783035 -0.08943356 0.20799194 0.6682508 0.5811361 0.40651846 -0.14260362 0.106696114 -0.30011162 0.3687734 0.01692711 0.4535877 0.12713462 0.7256039 -0.5902272 -0.88085437 0.4448015 -0.46777892 0.57410526 0.52871037 0.33369043 0.13802296 -0.7770271 1.3402947 0.69966435 -0.17164713 -0.83737767 -0.4008881 -0.1402302 -0.81699693 -0.08238353 0.45438138 0.77285105 0.24250686 -0.3394989 -0.72378874 -0.14833242 0.13970786 0.29140082 -1.0210685 -0.9620482 0.33332318 -0.9171103 0.12189387 0.1331614 -0.48274496 -0.035494503 0.24109493 0.14148028 0.42437035 0.84133536 0.33819884 0.22796461 -0.0045782854 -0.7407468 0.32806507 -0.16248393 0.26574516 0.53014296 0.5955873 0.05042744 0.64090186 0.3149944 -0.39510328 -0.28379375 0.5381848 -0.20870477 0.5779179 0.5700281 -0.26332006 0.50179183 -0.02797298 0.10174738 0.17799492 0.4226987 -0.08567275 -0.7242883 -0.0867562 -0.15378587 0.3226552 0.039370652 0.072897084 0.6242199 0.109655984 0.09096851 -0.74438727 -0.5089988 -0.020537917
, -0.09589661 -0.23914637 0.41013715 -0.03861574 0.6173162 -0.68662906 -0.2794241 0.5575568 0.25857505 0.0001050561 -0.15223174 -0.10510253 -0.593151 0.3912966 -0.075894006 -0.42076614 0.44500256 -0.06844338 0.003786434 -1.4988143 0.0032431572 0.103218906 0.60272694 0.466158 0.13347478 0.65823495 -0.45976618 0.28211865 -1.0248141 0.23721375 0.2903245 0.27336708 -0.25872305 -0.9114671 -0.08956116 0.82379514 -0.2441578 -0.3284805 -0.26111233 -0.6851128 -0.3598023 -0.8075876 -0.42399144 0.4438766 -0.22842604 0.072730124 -0.23884681 -0.1198393 0.45167965 0.62979835 -0.058147926 0.20705388 0.8394572 -0.5723927 0.5426157 0.11104501 -0.4440199 -0.72184414 -0.5623758 0.54092205 0.021829136 -0.958867 -0.3935906 -0.25433987 -0.6648543 0.23380986 0.27161434 -0.19065903 0.46379724 0.628814 -0.37533784 0.16275713 0.5392061 -0.049804404 0.5868365 -0.11779007 0.67599183 0.7393477 0.3360274 -0.161043 -0.50132376 0.39724177 -0.42650867 -0.34348145 0.0052990695 -0.59993404 -0.27110422 0.6503871 0.3059115 -0.5557605 1.2045813 0.0922327 -0.123566575 -0.019546341 -0.33685672 -0.05847971 0.49970147 0.29606518 -0.70269245 -0.0991506
- -0.34692723 -0.11569128 0.52512735 -0.8902518 -0.44285625 0.014924599 0.43849972 -0.27309638 -0.30285737 -0.64816535 0.13250473 -0.37389815 -0.3314196 0.27978057 -0.40177384 0.2735851 1.1934267 1.1284444 -0.34803253 -2.8716269 -0.2662544 0.36350673 0.6255855 0.59531295 0.12278886 0.9111479 -0.12334942 -1.319167 0.47313493 0.087271325 0.751033 0.06237174 -0.16306382 -0.14960042 -0.41529733 0.925146 0.77552676 0.048012957 -0.20879367 -0.7318605 0.38222146 -0.47118255 0.28607893 0.03456719 1.0099473 0.60924643 -1.0794452 -0.3210263 -0.12973057 0.15209934 0.5476342 -1.9129025 -0.75789714 0.79235494 -1.6527301 0.16466066 0.35929275 -0.6771143 -0.29159173 -0.23618242 0.4090954 -0.07752053 0.7733139 -0.1805192 0.58349365 -0.7366429 -0.46092877 -0.20521308 -0.2713168 -0.39065507 0.06315555 0.5762053 -0.39503053 0.5791158 0.29778764 0.19786234 -0.4130891 0.23919691 -0.08014791 0.95989686 1.3773686 -0.6021687 0.15161616 -0.7505139 -0.5005424 0.04740234 -0.17908037 0.0671422 -0.45311463 0.35913154 0.16259126 0.53972644 -0.2048693 -0.5012651 0.010023139 0.41020092 -0.56898 -1.1488268 0.18461962 -0.13468842
> 0.017123803 -0.661935 1.2326477 -0.89907557 -0.026461454 -0.1510502 0.6598052 0.34970322 -0.22456664 -0.7014523 0.5251202 -0.09009453 -0.01739035 0.58732486 -0.3549114 0.8141472 1.6466271 1.0792 -0.27483603 -2.443083 -0.16628893 0.42405528 0.93960214 0.6692482 0.44388133 1.7366799 -0.59881574 -1.7915006 0.46256834 -0.19996406 1.0009338 0.7102595 -0.12782252 0.23005703 -0.52864486 1.3132852 0.49167976 -0.40253067 -0.676904 -1.4221988 0.14703204 -0.52979964 0.663178 0.0743474 0.4733413 0.40314052 -0.95800704 -0.38830796 -0.5765526 -0.6169006 0.5250086 -1.2668214 -0.61999977 0.640948 -1.4877526 -0.2511441 0.10480417 -0.7242481 -0.60920125 -0.38171965 0.41716713 -0.05188993 1.153271 0.03371281 0.45717683 -0.78631645 -0.6776771 -0.28641254 -0.31634042 -0.564054 0.14929076 0.85552955 -1.19305 0.56978464 -0.017746657 0.012636679 -0.87969005 0.28775296 -0.09522856 0.9925769 1.4714727 -0.35027632 0.24930172 -0.5270111 -0.23844315 0.38697332 -0.036536425 -0.58748585 -0.98815453 0.26482746 -0.2242032 0.25847027 -0.3984191 -0.6821489 -0.10298384 0.24074683 -0.3426 -1.1150609 0.076400034 -0.24495399
" 0.7085616 -0.7367031 0.6146255 0.48175192 0.54843193 -2.143143 -0.9566145 1.6518329 -0.47076252 -0.8418241 -0.23455061 -0.42979082 -0.60604733 0.23075625 -0.6487834 0.44090232 0.39297894 2.088973 -0.49691924 -3.447402 0.3493012 0.44905046 0.3983212 -0.9885586 -1.5384406 0.6413707 0.7107294 0.65736747 -1.1330621 0.12816715 -0.34186798 0.27012473 -0.56421155 -1.4760643 0.9909137 -1.4474306 0.24185725 -0.80049723 -0.88610435 -0.5710729 0.8868244 -0.7220249 -0.7784251 0.24873239 0.75871724 0.15475164 0.048530772 0.2169574 0.8153318 0.06564183 -0.4625263 1.3104424 0.99548507 -0.83726895 0.65467685 0.04106203 -1.2264479 -0.18582487 0.5276895 0.46144202 0.10386067 -0.47051847 -0.46213442 0.4042413 0.46511528 1.1748722 -0.5754812 0.14181763 0.11523721 0.062194202 0.15684192 -0.22793965 0.61786836 -0.73989236 0.36678723 0.7029849 1.1614902 -0.60889584 0.16297178 -0.19894637 -1.215724 0.32122818 -1.1840957 -0.2637235 -0.5606442 -0.43643337 0.39487818 1.2374073 1.1003234 -0.20746364 -0.02901816 -0.6465401 0.42012298 0.44083387 -0.5556144 -0.50042206 0.16103043 0.284987 0.16394366 -0.214766
+ 0.25118202 0.45350653 0.79169965 0.6699537 1.1677184 0.0040150927 0.9683487 1.2081779 -0.96280456 -0.33134204 0.1288179 -1.4733545 1.3034467 -0.17172222 0.72238964 0.7569265 -0.3246476 0.11155944 -0.47005424 0.45283392 0.28290156 0.59544826 0.003783989 -0.56090426 -0.25499552 -0.37847018 0.01990159 -0.93241763 0.5089005 -1.1195925 1.1898327 -0.3369541 1.2568227 -0.29304284 -0.99377143 1.8456442 0.64926314 0.18203206 -0.80388415 -1.5329161 -0.44090584 -0.51273334 -0.7745202 0.6822274 1.2395213 0.3074202 -0.5783655 -1.0252919 -0.13611338 0.23420203 -0.27098146 -1.5217143 -1.1991326 0.009020145 -0.7287277 0.29288548 -0.071763486 -0.64805764 -0.08991581 -0.11656064 0.34343624 0.7278744 1.162576 0.39718246 -0.21428876 0.67563504 -0.72190714 1.2637004 -0.5731928 0.4452945 0.833635 0.71841186 0.9354798 1.4363114 1.1329215 -0.93722 0.513789 0.029607635 -0.35955676 -0.21628678 0.18031669 -1.5130751 0.21278444 0.23120694 -0.46686 -0.74502105 0.93016446 -1.165776 -0.2798659 -0.21192035 0.08556927 1.173705 0.99932325 0.94546646 1.9250437 0.89365685 -0.15815982 -0.6235732 -0.19196132 -0.093482785
} 0.05964712 -1.0309684 0.9083781 0.03668985 0.88619506 -0.9354882 -0.57712567 1.9359488 -0.608817 -0.877121 0.31217 -0.72607666 0.3558307 0.5318248 -0.4614315 1.6524242 0.95263726 1.0667862 -0.16220902 -1.4220096 -0.06290756 0.5713225 -0.20190531 -0.5319922 0.54981744 0.0822531 0.10497464 0.35641977 0.49088693 -0.036420275 0.25263864 0.19639903 0.2884224 0.044692513 -0.505275 -0.5867221 0.15012291 -0.0144365905 0.014257829 0.41147602 -0.26364797 0.3469403 -0.42215255 0.7346981 0.6108122 -0.23031856 -0.46326792 -0.09321643 -0.52737135 0.24623764 0.021435823 -0.47627616 -1.0508319 0.2540301 -0.36987478 -0.47946602 -0.32398304 -0.9204542 0.01296616 0.28403437 -0.1335559 0.44852373 0.8230109 0.39924034 -0.30948454 0.29671288 -0.41147575 0.2206295 0.018691957 0.1459031 1.1793661 0.94067204 0.01157274 0.13707148 0.5494905 -0.5853478 0.83353615 -0.09961438 0.040727112 0.22996101 0.26381865 -0.18187676 0.7502842 0.2176219 -0.30155995 -0.4145879 -0.37589103 -0.5150593 -0.2528428 0.47048953 -0.10910852 0.56228316 0.5779337 0.4415431 0.77134824 0.15069059 -0.17554876 -0.18847333 -0.19861887 0.41553447
{ -0.07346236 -0.53613186 0.4635622 -0.2605039 0.23864594 -0.4051842 -0.11348627 0.5921023 -0.09030623 -0.24066795 0.08106713 0.08374663 0.024977662 0.12970684 0.11008909 0.55096817 -0.06578224 -0.18043472 -0.059550397 0.9089018 -0.17422803 0.006926974 0.041166525 -0.01284493 0.3227048 0.35496166 -0.19317104 -0.0032642921 0.04172016 0.14857535 0.20504396 0.37899038 0.29469594 -0.3034909 -0.21910106 0.70543414 0.16849358 -0.36318055 -0.3676045 -0.19305933 -0.16469277 -0.48058167 -0.35840288 0.47870287 0.26167172 0.05143988 -0.020231582 -0.33734313 -0.006287736 0.46969038 0.14508504 -1.2242827 -0.9475801 0.1633779 -0.47797802 0.27420512 -0.45524925 -0.93754613 -0.44296622 0.5097718 0.07516987 0.053625785 0.6423578 0.26688933 -0.09784463 0.44216013 -0.391429 0.005665684 -0.07009108 0.4233547 0.30639413 0.5834049 0.20684014 0.47303575 0.39920342 -0.18094039 0.12881248 0.2865189 0.028011417 0.43572888 0.49056402 0.16910872 0.037628453 0.07248685 -0.27987054 -0.0883367 0.18766446 0.11756437 -0.11870893 -0.021829478 0.36261404 0.2579383 0.0855375 -0.00029348797 0.14258604 0.042329766 0.2027074 -0.7056429 -0.48927316 -0.25734475
* -0.12884903 0.31364566 0.6606965 0.32843152 0.6305838 0.11632825 0.9456709 0.26029247 -0.47997266 0.07758402 -0.11079434 -0.529489 0.4386162 -0.4902833 0.40156612 -0.44780815 -0.68146455 -1.560897 -0.19429821 0.3476062 -0.033107217 0.022086943 1.0890496 -0.2736514 -0.2324903 -0.36119458 0.022596544 -0.7107213 0.035253502 -0.20045193 0.9278788 -0.31763455 1.2124083 -0.45591763 -0.6380791 2.2745628 -0.11273481 -0.74762493 -0.39847597 -2.1345236 -0.19690298 -0.6586975 -0.40043628 -0.05684686 0.75361514 0.47163713 -0.13713843 -0.80034035 -0.28267023 0.7405963 -0.037823003 -1.3619851 -0.5075277 0.44035363 -0.34593287 0.39662284 -0.18924598 -0.5851815 -1.1251608 -0.22118005 0.34520936 0.06817315 0.431223 -0.17368287 -0.5045466 0.4033251 -0.0738216 0.67361635 -0.9785507 0.800412 -0.27282703 0.9948667 1.0306345 0.9498673 0.518076 -0.55313116 -0.2552164 0.04861289 -0.05703804 0.07498454 0.8749269 -0.7068756 -0.4905052 0.16460168 -0.15487014 -0.54839534 0.51518935 -0.3771706 0.08044842 0.047591563 0.666068 0.7208387 0.09370653 0.3166764 1.090061 0.58831865 -0.19459051 -1.0573283 0.27203616 -0.44224685
if -0.17342807 -0.79275125 0.5253288 -0.45913655 -0.14457488 -0.124676004 -0.4438096 0.51904464 -0.022512564 -0.67818403 0.1474078 -0.051015727 -0.11952116 0.5012882 -0.29001093 1.1310333 0.6318363 1.2907734 -0.34071037 -0.4292131 -0.10860627 0.49010247 -0.14679545 0.25314736 0.2604518 1.1239315 -0.41069448 -0.42063776 0.35183838 -0.18577825 -0.04041255 0.65350425 0.17338641 -0.3922603 -0.28753424 -0.26492396 0.2648456 -0.22713952 -0.4230432 0.172008 -0.34194735 0.18626766 -0.2802414 0.6373028 0.6749992 -0.29951108 -0.21270104 -0.2795144 -0.26985773 0.33965397 0.18198186 -1.3818194 -1.058683 0.24471371 -0.64328575 -0.2201864 -0.34081775 -0.85248643 0.0043140305 0.2482323 0.20636965 0.3321234 1.1218542 0.5640292 0.24416395 0.50603414 -0.98726183 0.2667913 -0.18898754 -0.043343708 1.1358603 0.99662906 -0.1372349 0.34688652 0.57671845 -0.28455454 0.034541298 0.25022537 -0.042816333 0.560063 0.73073477 0.006748163 0.33347705 -0.005388089 -0.80588853 -0.13499007 0.6540028 -0.32565796 -0.7997004 0.3576313 0.16575968 0.31790224 0.4809544 0.0074570933 0.65551543 0.31507292 -0.4402463 -0.8388843 -0.7757592 0.06693477
0 0.06036353 -0.044485997 0.21304633 0.04407112 0.39289403 -0.4720054 0.17184332 0.7518268 -0.047957838 -0.80335903 0.16128458 -0.4080291 0.24714988 0.36236292 0.6025793 0.9262591 0.84640574 1.2583467 -0.18706869 -0.8635537 0.2846856 0.6540082 -0.1694313 0.26432183 0.2551507 1.5330162 -1.2518909 -0.5895611 -0.10694252 -0.5137168 0.71626884 0.7190464 0.08402798 -0.5495861 -0.6200306 0.9479289 0.5695977 0.53465116 -0.6578495 0.06485011 -0.5165508 -0.5303639 -0.14610054 0.8657376 0.35043988 -0.1446058 -0.54847544 -0.5206322 0.63904977 0.16375838 0.0675747 -1.1208848 -0.6331656 -0.19641824 -0.3944479 0.31544325 0.25053746 -0.4313628 0.33797166 0.3330246 0.06349101 0.3303174 0.72014445 0.44431055 0.38681144 0.16812508 -0.36672083 0.28975362 0.46026644 -0.34618556 0.55731326 -0.35318315 -0.3209804 0.6050104 0.46862411 -0.032110546 -0.15853691 0.67919785 -0.022435986 -0.35718453 -0.16156238 -0.2860089 0.40925142 -0.08198641 -0.32695198 -0.15867764 0.7321897 -0.20300321 -0.48317385 -0.607832 0.6117962 0.6638573 0.5186313 0.28920346 0.52673703 0.3513582 -0.09386085 -0.4244456 -1.234711 -0.042241152
[ 0.47496018 1.7931712 -0.16519192 -0.28695157 0.35868755 -0.15386353 0.5598394 0.31175566 0.17134394 -0.55600864 0.35108632 -1.3411182 0.19251557 -0.73375666 0.20634486 0.23784108 0.45378363 1.3798972 0.55428314 -1.6722184 0.3872337 1.1584046 0.20772162 -0.43396538 -1.9919895 0.59392583 -0.69717354 -1.1849931 0.9735484 -1.1176702 0.33530244 0.14690788 0.27564722 -0.61878586 -1.4320843 1.9908526 1.8852296 0.50232166 -1.2703114 -0.26801437 0.9666312 -1.3805676 0.40248442 0.44669405 1.7494048 1.0175524 -0.9767157 -1.3051229 1.1488311 0.065760374 0.031470213 -0.18677156 0.2251336 -0.06834747 -1.0163383 0.73894614 0.44269058 -0.17788246 0.8233581 1.1629806 -0.15864182 0.024820585 0.7140569 1.3228667 1.4020307 0.9608486 -0.8153147 1.1071187 0.35155597 0.6921485 -0.055630367 -0.46406803 1.0876579 -0.0030145545 0.074782856 -0.2398274 1.0572511 0.33990097 -0.04076843 -0.35518345 -1.4025828 -1.0389085 0.04600485 -0.28561297 0.7387141 1.0593317 1.136288 0.5283892 -0.028830655 -0.77590895 0.24272436 0.51521486 0.288707 0.4811639 0.44814318 -0.31271565 0.4444605 0.8182513 -0.27617934 0.9261007
] 0.22145048 1.8093612 -0.15022177 0.08716795 0.30938902 -0.3836918 0.42084882 0.51133746 -0.20036028 -0.42918 0.07390266 -1.6189569 0.17767404 -0.3628599 0.21089686 -0.02231495 0.28933328 1.5472395 0.55484325 -1.9479209 0.33514974 1.2743638 0.028649991 -0.3844833 -1.94199 0.50715333 -0.9803231 -0.9505747 0.755921 -1.3317367 0.4650887 0.066470705 0.13173729 0.022736156 -1.4519931 2.0070484 1.9241809 0.4375692 -1.4445304 0.0006217698 0.97234035 -1.396385 0.1935246 0.508355 1.5747268 1.0836103 -1.1460906 -1.349278 1.2122045 -0.0726869 -0.14196526 -0.55841404 0.23668729 0.27228683 -1.1016111 1.0385469 0.20524211 -0.5872417 0.91129076 1.456938 -0.092858866 0.05964068 0.6820697 1.2383361 1.4971851 0.7201567 -0.84846133 1.4505812 0.56725824 0.7545471 0.0017945177 -0.1529241 0.92488813 -0.11028675 0.10061684 0.052420624 0.82988256 0.2347172 -0.03116224 -0.6622626 -1.4610232 -0.9802096 0.067744285 -0.07426926 0.39028114 1.1149354 0.8346286 0.1720791 0.08069293 -0.7232857 0.09107819 0.52017313 0.01912128 0.13782899 0.3799106 -0.084602706 0.4765803 0.8112547 -0.15771167 1.0411303
png_ptr 0.038553085 -2.4435604 0.97001606 -0.91105163 0.06629156 -0.7974359 -1.4691058 0.79487205 -0.013622208 -0.42519847 -0.2130773 0.5811122 -0.99827874 1.0964388 -1.0421231 1.9616945 0.7012711 1.3918669 -0.03579701 -2.2955244 0.11290888 0.80317813 0.45019114 0.099845484 0.94601095 2.1382165 -0.25033206 0.23230828 -0.5945609 0.71581006 -0.24368705 1.1420584 -0.48036718 -0.8253644 0.54143393 -0.7520641 -0.11937591 -0.7195019 0.24586968 0.045300804 -0.12791327 -0.17026523 -0.67391866 0.49966174 0.27141228 -0.34266415 -0.3882324 0.5371902 -0.37710226 0.21893509 0.29818386 -0.9507822 0.035697225 0.29433346 -0.24970755 0.0119332215 -0.8156887 -0.94541484 -0.46755308 0.64817 0.2724843 -0.39827305 0.5428706 0.52821344 0.5833396 -0.08652635 -0.51873153 -0.8255471 0.5714882 -0.13698491 0.44408408 0.7904098 -0.71650094 -0.14816537 0.4622911 -0.2949312 0.017235398 0.19900513 1.1760502 0.64015794 1.186981 0.3755692 -0.2515114 -0.64457583 -1.628155 -0.32138833 -0.025185023 0.37197876 -0.2711464 0.26245335 1.2147315 0.3328999 0.1344345 -0.4295532 -0.9086017 -0.020940205 -1.1267704 -1.0380871 -0.62141925 -0.3823562
1 0.34164912 0.18811871 0.37995547 0.006462653 0.61651534 -0.5747184 0.12304553 1.1472994 -0.46691442 -0.6165745 0.17076401 -0.8451351 0.3751421 0.35651988 0.09086407 0.80493385 0.6194727 1.1001241 -0.043765828 -0.9841279 0.33234015 0.6419262 0.061215594 -0.2595701 -0.35026428 0.35418782 -0.3263881 -0.4955754 0.44740045 -0.41124293 0.42772081 -0.028942246 0.08406157 -0.06775769 -0.61908567 0.6199614 0.56751126 0.4486912 -0.32002562 -0.08702549 -0.015285935 -0.07384789 0.118161134 0.5714935 0.63262993 0.17931364 -0.62330574 -0.46698424 0.24583676 -0.123946324 -0.033793896 -0.5858448 -0.47691303 -0.19909765 -0.40326983 0.18198285 0.038933147 -0.4310425 0.28911957 0.3142689 -0.106215484 0.2065358 0.7012166 0.5023945 0.23579799 0.34841222 -0.4388983 0.5756124 0.2612731 -0.006783551 0.5478178 0.11390134 -0.019877747 0.28565654 0.31789973 -0.14011647 0.44806764 0.07610217 -0.11939184 -0.26763865 -0.4301444 -0.55068505 0.4110594 0.050083056 -0.008650902 0.14632772 0.35798937 -0.5676327 -0.21139589 -0.20208175 0.12872477 0.5029287 0.46274453 0.22753502 0.58222556 0.20724991 0.013694553 0.05083002 -0.32887366 0.36490008
i 0.61780006 0.56705856 -0.24658437 0.65705556 0.701852 -0.015222886 0.9260552 0.89566 -0.33774188 -1.0230936 0.47302556 -1.0129002 0.92669195 0.17779478 1.2201908 1.3729819 0.33931178 1.2459915 -0.025950808 -0.07805985 0.32944795 0.49319547 -0.37650982 -0.15696365 -0.45473155 0.98087335 -1.0031908 -0.7092293 0.23325445 -1.0858693 0.99060273 0.113772735 0.57263714 -0.18065931 -1.1131415 1.9182477 0.86920387 0.97084415 -0.874308 -0.6342051 -0.25789413 -1.2103617 -0.2182585 0.9494927 0.9355456 0.06733619 -0.8429024 -1.1380283 1.3030787 0.24451862 -0.32469508 -1.4870907 -1.1067138 -0.34124783 -0.37497997 0.9261649 0.5016766 -0.16248597 0.8057494 0.02484952 -0.0847608 0.7731288 1.2247665 0.87778944 0.15937053 1.1063485 -0.5656696 1.5035627 0.10021468 0.21572943 1.1047144 -0.39239836 0.25266692 1.1742431 0.8979178 -0.38037783 0.07820079 0.512016 -0.42553374 -0.79302686 -0.99051404 -1.1422844 0.5186914 0.53793234 0.5710927 -0.18968962 0.90094364 -0.42642924 -0.3055985 -0.8891617 0.20577018 0.95714176 1.0245847 0.97481424 1.1171457 0.77037466 0.18707964 -0.3082903 -1.0706931 0.11176601
int 0.31466973 0.08099825 -0.23483106 0.27717453 0.08147655 -0.223298 0.40007985 0.49727392 0.3571103 -0.7140478 0.24224633 0.3272191 0.05874131 -0.13934925 0.67307216 0.083429575 -0.2215344 -1.2016335 0.57973945 0.1703597 0.082440056 0.10064447 0.9313678 -0.07811116 0.029327895 0.8001167 -1.0531274 0.2719779 -0.45421726 0.47883955 0.2808363 0.057570975 0.7421426 -0.5848001 -0.85319316 2.185292 -0.59414077 -0.47607815 -0.062147673 -1.1772116 -0.59490937 -0.9345548 0.012007893 0.5610759 0.304478 -0.068279594 -0.24462938 -0.9472403 0.74408346 1.2188624 -0.04697067 -0.79529065 -0.69122463 -0.4010786 0.97038937 0.8484747 0.1264098 -0.4679967 -0.78553 0.117160976 -0.50764996 -0.10701794 -0.16691896 0.020523988 -0.9580021 1.3281054 0.12826842 0.69788903 -0.19739872 1.0381091 -0.2237139 0.3370901 0.7823893 0.26938653 0.42648098 -0.46508184 -0.12607858 0.63386685 -0.170065 -0.4414587 -0.62250537 -0.008821435 -0.015650254 0.9231784 1.0295876 -0.17479222 0.079282776 0.5700179 0.05190233 -0.7121036 1.3109348 0.59235907 -0.0138038155 0.60112077 0.543145 0.3643555 0.36073 -0.386862 -1.2136135 -0.07597104
< 0.6110152 0.35065553 0.11600089 0.049051337 0.33600324 -0.37125382 1.056107 1.4104917 -0.5902449 -1.3020712 0.6775311 -0.58111477 1.0840257 0.39732677 0.92266256 1.0131711 0.5377656 1.4481747 -0.51820636 0.5625602 0.17837879 0.1521191 -0.40323687 0.17486784 0.19402082 0.2798183 -0.4631889 -1.1072457 0.36685467 -0.82748085 0.51782584 -0.35896525 0.54412466 0.01815656 -0.75086087 1.6316848 0.677967 0.6169271 -0.77163047 -1.3822527 -0.856536 -0.6378631 -0.11261215 1.1802207 1.1759665 -0.005200879 -0.8037728 -1.0961274 0.4969455 0.24062723 -0.10870134 -2.2947469 -2.2562802 -0.52234405 -0.63453704 0.6186975 0.23739427 -0.7612695 -0.020555431 -0.4201077 0.112421624 0.95606065 1.3824759 0.30741125 -0.49240214 1.2719814 -1.2106739 1.1590333 -0.2908049 0.05853837 1.3840675 0.6060305 0.12083206 1.4675475 1.3574517 -0.36057955 -0.0089309085 0.6176 -1.1387339 0.25116742 0.08396005 -1.0828738 0.52052844 0.63612264 0.075747564 -0.063031726 0.97793895 -0.88214713 -0.89194137 -0.34125638 -0.32984573 0.8058401 0.85850537 0.68949074 1.8038471 0.86773723 0.04622321 -1.2525303 -1.43719 -0.3745033
else 0.00049737387 -0.5774209 0.9045283 0.07771658 0.54851615 -0.6397584 -0.14782922 1.4205333 -0.6253635 -0.5571875 0.32650465 -0.6434161 0.46774915 0.42212668 -0.388218 1.2792325 0.93070287 1.0485976 -0.36500424 -1.105551 -0.005441562 0.50898725 0.14244965 -0.5774927 0.1512882 0.17304185 0.18591677 -0.260412 0.6390867 -0.17456084 0.5034073 0.08357644 0.5340386 -0.043333508 -0.59883136 -0.13633332 0.29674977 -0.12594905 -0.23203315 -0.1719282 -0.13459419 0.5200217 -0.21645704 0.45068437 0.76296616 -0.047800902 -0.42560345 -0.2733739 -0.6149106 0.046815727 0.1154773 -0.753348 -1.3315 0.35835 -0.7078148 -0.43115914 -0.22495502 -0.8393208 -0.08569085 0.03713324 0.05500048 0.59525454 0.98448074 0.40192768 -0.10056797 0.27457082 -0.57513034 0.42034906 -0.31283143 -0.0053014914 1.0371902 0.99624056 0.013226989 0.3738558 0.58105 -0.47458312 0.43072477 -0.22173524 -0.22122006 0.36299476 0.43551123 -0.4204217 0.7424026 0.2565977 -0.44160482 -0.3219251 0.04808062 -0.7834483 -0.39186266 0.5280437 -0.21062294 0.50064856 0.5903201 0.28772154 0.9609159 0.23045032 -0.30813313 -0.5235844 -0.25185624 0.34447855
NULL -0.5110408 -1.7772132 1.0379806 -0.4489558 -0.09205564 -0.60543275 -0.9446358 0.25205904 0.22898476 -0.50883454 -0.017845735 0.49954507 -0.61582613 0.6411763 -0.48606083 1.2872975 0.51174295 0.86291635 -0.37086722 -0.7807184 -0.06016148 0.9637069 0.35497576 0.28055695 0.73087275 2.2107756 -0.65092903 -0.09604106 -0.40715766 0.27577037 0.17793433 1.5988265 0.061735794 -1.2639288 0.06548226 0.039912347 0.10111386 -0.86310905 -0.5792832 0.17989935 -0.107848555 -0.38026056 -0.74843234 0.3553604 0.3890606 -0.20557685 -0.053526875 0.21753767 -0.39579353 0.3183117 0.50165826 -0.98014367 -0.36307746 0.41888875 -0.44070655 -0.0615185 -0.72648454 -0.8326692 -0.26351905 0.7218174 0.27925515 0.012554372 0.6406999 0.5271319 0.7295103 -0.29550788 -0.70059395 -0.66810787 0.24881905 -0.15180534 0.4739556 0.6083921 -0.44095433 0.060023736 0.20020676 9.512537e-07 -0.42343667 0.25784585 0.8022393 0.7238338 1.1941842 0.6374517 0.075314224 -0.6501496 -1.3810633 -0.38167536 0.5405697 0.43442714 -0.2882174 0.22614338 0.93134654 0.2728378 0.17055139 -0.2710311 -0.34384444 -0.18560189 -0.76427037 -1.3236147 -0.79238814 -0.34129372
return 0.19304387 -1.0595877 0.8376967 -0.032386485 0.8266975 -0.9928435 -0.76679295 2.0301626 -0.37541535 -1.0165696 0.10291447 -0.5848654 0.10013636 0.6667561 -0.29412422 1.7486355 1.1454178 1.2439083 0.0050732275 -2.1573272 0.16963609 0.6813519 -0.10516511 -0.2184515 0.50217617 0.9712744 -0.5426918 0.38195166 0.21553697 -0.13185008 0.22055122 0.48406735 -0.19157705 -0.061399788 -0.25831136 -0.6893126 0.1695341 0.22743595 -0.05936568 0.73475724 -0.46726626 -0.039217472 -0.35133395 1.1219223 0.2899792 -0.5332051 -0.54091 -0.20005256 -0.18328343 0.3411134 0.015673865 -0.49571893 -0.560663 -0.08415595 -0.19163774 -0.29711214 -0.29246038 -0.8406784 0.07893919 0.32783422 -0.25385326 0.18283924 0.57158387 0.41313648 -0.22604696 0.44665003 -0.3168974 0.21003339 0.39093828 0.01696695 1.0163969 0.6553284 -0.18443576 0.060626194 0.6466922 -0.5721306 0.8868785 0.25575903 0.21749388 -0.026884334 -0.20106423 0.031789012 0.6375874 -0.063177966 -0.3051135 -0.31336248 -0.40213242 -0.27947116 -0.4607927 0.0069838697 0.22837879 0.39133143 0.4705449 0.37843394 0.45873258 0.21463919 0.13323224 0.22251962 -0.57362103 0.4001744
! -0.41586667 -0.9026838 0.86020786 -0.7673938 -0.31067958 -0.344857 -0.42209437 0.17690171 0.23472904 -0.7193019 0.38319668 0.1730396 -0.36216578 0.5154552 -0.347833 0.97829247 0.5831692 1.4127337 -0.5117233 0.6052675 -0.32535407 0.7004345 -0.27373773 0.5708972 0.24124193 1.5283357 -0.6682538 -0.74678266 0.30557892 -0.3679486 0.062881455 1.2396594 0.092429385 -0.8567144 -0.3915371 0.4249856 0.7865016 -0.5996407 -0.989096 0.19786322 -0.15114135 -0.5572675 -0.33786693 0.5682309 0.80240446 0.04466994 -0.13238432 -0.31595287 -0.07447403 0.24086428 0.41038105 -1.3959794 -0.98313886 0.3136039 -1.0006995 0.06303216 -0.39233953 -0.94377065 0.12068212 1.0357584 0.3172159 0.19762622 1.1986874 0.81172734 0.7993186 0.2037505 -1.3111825 -0.13117652 0.21968596 0.15301368 0.98589134 0.7715557 -0.14428782 0.26577628 0.33007023 -0.07739373 -0.09430331 0.5709789 0.1400655 0.8288607 0.79422355 0.3421045 0.31494892 -0.3899461 -0.8193331 0.263825 1.0219549 0.14349833 -0.81745154 0.21420316 0.29869285 0.14068057 0.314662 -0.21728426 0.24294265 -0.16125159 -0.2028138 -1.2293596 -1.1533314 -0.11974689
& 0.008949501 -0.5967584 0.87748176 -0.9293185 0.044149302 -0.23767532 -0.14920203 0.8152726 -0.24817154 -0.804133 0.36425132 -0.23703526 0.12576053 0.43768662 -0.27134803 1.16649 0.5365367 1.1173234 -0.23635845 0.41435754 -0.24114358 0.4167308 -0.2808837 0.19779614 0.32072708 0.6082896 -0.4221855 -0.9252616 0.8282424 -0.326306 -0.006423087 0.3820067 0.3241819 -0.15619841 -0.6046714 0.5177761 0.68428665 -0.20346166 -0.48230714 -0.15646474 -0.36758134 -0.1533677 -0.052839976 0.765603 0.9592297 -0.016652923 -0.45287478 -0.6164705 -0.36994103 0.40700623 0.16094764 -2.072818 -1.7014369 0.48950458 -1.1904378 0.08264603 -0.19828162 -1.0706189 -0.23826377 0.45113763 0.29115847 0.47847974 1.3923017 0.6238812 0.3097711 0.6189819 -1.1717064 0.25735322 -0.190219 0.1772653 1.1086929 1.264536 0.0017494757 0.58832324 0.74964374 -0.5550085 0.031436924 0.4838494 -0.22297058 0.8718974 1.0509408 -0.27906325 0.47207877 0.09767996 -0.62154484 0.40131727 0.71105015 -0.3831404 -0.9421092 0.35907683 0.031594742 0.4898943 0.34133574 -0.05368256 0.84036237 0.3328498 -0.46363154 -1.0341141 -0.8661003 0.111979395
static -0.1589098 -0.58297634 0.23361209 0.055428844 0.23125267 -0.22890931 0.066527806 0.12130681 0.22895758 0.0027132623 -0.3011431 0.605532 -0.7149029 -0.50446165 -0.14744364 -0.49599034 -0.50490874 -2.1224372 0.5935882 -1.1324805 -0.110258624 -0.2071087 2.0223534 -0.30854493 -0.09508015 0.4940271 -0.4289567 0.50908124 -0.85424185 0.9295448 0.14429769 0.22580223 1.0107229 -1.0577128 -0.30533162 2.0448408 -1.1413237 -1.5214629 0.21406983 -2.012154 -0.10000125 -1.1796328 -0.5052824 -0.15522763 0.45797572 0.24473697 0.0006507353 -0.7530434 0.21865304 1.8207396 0.07736783 -0.86198264 -0.019927915 0.38589692 0.8092568 0.60957104 -0.62978584 -0.9839679 -2.0078294 0.2217051 -0.05426453 -0.6681687 -0.42824444 -0.26672822 -1.0741316 1.2879742 0.34452552 0.3094401 -0.8751241 1.7065355 -0.7508834 1.3239862 1.5395018 0.0061488105 0.45878106 -0.8031963 0.032131992 0.30073753 0.377827 0.15776591 0.4608108 0.47711724 -0.9440143 0.67917496 0.36792058 -0.6163379 -0.23117545 1.2304457 0.50789285 -0.033452127 1.8470025 0.33436885 -0.2855254 0.153296 0.055190697 0.2372838 0.08479845 -0.9948592 -0.32442504 -0.4929415
pp -0.48134738 -0.39222538 0.7817012 -0.48954144 0.399351 -0.32902253 0.028660417 -0.41948637 0.60551596 0.1001582 -0.046472527 -0.25388733 -1.1534616 0.54694206 -0.6363615 -0.25823113 1.2515156 -0.26938084 -0.06610799 -3.454887 -0.08105503 0.81277376 2.2089906 0.6864637 0.006833669 1.792823 -0.81877244 -0.81476027 -0.5883223 0.4905649 1.1526035 0.43104878 0.007160408 -0.69379646 -0.6451413 1.2044384 -0.7293421 0.06225512 0.452733 -0.5434856 0.13711499 0.0064084902 0.06963464 -0.78559846 -0.16709751 0.4975874 -0.668918 -0.048655603 0.016360456 0.91967934 0.27230835 -1.0855942 0.87876076 0.38988477 0.051058803 -0.060357384 -0.05845674 -0.50149894 -1.1719116 0.442114 0.22527805 -1.0757076 0.08198284 -0.4657736 -0.022627965 -0.99027306 0.35243496 -0.3461236 -0.036231786 0.07925058 -0.72112995 0.66963625 0.071579926 -0.1276465 -0.23568854 -0.06672942 -0.84002554 0.2638006 0.5131402 -0.16550465 0.766799 0.46991616 -0.07192581 -0.5372724 -0.17418006 -0.54597217 -0.32693318 0.07943448 0.10140346 0.041219756 1.7612531 0.47892576 -0.15212367 -0.9557448 -0.6003307 0.16382179 -0.23929253 -0.33108044 -0.12865481 -0.11274548
dp -0.20780328 -0.1083577 0.9097928 -0.2653102 0.5473386 0.3040509 0.9625138 -0.25718316 -0.10636003 0.016343592 0.043109715 -0.6886697 0.24644466 0.41338643 0.051063366 -0.116409615 1.00144 -0.33605152 -0.37182397 -1.9032214 0.03689419 0.69863045 1.1401008 0.6051877 0.88967425 0.7252119 -0.63984245 -1.3686473 0.17359886 -0.17305848 1.4163201 0.23092501 0.65531176 -0.31421277 -0.86106837 1.9189583 -0.13335606 0.25079942 0.012905632 -1.0398806 -0.46682304 -0.09626861 0.09901264 -0.2173079 0.3496721 0.5292127 -0.93111163 -0.6368163 -0.26681614 0.5949785 0.0024635897 -1.7548175 -0.43780097 0.6173824 -0.76406217 0.055640843 0.37336174 -0.3377249 -0.8511615 -0.122095175 0.5188766 -0.32199553 0.5063773 -0.58277464 -0.44927818 -1.2051921 0.010807427 -0.103596635 -0.16290748 -0.016906682 -0.15042569 0.49803966 0.07804357 1.0074794 0.3160923 -0.6338484 -0.5117824 0.42756963 -0.10245131 0.24779351 1.3347152 -0.6445067 0.06093977 -0.38683042 -0.4688983 -0.622678 0.008782465 -0.81399345 -0.4960665 0.006348991 0.9491091 1.1402028 0.03154208 -0.21314244 0.37967694 0.75515795 -0.41835657 -0.91645825 -0.14065462 -0.16646795
pm -0.017331809 -0.46624285 0.6992748 -0.7885051 0.477826 0.08842903 0.4843267 0.35061663 -0.34775427 -0.5664791 0.036149617 -0.26307797 -0.0969145 0.7342503 0.14376305 0.6187646 2.0254736 0.64160967 -0.18874532 -4.2604814 0.024605487 0.23909195 0.86772645 0.4269014 1.0837635 1.5408285 -1.1819501 -1.2864172 0.21398982 -0.11444604 1.0913033 0.37605062 -0.20713031 -0.16494182 -0.24431145 1.1204765 0.25849438 0.093281865 0.25405762 -0.81126827 -0.7360126 -0.53891164 0.5978049 0.6520127 0.1892619 -0.0848881 -1.3149879 -0.40171337 0.068317376 0.35623872 0.22236575 -1.7714295 -0.40599796 0.8152148 -1.0772874 -0.032113068 0.7913167 -0.33456323 -0.54116285 -0.5717112 0.23743199 -0.27203807 0.87300646 -0.31251943 -0.2328656 -0.9137839 0.3413156 -0.46674693 -0.12732297 -0.43818524 0.13488927 0.5283353 -0.8255479 0.66085196 0.2530257 -0.52846724 -0.22033376 0.69067293 0.109388284 0.18646242 1.1288183 -0.70800406 -0.20156929 -0.4934773 -0.45960394 0.03543948 -0.42691582 -0.602911 -0.88221014 0.26681492 0.54290116 1.0667896 -0.15661728 -0.17748992 0.22145118 1.031969 -0.2954816 -0.72484684 -0.25127313 -0.21915773
pos -0.27089584 -0.063682675 1.4826171 0.7949068 2.0703926 -1.4819036 -0.37920076 2.103217 -0.4761177 0.005953665 -1.0665754 -1.5839276 -0.23757213 -0.56380653 0.383124 0.051487133 0.4108819 0.2841032 -0.14402787 -3.952289 0.7935302 0.6746669 0.6307911 -0.49195212 -0.66570485 1.4743766 -1.386028 -0.40204653 -1.3185875 -1.3397201 1.5433973 1.0676434 0.53070676 -1.6820123 0.11141831 0.5369103 0.6517489 -0.044432797 -1.0928118 -0.3995015 -0.53661597 -0.6760491 -1.516705 0.7533997 -0.008310809 -0.36668912 0.06517824 -0.227229 0.25049868 0.80008876 -0.49759123 0.04913993 1.9689891 0.36614695 -0.07650876 -0.33614618 -0.6243542 -0.7734246 -0.4298326 0.7299244 0.8709494 -0.2507942 -0.19163768 0.17008038 0.9310464 -0.002333242 0.49370596 0.036701825 0.31987277 -0.4330488 -0.45157903 -0.53398454 0.9691225 0.45601946 0.6956248 -0.4605269 0.4065825 0.79967725 1.2699674 -1.3172959 0.09634308 -0.16693102 -1.1144981 -1.1466008 -2.1607435 -1.2643191 1.3716569 -0.060610272 0.27528784 -0.7342127 1.4950069 0.64045125 0.45240638 0.5402611 0.81827635 0.54335034 -0.49695593 0.46824187 -0.23264138 -0.5497943
info_ptr -0.00010317956 -2.0027359 0.82334894 -0.9710952 -0.1268196 -0.41428575 -0.9334731 0.37914747 0.16530956 -0.6060817 0.18987077 0.43728182 -0.5577739 1.12375 -0.6477849 1.9759986 1.1020864 1.3735808 0.18954207 -2.0701878 0.0851143 1.0824707 0.57055515 0.31180018 1.0803982 2.3844314 -0.7088106 -0.16069588 -0.17311884 0.5990698 0.09293943 1.2083296 -0.34034097 -0.5210742 -0.17366545 0.31982815 0.0779223 -0.35752288 0.14471002 -0.026415346 -0.1349295 -0.42362875 -0.19737184 0.54552853 0.49071255 -0.14862552 -0.81118107 0.22614704 -0.26146057 -0.024362799 0.5445315 -1.1926119 -0.32073265 0.29246646 -0.540568 0.27566546 -0.32549813 -0.81073076 -0.24107993 0.51532996 0.11005367 -0.23577894 0.80083525 0.61074513 0.6260171 -0.41851777 -0.48460776 -0.6781077 0.6889711 -0.17062902 0.36177608 0.5937296 -0.9727457 0.09721301 0.41272202 -0.21001512 -0.30374697 0.33958402 0.9480933 0.70484984 1.0914456 0.099594004 0.3366136 -0.5567445 -0.9712024 -0.07652766 -0.20632906 0.175877 -0.4259126 0.17074956 1.1661835 0.58787584 -0.034206472 -0.45046481 -0.68666446 -0.029196003 -1.0364287 -0.94541186 -0.7605593 -0.16981234
void -0.014338148 -1.2828877 0.40657642 -0.15458094 0.06289206 -0.42186865 -0.41203153 0.16299514 0.464841 -0.08332426 -0.23484309 0.9033326 -1.0620058 -0.31031948 -0.34654942 -0.19813062 -0.5300022 -1.8876987 0.35165536 -1.6568568 -0.29674736 -0.2114351 2.1164174 -0.41868564 0.09455142 0.85471916 -0.029466411 0.53380644 -1.0000687 1.159945 0.062253654 0.13156568 1.0079728 -1.4215547 0.16786067 1.1935802 -1.3825285 -1.9349879 0.42454496 -2.1099973 -0.05609323 -0.89680165 -0.77554184 -0.4320504 0.5719043 0.045517895 0.18806286 -0.3820353 -0.10256286 1.9040987 -0.005655925 -0.9974476 0.10035757 0.5212833 0.98347193 0.23250547 -0.83057183 -0.9018375 -2.0253513 0.21337946 0.038495895 -0.6814068 -0.24489623 -0.27289042 -0.9235055 1.1558844 0.26433367 0.10899858 -1.1657453 1.4661362 -0.59153885 1.5845618 1.3778868 -0.18579444 0.323308 -0.6640347 -0.28059876 0.018499652 0.5052557 0.15746844 0.93420184 0.5185635 -1.2402816 0.5016965 -0.020787533 -0.69655186 -0.15262336 1.0048623 0.46436825 0.32775277 1.6046349 0.303277 -0.107290454 0.043916218 -0.03282847 0.37064853 -0.124944486 -1.2212325 0.027587026 -0.85424143
/ 0.6066573 0.34685263 0.18882062 0.40362215 0.2715178 -0.55602515 0.77779156 0.8746647 -0.89379984 -0.4480699 0.020998474 -0.29544023 0.2661588 -0.22699383 0.1622981 -0.4403719 -0.41695988 -0.27236685 -0.15967329 -0.4732647 -0.0360486 -0.53725237 0.73555505 -0.69330704 -0.7271809 -1.2474084 1.0156018 -0.12474376 -0.21100986 0.19012783 0.10561219 -1.2026576 0.5207952 -0.20939362 0.19333947 0.82224804 -0.13050608 -0.49142572 -0.16740052 -1.9550666 -0.0053947265 -0.4388152 -0.054039933 0.012661183 0.92326593 0.39049146 -0.13609837 -0.51331854 0.17968006 0.42304635 -0.25556406 -0.2756221 -0.8407143 -0.3864762 0.11115317 0.45747128 -0.38539198 -0.43858695 -0.6074336 -0.5754326 -0.09716591 0.08515684 -0.041846354 -0.14810906 -0.76011956 1.2294381 -0.2957451 0.8624046 -0.85436976 0.7337993 0.017139018 0.7074306 0.9580284 0.5762704 0.8153153 -0.14284992 0.39798772 -0.4056401 -0.6440912 0.18851115 -0.072007254 -0.84247315 -0.46520132 0.43948713 0.55307895 -0.24111032 0.004503474 -0.0044769193 0.5660891 0.06580244 -0.4260041 -0.04046533 0.259752 0.52844405 0.8108703 0.35984355 0.12839475 -0.7278644 0.38425967 -0.2703866
fprintf 0.1970159 -1.1980777 -0.10121297 0.53500694 0.38341898 -1.682093 -1.5740794 1.669379 -0.1517282 -0.6761659 -0.22172396 -0.20882776 -0.41895863 0.8057458 -0.504335 0.7078248 -0.22774246 2.0851836 -0.94216067 -0.8724032 0.41515082 0.46786538 -0.2641086 -0.5667737 -1.2252806 0.90264004 0.58194584 0.71283007 -1.1442521 0.01818792 -0.8935568 0.5745906 -0.08939853 -2.0426698 0.9672361 -1.6760418 -0.083952 -1.104074 -0.808728 -0.020129872 0.65276253 -0.5169625 -1.1850195 0.52243406 0.8857307 -0.20920464 0.5039415 0.2691775 0.60676587 0.5149833 -0.73022187 0.35902572 0.48598358 -0.80964893 1.0594145 -0.19359854 -1.303434 -0.3712404 0.77927804 0.48448876 0.2818018 -0.2849538 0.2425941 0.7668576 -0.008021556 2.04274 -1.0918275 0.48918936 -0.12459723 0.5453028 1.3771877 0.34078774 0.83882564 -0.7178891 0.9852869 0.445725 1.2528926 -0.23477079 0.10735917 -0.0033857708 -1.112409 0.6502576 -0.9721895 0.07459376 -0.9069675 -0.6756493 1.0567482 1.1300738 0.556738 0.09478788 0.35077238 -0.5623184 0.975317 0.4872561 -0.033197537 -0.038489975 -0.15653665 -0.24769896 -0.7036199 0.012111613
stderr 0.8878866 -1.4669952 0.6460241 0.7208423 0.06673249 -1.829404 -1.5259715 1.1564738 -0.46599868 -0.94269276 0.02478471 0.24010731 -0.8070783 0.58174443 -0.649569 0.929699 -0.3648132 2.08682 -0.65593463 -1.6256129 0.37506804 0.45137808 0.14102134 -1.27675 -1.2936319 0.36509135 1.0674224 1.6020818 -1.270178 0.18850377 -0.6892084 0.4106133 -0.16474512 -2.1385992 1.5839726 -2.1434045 -0.20111875 -1.2244239 -1.0120682 -0.49417314 0.1084326 -0.69876415 -1.6512476 0.6444419 1.3015174 -0.14749677 0.31326595 0.1749807 1.1387532 0.75842327 -0.4890127 0.95807517 0.09079126 -1.0547501 1.4715312 0.15173747 -1.724912 -0.47585145 0.31708103 0.5091745 -0.20671792 -0.07332676 -0.015258059 0.45220384 -0.19552559 2.3508148 -1.0885762 0.29186663 -0.05178825 0.5815319 0.9664175 0.57939285 1.1520338 -0.5848756 0.6185387 0.2619294 1.7030263 -0.93004453 0.057246123 -0.20667571 -1.4725287 0.5851949 -1.5258803 0.28079695 -1.0869402 -1.0395653 0.75496626 1.0676408 1.1519078 0.402997 0.5137576 -0.26111773 1.2366587 0.81109107 -0.06370602 -0.2809241 0.17692117 -0.0867869 -0.59692836 -0.71297455
for 0.58927697 0.1667426 -0.2614842 0.7873325 0.62453187 -0.4647552 0.38268226 1.332323 -0.18788207 -1.0454195 0.3871124 -0.62410825 0.6807292 0.16173185 0.8786862 1.1912061 0.23918627 1.0999143 -0.18151574 -0.39008152 0.34412897 0.3087385 -0.35141027 -0.17607103 -0.27993748 0.78646225 -0.65592504 0.015654169 -0.43771553 -0.73847556 0.44948372 0.13699122 0.46270445 -0.5705606 -0.4897819 0.7664403 0.16045909 0.6543528 -0.7164574 -0.39412782 -0.67451733 -0.76319534 -0.65120655 1.0094955 0.6770126 -0.44458407 -0.3311465 -0.7220618 0.94944406 0.56860375 -0.38335887 -0.6965286 -0.9040929 -0.77991617 0.5034711 0.37918344 0.018012071 -0.23491675 0.44825777 -0.22262551 -0.17674582 0.5441276 0.48021722 0.38928303 -0.4256741 1.3665736 -0.5831498 1.1863626 0.010071914 0.16161089 1.0998951 -0.08631603 0.43017942 0.82422996 1.127443 -0.38232705 0.3767492 0.3941344 -0.40915588 -0.58613074 -1.0489614 -0.5599659 0.31736472 0.60616094 0.2997986 -0.6870319 0.6070211 -0.09117395 -0.10492249 -0.70987463 0.17817014 0.59123427 1.0378941 1.0374675 1.1486439 0.60353845 0.2360987 -0.15602884 -1.3150871 -0.10991986
&& -0.31175727 -0.48733988 0.6424389 -0.9201564 -0.54693466 -0.31092483 -0.09413334 0.14469664 0.14112784 -0.79573065 0.3797945 0.20089658 -0.22174859 0.2717135 -0.15229097 0.8153888 0.69656134 1.6787995 -0.39152718 0.44859543 -0.34055585 0.55955505 -0.34013256 0.47923213 0.15144873 1.4624058 -0.7178613 -1.0996838 0.49312878 -0.35216275 -0.047371317 1.0802039 0.091014735 -0.6532893 -0.4623475 0.64671344 1.0802437 -0.54582965 -1.2353197 -0.09282965 -0.08358958 -0.596383 -0.081649356 0.7265974 1.0689583 0.13907404 -0.2518489 -0.550454 -0.01306802 0.13021393 0.46029422 -1.7300954 -1.4887584 0.4350063 -1.4414879 0.19522864 -0.29602218 -1.011849 0.14698416 0.7519153 0.38683343 0.4543677 1.2986501 0.87770635 0.9834631 0.2935923 -1.4610144 -0.043493673 0.046180245 -0.06531876 0.8920341 0.74188846 -0.14649104 0.45276755 0.43331286 0.1465447 -0.32127383 0.57440287 -0.20666417 1.1801403 1.0483866 0.022220468 0.3076379 -0.35354117 -0.7952177 0.55596966 1.2058715 0.20325382 -0.95571923 0.17250453 -0.1247461 0.15367278 0.08831874 -0.22260977 0.46438226 -0.073303565 -0.273262 -1.4398893 -1.2261626 -0.089982286
2 0.31786454 0.6707025 0.30825475 0.10406799 0.61901695 -0.27102083 0.47075427 1.0088664 -0.5229575 -0.49152246 0.104509875 -1.0746019 0.5468195 0.10772852 0.28614464 0.36561397 0.18789573 0.73995596 -0.0025124187 -0.28138667 0.3774876 0.65439284 0.20137693 -0.25796714 -0.57386297 -0.018601054 -0.3213681 -0.7543591 0.58525044 -0.6776092 0.50457424 -0.33932093 0.49310505 -0.06257276 -0.9274806 1.3975731 0.7038891 0.47668648 -0.4649973 -0.5053456 -0.102868125 -0.16629069 0.039742928 0.52396846 0.9670062 0.41278353 -0.65837413 -0.84861434 0.2693041 0.027915496 -0.099769786 -0.97406036 -0.59888154 -0.20462368 -0.5319702 0.40194362 0.06511549 -0.55654055 0.11839305 0.42374238 -0.062358122 0.29772025 0.80952346 0.55865985 0.2005287 0.6079652 -0.6083901 1.0327328 0.07674734 0.38658178 0.509826 0.35790282 0.46660995 0.5413598 0.49417052 -0.3692733 0.4834832 0.1849639 -0.27350354 -0.36774516 -0.45513785 -0.92030054 0.39943463 0.1645195 0.03214635 0.17098048 0.701819 -0.7966935 -0.2854841 -0.3281701 0.18491392 0.6422499 0.54025483 0.33842877 1.0575355 0.36218184 0.08091269 -0.07804058 -0.3960299 0.44041476
8 0.25743985 0.22692083 0.60271776 -0.5123373 0.32556868 -0.10513915 0.8416135 0.85105914 -0.7206977 -0.77888113 0.37555027 -0.74115306 0.6738797 0.45422786 0.35439378 0.4180622 0.6944102 0.6589618 -0.37577394 -0.41706225 0.26745394 0.31528485 0.18217266 0.24108428 0.5943864 -0.044720374 -0.41381106 -1.3285263 0.7529023 -0.61183685 0.58690876 -0.36840454 0.5412334 0.19923961 -0.64309144 1.4478931 0.45577276 0.53125 -0.070754476 -1.0748459 -0.8034644 0.01580919 0.30002996 0.75552976 0.8557465 0.18478423 -0.9698758 -0.7840023 -0.12840815 0.28815538 0.022559417 -2.3433292 -1.5714644 0.19658236 -0.840031 0.31184128 0.4193766 -0.6404868 -0.50510055 -0.4505711 0.265405 0.56577766 1.0479411 -0.17657313 -0.4646602 0.24527885 -0.63643014 0.5281473 -0.25833735 -0.034944642 0.7515833 0.88464487 0.009503047 1.1290821 0.86351824 -0.5177717 -0.05781828 0.5152678 -0.728624 0.38559172 0.8516997 -0.98593307 0.27018946 0.18664747 -0.35124874 0.04859323 0.5114432 -1.1350569 -0.945382 0.16697882 0.2156377 1.0577583 0.32171822 0.12382808 1.4372995 0.9764513 -0.384566 -1.0009357 -0.6607755 -0.20195897
png_uint_32 0.19318452 -0.28226167 -0.110635035 0.0827515 0.23106667 -0.29921323 -0.027324524 0.57420814 0.298007 -0.43233356 -0.04874082 0.2095677 -0.10895681 0.0063800295 0.35752884 0.22429352 -0.31222463 -0.8474841 0.47620282 0.100464806 0.15704177 0.16272333 0.74797183 0.040346302 0.32440892 0.81452966 -0.84539104 0.33361667 -0.6121441 0.3815186 0.18764731 0.09054393 0.4973663 -0.60896266 -0.6208278 1.4671963 -0.68275315 -0.25958213 0.16818984 -0.81740844 -0.6344439 -0.48343194 -0.35381103 0.31440005 0.1511767 -0.13065842 -0.18385808 -0.6165021 0.35847014 1.015431 -0.034435272 -0.811482 -0.24436519 -0.35187164 0.8739413 0.53916097 -0.11037255 -0.5675646 -0.84239686 0.32791263 -0.2576174 -0.24848124 -0.1862206 -0.07802553 -0.67934364 0.9305428 0.03299418 0.46858743 -0.0109265605 0.8471888 -0.13855742 0.46836305 0.6436127 0.23398238 0.5457742 -0.63501513 -0.12461934 0.5884953 0.10014356 -0.4059076 -0.29239157 0.10084506 -0.030759545 0.68799615 0.3682547 -0.3644997 0.0987054 0.30736995 0.0015714881 -0.6548488 1.4495447 0.53896636 0.19716017 0.28218335 0.3356725 0.4096604 0.055306178 -0.4455699 -1.055574 -0.20927632
ps -0.7037286 -0.87348145 1.1345075 -0.56304896 0.2916283 -0.40883392 -0.0226511 -0.39773822 0.47592092 -0.34786007 -0.049948145 -0.042710893 -0.91305536 0.28161174 -0.41687933 -0.08544802 1.2569166 0.24649239 -0.36898166 -3.5883563 -0.22176807 0.68307585 1.2116262 0.6847788 0.69758457 1.9690095 -0.7611494 -0.89233994 -0.519821 0.084150255 0.87256896 1.1733305 0.0013230549 -0.8855546 -0.11208721 0.5806138 -0.23091674 -0.32970876 -0.26470342 -0.33370805 0.12990664 -0.72616196 -0.16279237 -0.4695629 0.028267076 0.2832336 -0.61588424 -0.14390975 -0.120807074 0.8034042 0.41134712 -0.9945994 0.5409273 0.9066212 -0.67689395 -0.28859928 -0.07221412 -0.4709576 -0.8930399 0.40210044 0.5111414 -0.6227601 -0.021198375 -0.43866423 0.38562253 -1.3386413 0.045648612 -0.87066233 -0.15446503 -0.15886468 -0.35846603 0.43644023 -0.16474047 0.13938372 -0.22400321 -0.1329224 -0.69247174 0.44776317 0.4587053 0.45963916 1.4591582 0.51348156 -0.44442984 -0.9912878 -0.6061859 -0.38894662 -0.15957491 0.53735054 -0.17481947 0.15867989 1.1106973 0.3421818 -0.23037437 -0.6502506 -0.7714292 0.1562251 -0.41232556 -0.9702775 0.011669908 -0.3915683
in 0.40215364 -0.029768387 0.5543348 -0.14877526 -0.15093583 -1.134675 0.42967516 0.71771634 -0.8601473 -0.3789098 -0.31071517 -0.15926841 -0.28627324 -0.48176914 -0.5521933 0.17976862 0.48534822 1.0591189 -0.21194056 -3.9896185 0.3104786 0.05298085 1.9188925 -1.0470028 -1.5946304 0.33233678 1.0538609 -0.6826892 -0.37009618 0.48316655 0.5241396 -0.5552445 0.17613502 -0.20620795 0.24966498 0.3614497 0.2560713 -0.8647373 -0.1519944 -1.9174749 1.2461255 -0.035158925 0.17331357 -0.63271534 1.2626202 0.8392014 -0.23577403 -0.20211011 -0.117541805 -0.23842746 0.3488311 -0.41577843 -0.38683513 0.073047735 -0.63126004 0.1990226 -0.5336211 -0.4796644 -0.5555234 -0.63132584 0.52111346 -0.14062895 0.17809515 0.08195678 0.8832265 0.49008548 -0.5038132 0.3019978 -1.1444832 -0.09225376 -0.83140403 0.5329482 0.13658358 0.09775379 0.26492637 0.5893364 -0.44907802 -0.96575874 -0.14051417 0.3943446 0.65312904 -0.5513547 -0.9512968 0.033700228 -0.678694 -0.1828523 0.36203805 0.25801247 0.4610405 0.20564516 -0.38957334 -0.30507913 -0.041956276 -0.32136053 0.03219869 -0.20511203 -0.686796 -0.881189 0.9879714 -0.5857142
#endif 0.060048055 -1.7460542 0.8104882 -0.02674054 0.63707495 -1.2481302 -1.1846489 1.75755 -0.1846116 -0.7909312 0.16630472 0.07157402 -0.29101053 0.68345183 -0.58662534 1.5883636 0.47910988 0.7617533 0.0013270852 -0.86506754 -0.1055249 0.3509329 0.050216228 -0.50774455 0.56217664 0.73301816 -0.053261984 0.8634371 -0.31163535 0.42423928 -0.19990927 0.6249022 0.1734526 -0.70845556 0.0994886 -0.89522326 -0.40664154 -0.7018152 -0.04680505 0.19598125 -0.41316983 0.08063653 -0.8148862 0.7246013 0.33083677 -0.5704325 -0.011926904 0.15578204 -0.30011517 0.7086558 -0.021847192 -0.24176827 -0.66393006 0.02849421 0.36964965 -0.24580696 -0.817236 -1.0386493 -0.29419205 0.49799013 -0.15911949 0.10191897 0.37255457 0.4422423 -0.43805766 0.84806633 -0.40409267 -0.042713128 0.16392376 0.33317885 0.9909931 0.9377063 0.27335626 -0.11915596 0.6909097 -0.4936144 0.6729526 0.00015688862 0.3047533 0.27831838 0.14709233 0.50060296 0.32640576 0.22296563 -0.45415714 -0.5286769 -0.21647784 0.2721367 0.04220632 0.31642142 0.53369856 0.1845647 0.42919257 0.39418313 0.30346787 0.056475773 -0.2722345 -0.45221165 -0.7581094 0.09162385
row 0.17120557 -0.08139448 0.15612741 0.4787174 0.7419296 -0.067153975 0.36576515 0.8493862 -0.17897882 -0.4937141 0.1394376 -0.42991477 0.7830589 0.29453254 0.70470667 0.6283618 -0.26800138 -0.12558225 -0.08996513 1.2263244 0.26200998 0.6021336 -0.14577009 0.12659244 0.5914453 0.3689427 -0.6923162 -0.033022236 -0.22670828 -0.4016561 0.48224235 0.19410998 0.7304057 -0.61246556 -0.8214723 1.6523417 -0.20172144 0.14942046 -0.3134128 -0.8319 -1.0048218 -0.47525957 -0.7451639 0.7497406 0.53481287 -0.09661708 -0.3195339 -0.80197245 0.2163974 0.5489538 -0.15745291 -1.1860331 -0.9525357 -0.5642506 0.35153246 0.4721842 -0.17659631 -0.6353577 -0.2335521 0.30476764 0.021168107 0.31956577 0.50014675 0.2328905 -0.7691698 0.7764514 -0.5234631 0.7900293 0.20021236 0.5771415 0.7424187 0.440218 0.65864044 0.89191455 1.074324 -0.80988383 0.27981097 0.5348235 -0.19163986 -0.34931588 -0.2103661 -0.5802694 0.41058 0.54540575 -0.11136531 -0.7586933 0.5496137 -0.595963 -0.2252856 -0.68996847 0.9310778 0.9855296 0.8208142 0.7558041 1.2259794 0.5987914 -0.004715504 -0.6129147 -1.3463577 -0.12615545
bit_depth 0.16763422 0.16085313 0.34913883 -0.4409866 0.40508524 -0.022779038 0.6129899 0.727139 -0.13640302 -0.52604085 0.27771667 -0.27051866 0.4950631 0.78040653 0.43437186 0.20531842 0.9602631 0.03129301 -0.1757503 -0.5583843 0.40393576 0.5660379 0.61923623 0.6257782 1.1584331 0.63850886 -1.105015 -0.9128186 0.3049809 -0.13980787 0.6993991 -0.08934244 0.45862246 -0.100878395 -0.9534605 1.9715365 -0.101375476 0.55165315 0.26165074 -0.8083719 -1.365791 0.2817573 0.4757625 0.9001324 0.1775249 -0.034154933 -0.9810207 -0.6708687 -0.06526176 0.5161605 0.10334533 -2.0550313 -1.1704333 -0.28568512 -0.06406869 0.31206587 0.52217484 -0.71010566 -0.8010642 -0.2755656 -0.020940509 0.05921248 0.669472 -0.36656266 -1.0361154 0.05977142 -0.14400929 0.25194854 0.20219292 0.09666952 0.41227746 0.7283232 -0.18241192 0.85381275 0.7565718 -0.6558735 -0.08241609 0.87912875 -0.46309084 0.036403727 0.510272 -0.5380555 0.40457323 0.23632029 -0.11874812 -0.21584706 0.24091676 -1.1191932 -0.98467094 -0.16393371 1.2086134 1.2460754 0.12674138 0.090903535 1.1950939 0.87612015 -0.15197304 -0.68827975 -1.3933003 -0.07229447
buffer -0.3057607 0.2720647 0.8045465 0.1564546 1.2572044 -0.34878188 -0.04817988 0.67492473 -0.17991476 0.19440292 -0.55111855 -1.0453961 -0.12914854 -0.26041424 0.36236113 -0.25163463 0.4326241 -0.02882461 -0.010580947 -2.6060977 0.3144767 0.40595725 0.3212673 0.013286914 -0.20619741 0.7669164 -1.0584387 -0.64152795 -0.53564006 -0.9766526 1.0367476 0.57340103 0.2101928 -0.89095557 -0.1847591 0.8237974 0.5113627 0.040549744 -0.5638765 -0.35951474 -0.4189315 -0.6265487 -0.7038014 0.44596246 0.015718061 -0.00011907933 -0.34299946 -0.31043798 0.22344448 0.5643947 -0.27153924 -0.27109185 1.3635874 0.47768232 -0.31279147 -0.14262378 -0.051904235 -0.29607743 -0.29388258 0.4959873 0.5104377 -0.25651193 -0.011379131 -0.011822029 0.5076721 -0.37020844 0.4466949 -0.104833685 0.2528026 -0.120712645 -0.29298154 -0.19985723 0.5683655 0.28365323 0.28791764 -0.53181434 0.32935596 0.70771587 0.76984143 -0.79895884 0.17826027 -0.32420015 -0.7535503 -0.7802735 -1.1274567 -0.5102616 0.64479303 -0.13506824 0.045687314 -0.37020886 1.0379078 0.65394557 0.0925779 0.2344763 0.39961395 0.5516501 -0.18862376 0.385962 -0.035722755 -0.23321997
char -0.119954236 0.513326 0.424711 0.4256046 0.6895978 -0.017113367 0.2573419 0.4179622 -0.19202188 0.21365002 -0.42794818 -0.6778119 0.22682327 -1.0140034 0.45581865 -0.51475996 -1.147041 -1.4321023 0.405994 0.62291396 0.13509157 0.114741616 0.49044544 -0.732827 -0.8318952 -0.39070278 -0.4143952 -0.14310405 -0.06826549 -0.58772707 0.42111897 0.07292181 1.1667799 -0.63703096 -0.6283851 1.5775499 0.18208922 -0.6910736 -0.5987522 -0.92154527 0.0005820462 -0.805211 -0.6605221 0.1726817 0.6237258 0.2338857 0.19953354 -0.8763283 0.08729003 0.89341295 -0.2741706 -0.38147843 0.21248464 0.4431671 0.07998821 0.38664055 -0.22906797 -0.45051327 -0.554792 0.5360467 0.2342271 0.11778179 -0.02950043 0.27442002 0.15638171 1.0068884 -0.03787019 0.74962807 -0.5380805 0.97847813 -0.37002376 0.48749617 1.5310289 0.25743988 0.39349768 -0.7511268 0.35209256 0.17409664 0.2912994 -0.5192462 -0.122936115 -0.41165096 -0.65280104 0.33714893 -0.21366115 -0.1978138 0.93364316 0.31748325 0.26841983 -0.35219222 0.7343608 0.47861856 0.09894844 0.6440252 0.9493965 0.3911664 -0.02786236 0.011544786 0.0805804 -0.060863413
out 0.27280286 -0.2113185 0.7375108 -0.21060501 -0.10241725 -0.9107862 0.64089113 0.8036649 -1.0038308 -0.5074138 -0.24428748 -0.22681302 0.046754856 -0.327046 -0.3149007 0.63191503 0.6350188 0.92846876 -0.2809242 -3.7219641 0.39006042 0.16464546 1.9783717 -0.9701125 -1.1321727 0.63110405 0.76567835 -1.0553942 -0.14471233 0.36835352 0.8746567 -0.39050338 0.5251088 -0.1238032 -0.024018027 0.81341434 0.21129908 -0.6738859 -0.11650631 -2.011722 0.9419708 0.13235362 0.14670609 -0.45901498 1.3624852 0.71831083 -0.37611815 -0.35222104 -0.36566016 -0.16363508 0.45487803 -1.3574178 -1.0553329 0.35186493 -0.9458671 0.1650819 -0.41808334 -0.6735372 -0.8110521 -0.89041036 0.6336454 0.21450438 0.66547173 0.086055204 0.8163797 0.31585923 -0.59451956 0.37025392 -1.3073869 -0.25888324 -0.5391562 0.80579495 -0.053276982 0.59574324 0.46565753 0.3746388 -0.8004438 -0.8524445 -0.19817282 0.5468264 1.309029 -0.8079392 -0.6824775 0.11519227 -0.9594242 -0.31791484 0.48309064 -0.22857013 0.070108466 0.35734037 -0.25721192 0.117011316 0.10844915 -0.32079843 0.4624742 0.19237591 -0.9997541 -1.3425945 0.84189343 -0.71537715
|| -0.20199612 -0.16136156 0.44566336 -0.83406264 -0.4378126 -0.32783857 0.034049258 0.2234242 0.14717801 -0.8412389 0.44212595 0.08954535 -0.09621535 0.36099532 -0.00327761 0.73451716 0.80872786 1.6573461 -0.28603217 0.26589468 -0.18144175 0.67753255 -0.3058332 0.56632423 0.13686998 1.4596598 -0.900527 -1.1023436 0.55142105 -0.47768572 0.054942813 0.9986219 -0.029720215 -0.5415433 -0.63010406 1.068865 1.196022 -0.24545272 -1.240343 -0.13994813 -0.118448935 -0.7733288 0.11710569 0.81687754 1.0154064 0.24160825 -0.53419715 -0.60854125 0.17561038 -0.017299067 0.48541716 -1.635023 -1.3619155 0.2316093 -1.336051 0.350567 -0.1283608 -1.0062635 0.19669914 0.7984894 0.19931489 0.39009747 1.246748 0.8552643 0.9535474 0.2580164 -1.3248894 0.09165875 0.2921533 -0.057249915 0.8004698 0.47983983 -0.28399703 0.44602767 0.31406242 0.19053671 -0.19992329 0.6582082 -0.21771811 0.9300573 0.65803665 -0.054946788 0.4442563 -0.38980213 -0.4651577 0.6719644 1.0183183 0.12984475 -0.9250593 -0.025630582 -0.03348858 0.23854288 0.021730864 -0.23246256 0.40648222 -0.117173366 -0.081391975 -1.1691457 -1.2683474 0.0114025045
that -0.052893728 -0.40405762 1.0250933 -1.0191529 -0.09008695 -0.227815 0.9301757 -0.062343363 -0.3165627 -0.3660094 0.37156042 -0.056809843 -0.37324357 0.69243544 -0.49231905 -0.2188659 1.5433903 -0.27282622 -0.42153695 -3.3302917 0.07121101 0.28153598 1.8928484 0.5346049 0.96173817 0.76017547 -0.1783358 -1.6604999 0.40426868 0.53731424 1.0061404 -0.1995563 0.32542858 -0.17968327 -0.33454767 1.8272972 -0.24262285 -0.16769269 0.6070122 -2.0902293 -0.34404024 0.05826186 0.9990143 -0.13148107 0.60686445 0.5203515 -1.4184237 -0.27863893 -0.39779887 0.7677878 0.34982464 -2.5499122 -0.8789595 0.69001913 -0.6597093 0.23039933 0.38096717 -0.5419138 -1.5758843 -0.86792994 0.3361406 -0.37732375 0.5775339 -1.0771192 -0.9223923 -0.88568795 0.09579888 -0.28126225 -0.5531997 -0.0864112 -0.33564803 1.3654509 -0.2643692 0.71305215 0.44933861 -0.23727205 -0.6866852 0.20590441 -0.37809664 1.1485772 1.993128 -0.42905346 -0.35705593 -0.35316494 -0.21311025 -0.22254637 -0.44248402 -0.5406435 -0.6234053 0.78348434 1.02561 1.1516986 -0.5476408 -0.5477122 0.3421176 0.84173846 -0.7347606 -1.5360161 0.17680421 -0.48867336
png_byte -0.05873564 0.65347695 0.32834327 -0.25497302 0.49101123 0.37576994 0.6824187 0.07683051 0.0410579 -0.1020362 0.08382595 -0.5756799 0.18893513 0.032725364 0.5054482 -0.30474287 0.15131947 -0.7720519 0.14524125 -0.3781143 0.2570824 0.40854508 0.7642696 0.3491484 0.17686406 0.45333242 -1.1248137 -1.0232538 0.3052423 -0.5095418 0.791328 -0.01752989 0.72443634 -0.38931602 -1.0485765 2.391697 0.116179965 0.26878363 -0.053251613 -0.9695034 -0.6866372 -0.4135237 0.20762493 0.3932777 0.44634634 0.19659638 -0.7208704 -0.8915146 0.21927162 0.80932933 -0.043188125 -1.5906394 -0.1910851 0.29472423 -0.19404235 0.4902623 0.46292502 -0.45042723 -0.7048132 0.1334037 0.11158284 -0.061631743 0.45413533 -0.084240146 -0.4126429 0.18461873 0.029322194 0.5831034 -0.03601114 0.5550382 -0.067436695 0.56944543 0.5742758 0.6414621 0.44679052 -0.79301167 -0.11901539 0.81191343 0.0056950347 -0.3358812 0.23595953 -0.601885 -0.067407615 0.112011164 0.07869306 -0.019305406 0.499981 -0.5686005 -0.5288789 -0.31514943 1.3038864 1.0930948 0.03140175 0.09415581 0.9711445 0.8218465 -0.046130817 -0.3150065 -0.6330191 0.024078961
case 0.7560984 -0.2545051 0.747611 0.3971657 0.9804553 -1.4938148 -0.49403235 2.9878225 -0.7960907 -1.4748194 -0.013809082 -1.3350569 0.7183355 0.08148337 -0.36214876 1.214571 0.6572986 1.479169 -0.060138043 -1.6086708 0.46206927 1.0686778 -0.47912914 -0.48656917 0.116432875 0.034767397 -0.3412542 0.7411208 0.69700843 -0.62590194 -0.27415556 0.2336014 0.31088567 -0.11206677 -0.51575834 -0.4034908 0.69544363 0.13053821 -0.5083398 0.21089128 -0.5834747 -0.33830142 -0.38957888 1.5672212 0.6260228 -0.2057324 -0.4920214 -0.76219827 -0.12478227 0.18963285 -0.22818 -0.08008138 -0.83787227 -0.7257085 0.16751058 -0.2623891 -0.45097688 -1.0821918 0.12948266 0.7293848 -0.31695625 0.3445814 0.21621986 0.6380899 -0.5203021 1.4297659 -0.70772374 1.0265104 0.3737113 0.6073259 1.0130323 0.5744724 0.8191336 -0.006288988 0.6540223 -0.568742 1.8220029 0.15007389 -0.4350646 -0.081784844 -0.9047748 -0.06787451 0.52110225 0.031220432 0.00041498212 -0.20999268 0.024106197 -0.3575801 -0.63180745 -0.2323023 -0.030922737 0.30449143 0.69125646 1.0550878 1.4109808 -0.07357336 0.76223505 0.55193317 -0.87422943 0.5869388
sizeof -0.29767305 -0.22534722 1.1336504 0.39579597 1.3537066 -0.9663151 -0.30934784 1.1349239 -0.08512667 0.038187947 -0.71639305 -0.9114507 -0.39066043 -0.3957352 0.22022364 -0.10780337 0.3110805 0.15369178 -0.13030641 -2.9623265 0.34059948 0.5843282 0.5535474 -0.2002406 -0.3316979 1.2478975 -1.0159812 -0.28480306 -1.0414821 -0.8049004 1.0291171 0.9337343 0.34124154 -1.3496132 0.011765492 0.63098216 0.41241094 -0.29952452 -0.84232867 -0.54220295 -0.3119202 -0.81373787 -1.1590807 0.42118427 0.08478811 -0.09015448 -0.09071046 -0.20665845 0.21702248 0.7112295 -0.28362465 0.025283081 1.5346255 0.29125738 -0.08990588 -0.16262087 -0.5459204 -0.6552346 -0.42081094 0.73535645 0.652688 -0.3490309 -0.26288915 0.071613796 0.6349562 -0.13892402 0.3388253 -0.19250542 0.2225092 -0.09131466 -0.45269364 -0.25688726 0.82470626 0.25740558 0.4660942 -0.3682516 0.3424806 0.667113 0.9844987 -0.74993855 0.29523844 0.004818199 -0.93631345 -0.9108156 -1.4773381 -0.88783306 0.905851 0.27832517 0.23083696 -0.56745374 1.2253106 0.45889312 0.22421907 0.32346174 0.32778692 0.31739098 -0.29925263 0.16349065 -0.17089763 -0.4558271
a 0.37265044 0.20606038 0.42497241 0.110387996 0.029646061 -0.68408203 0.718965 0.7241603 -0.9554331 -0.32898223 -0.14624704 -0.45779863 0.2697399 -0.2959698 -0.23663944 0.22916582 0.39149973 0.68744034 -0.2406611 -2.7657232 0.3300813 0.047231838 1.4622298 -0.92121935 -1.1366099 -0.26421517 1.0481827 -0.67567766 -0.0073095053 0.28039113 0.60835487 -0.8635011 0.3356384 0.21628019 -0.05125885 0.46753803 0.08270814 -0.27366632 0.07815768 -1.5547734 0.86449045 0.32374346 0.27397838 -0.5070455 1.01447 0.67258716 -0.2998092 -0.21771976 -0.20859508 -0.4263585 0.21555215 -0.4364378 -0.6405988 -0.029821523 -0.51542693 0.08389967 -0.17545168 -0.19342001 -0.33898228 -0.8743665 0.29932767 0.16373415 0.26156935 -0.078263596 0.37710765 0.24195072 -0.281574 0.52631646 -0.99977934 -0.1935485 -0.43382812 0.4432156 0.049362246 0.3218179 0.29084817 0.3541897 -0.33066866 -0.9437109 -0.40549892 0.1663603 0.4061481 -0.8272317 -0.36632913 0.25054228 -0.2767512 -0.26525345 0.07171184 -0.3549457 0.3066946 0.22183827 -0.53915936 -0.03292291 0.20027715 -0.09643764 0.47414345 0.08431522 -0.51232696 -0.6008403 0.9615635 -0.28491253
b 0.31012964 0.8255938 0.43920627 -0.019802405 0.1633671 -0.37323028 1.2441912 0.7569391 -1.023691 -0.47202408 -0.072025456 -0.91742086 0.6687964 -0.41720644 0.19038738 0.44298 0.56231713 0.7405705 -0.08696847 -2.628613 0.4931805 0.4176178 1.5906168 -0.7530627 -1.1888279 0.14329627 0.37546262 -1.4102443 0.44474074 -0.15512834 1.1523508 -0.79326576 0.64864475 0.47347376 -0.88203627 1.7143747 0.5322155 0.22760323 -0.09355061 -1.6755623 0.7010771 0.22543082 0.4900288 -0.25444397 1.2541693 0.85659146 -0.6733212 -0.7565904 -0.17125073 -0.47784674 0.35011092 -1.4246296 -1.1175867 0.09959267 -1.070188 0.3200325 0.2156015 -0.43317956 -0.39152503 -0.749396 0.43336523 0.43165538 0.8310954 0.19011593 0.71295524 0.16421251 -0.44529837 0.89887035 -0.9820951 -0.23889753 -0.4569941 0.42228407 -0.008133523 0.8426878 0.39397824 0.15654084 -0.6852425 -0.5647489 -0.48465648 -0.018048141 0.656448 -1.2815242 0.018554322 0.2755663 -0.3064331 -0.08076222 0.5210694 -0.89777476 -0.1828999 -0.07523656 -0.32866237 0.46787086 0.26162606 -0.15436204 1.0642853 0.3226658 -0.6049272 -0.7372103 0.66179806 -0.20368323
x 0.5778688 0.30139598 -0.02157388 0.5702274 0.91317004 -0.6559854 0.42446083 1.6362212 -0.3887793 -0.83192885 0.09266692 -0.66152936 0.68965226 0.263646 0.97496426 0.4165886 -0.07352876 0.15448147 0.021677533 0.34984586 0.52403957 0.29038498 0.101423584 -0.16431636 0.061365344 0.281922 -0.8605895 -0.04230715 -0.49098063 -0.36603794 0.49875808 -0.3643419 0.5812038 -0.6002363 -0.7306516 1.586714 -0.26915482 0.44731745 -0.27326885 -0.9241154 -1.2182333 -0.308577 -0.43713668 0.99378055 0.4580752 -0.242287 -0.42442572 -0.960643 0.6651592 0.7322229 -0.3377781 -0.98515993 -0.80741 -1.0013657 0.7940909 0.51831484 -0.028166028 -0.7039652 -0.32156733 0.12691014 -0.19548391 0.23072746 0.2501166 0.061821956 -1.013071 1.4409077 -0.30403805 1.0857484 0.115540504 0.60588473 0.5663743 0.33356133 0.76020205 0.798492 1.28558 -0.78806466 0.46343878 0.7588128 -0.48129368 -0.8190042 -0.952263 -0.58558697 0.24561816 0.90123963 0.24951552 -0.5950387 0.5850038 -0.58052707 -0.116190165 -0.96853113 1.0273753 0.8436127 0.84852827 0.87352306 1.4910103 0.80371994 0.2234192 -0.31947052 -1.600829 -0.054843165
this -0.15033391 -0.43803266 0.90082914 -0.8461259 -0.070049815 -0.1285013 0.7362402 -0.25692979 -0.13374001 -0.21938969 0.2580955 0.0774259 -0.47206828 0.5423696 -0.43764797 -0.32160205 1.3420312 -0.40888405 -0.35044765 -3.1513174 0.005753526 0.13268924 1.6991603 0.47850186 0.85771203 0.762995 -0.16071907 -1.3136616 0.18882155 0.52999455 0.83374983 -0.119542986 0.18557112 -0.19332393 -0.11108502 1.3786817 -0.3661626 -0.28409445 0.5633136 -1.7587962 -0.28299457 -0.029499633 0.8665584 -0.21484248 0.38045526 0.40239707 -1.1617112 -0.15388592 -0.29971704 0.78850657 0.25831193 -2.0006635 -0.48167902 0.62260276 -0.4311986 0.121731825 0.2886729 -0.39952675 -1.4300823 -0.7936464 0.25072008 -0.44544274 0.3230152 -1.0215746 -0.86715305 -0.8169775 0.24190968 -0.35515845 -0.48754555 -0.04655694 -0.4189417 1.164317 -0.20241345 0.4724916 0.30059144 -0.1916421 -0.5464174 0.15641403 -0.21775429 0.9225871 1.6906561 -0.21469137 -0.48129585 -0.3340141 -0.10041395 -0.26464438 -0.49805206 -0.29578626 -0.48560005 0.6701501 0.9062877 0.90261763 -0.56653273 -0.5095746 0.08661341 0.7153029 -0.55722684 -1.2369853 0.31128472 -0.45985192
3 0.16053887 0.4627877 0.2827376 -0.10339587 0.5246622 -0.26605043 0.2482678 0.7863819 -0.2362212 -0.5148537 0.10483762 -0.8116524 0.29089937 0.15790509 0.24151392 0.4687816 0.49738833 0.79115385 0.026288226 -0.8633952 0.26458964 0.65764904 0.1608534 -0.05594822 -0.30769795 0.4952348 -0.68862265 -0.6954435 0.42225242 -0.57948864 0.48890817 0.067076 0.2553092 -0.20118515 -0.8394084 1.1470276 0.65819854 0.42682722 -0.4156067 -0.15609905 -0.17844376 -0.28376085 0.048258167 0.57736653 0.7425607 0.24220029 -0.69069 -0.7106625 0.3489383 0.18349354 0.0063514644 -0.99402785 -0.42455313 -0.032290883 -0.5402148 0.32352987 0.17338929 -0.5160799 0.11616356 0.44515875 0.014732409 0.17779705 0.68979424 0.4821453 0.30034068 0.35571083 -0.45403734 0.6266769 0.21900268 0.16414648 0.3956362 0.21128397 0.25876206 0.39213896 0.38474673 -0.34498742 0.32658502 0.39060858 -0.08891513 -0.29792604 -0.28584522 -0.61684906 0.30636272 0.024506597 -0.080204494 0.17709589 0.5614449 -0.45148656 -0.3520903 -0.32653978 0.42466193 0.6590676 0.35538593 0.20854725 0.74052894 0.30554098 0.025026202 0.007953665 -0.57060266 0.32718617
image -0.28649577 -0.9480406 1.2040296 -0.41231245 0.40246078 -0.9015196 -0.55912143 0.52881646 -0.14538641 -0.5446123 -0.21869452 -0.33655566 -0.7214933 0.18540558 -0.50256544 0.35028982 0.92655253 1.1046665 -0.29795069 -3.3883843 -0.06887891 0.4762662 0.25286612 0.23197895 -0.1465707 1.1683786 -0.26298636 -0.38563272 -0.42239603 -0.13076597 0.14237851 0.84452933 -0.48776054 -0.8202033 0.38946596 -0.8323879 0.2969896 -0.4475261 -0.5115857 0.2851546 0.47272262 -0.45222932 -0.28506234 0.08994631 0.14723615 0.16628824 -0.28576154 0.14950147 -0.16510466 0.2636516 0.0637186 0.023581482 0.64461136 0.46883395 -0.5223076 -0.4993936 -0.5495787 -0.25422925 -0.14942148 0.5930021 0.27354214 -0.2940366 0.0027242221 -0.039233457 0.6973038 -0.5488942 -0.2513982 -0.5956408 0.046336822 -0.2700308 0.07375703 0.32701162 -0.18390363 -0.44787917 0.045888536 0.019764895 0.18077888 0.1427487 0.5667602 0.23065807 0.6569223 0.43192855 -0.5964382 -0.7257502 -1.0526948 -0.026391579 -0.03582651 0.7239092 0.18754688 0.10237332 0.24071464 -0.19404411 -0.031261027 -0.2656425 -0.7612326 -0.14547971 -0.32619962 -0.21055214 0.31232518 -0.24413879
unsigned 0.39187226 0.65380484 -0.45596048 0.39014626 0.09661121 -0.255116 0.51962465 0.41993657 0.08642006 -0.48967168 0.032888625 -0.019660842 0.1504762 -0.16288082 0.8106274 -0.22553934 -0.29602164 -0.6109283 0.44570354 -0.20871824 0.3497709 0.034006912 0.70332503 -0.010912334 -0.57441056 0.4524361 -0.7824231 0.050522838 -0.57929903 0.23730037 0.27982184 -0.26759794 0.40469083 -0.39921314 -0.6737641 1.9313393 -0.27334738 -0.025682641 -0.18454099 -1.0796189 -0.35855627 -0.7979613 0.15200192 0.544621 0.34256577 0.17249577 -0.29371598 -0.9075829 0.95701295 0.83820295 -0.087926865 -0.5897133 -0.4176603 -0.7544813 0.80879736 0.87604964 0.13843593 -0.3839097 -0.49396136 0.003046947 -0.32119766 -0.15603763 -0.25008157 0.0056622936 -0.69403815 1.4242829 0.021206085 0.9023692 -0.11377209 0.8146734 -0.3778744 -0.057218518 0.7264018 0.3085857 0.61641073 -0.19164011 0.0031746232 0.5884133 -0.30155215 -0.6786649 -0.94304514 -0.22143544 -0.25577185 0.8674755 0.8409717 -0.10942615 0.33888587 0.5236322 0.22629662 -0.9682322 1.0699581 0.3529504 0.032611758 0.5252429 0.47164568 0.38056356 0.28527692 -0.02669192 -1.0667137 -0.028734215
msg -0.12594907 -0.16738345 0.88679534 0.56289345 1.2842249 -1.1341106 -0.5377924 1.4454821 -0.13969137 -0.025398407 -0.6989441 -0.91529703 -0.32787508 -0.46123382 0.08721508 0.10450655 0.1237543 0.29717192 -0.03362455 -2.4081814 0.40444833 0.56230223 0.2730305 -0.40686318 -0.5517913 0.9707509 -0.8310512 0.124495834 -0.92137814 -0.73483706 0.72357404 0.8759011 0.3252657 -1.2177718 0.075752504 0.2082311 0.47859958 -0.24572237 -0.8606863 -0.12885354 -0.18307644 -0.6382982 -1.211155 0.5094168 0.06631761 -0.21237 0.1787577 -0.09434735 0.2605282 0.56596935 -0.34004122 0.43127847 1.4463454 0.11448999 0.12233851 -0.18475944 -0.65225756 -0.61668617 -0.15685454 0.86017644 0.47517806 -0.23867872 -0.23866248 0.3359587 0.70120203 0.22873789 0.27001554 0.049870394 0.3207258 -0.0115283 -0.29257268 -0.3671666 0.84826124 0.03838378 0.37405542 -0.24974476 0.5362566 0.45495027 0.91823435 -0.7942985 -0.16790217 0.12679148 -0.7176129 -0.72639525 -1.2500795 -0.8010512 0.86191636 0.34623727 0.31767198 -0.49379557 0.9516593 0.2113443 0.31129754 0.39389682 0.31377634 0.04098885 -0.13002276 0.45932359 -0.20472649 -0.2500322
break 0.45139256 -0.42608616 0.9363527 0.32366383 0.9536943 -1.3237193 -0.4403781 2.4982486 -0.8009176 -1.131175 0.031037576 -1.2277871 0.5786022 0.22330041 -0.41276982 1.4150758 0.7413304 1.3507186 -0.14443353 -1.6669419 0.40693972 0.98516333 -0.16694082 -0.640396 -0.073257536 0.18785529 -0.120395295 0.33210042 0.6779321 -0.5145073 0.21352406 0.27542108 0.22887817 0.09842514 -0.3834614 -0.65981317 0.59192264 0.2612634 -0.35317943 0.49911422 -0.18412673 0.11690536 -0.3319255 1.0593789 0.57752824 -0.19324093 -0.37558612 -0.41780105 -0.3367486 -0.03749685 -0.12819053 -0.11775651 -0.6797726 -0.27389318 -0.24056797 -0.37532014 -0.3722951 -0.7274769 0.2729273 0.38539502 -0.14428318 0.47744477 0.43674165 0.4991153 -0.03626228 0.6634103 -0.52108455 0.6581138 0.20586124 0.027220622 0.8803208 0.4691263 0.31464216 0.08355839 0.43249893 -0.3750791 1.1828722 -0.17044894 -0.22215164 -0.052271154 -0.4466315 -0.1753051 0.6208174 -0.07736609 -0.2794642 -0.22591367 0.02130716 -0.592195 -0.47276288 0.04416702 -0.23458348 0.30438542 0.6202741 0.65173024 1.0682325 -0.008739432 0.3421611 0.40588143 -0.30638 0.53965294
# 0.012026372 -0.9213404 1.1492422 -0.9521529 0.26872557 -1.2222886 -0.44513303 1.4079981 -0.17219876 -1.2140336 0.6400102 -0.49612832 -0.42564538 0.5689055 -0.781972 0.78878117 1.6661984 1.1226574 0.15407307 -2.3808856 -0.6233355 0.067401655 0.36628014 -0.09936822 0.39874738 0.48360044 0.002679779 -0.30552346 0.58402306 0.49653336 0.28910953 0.23532684 0.16652757 0.068005376 -0.59747607 -0.6320188 -0.10147701 -0.007458143 0.16181578 0.25893626 -0.037345815 0.3217075 0.2489379 0.14444275 0.15604606 -0.074318975 -0.5247378 -0.26028404 -0.44197208 0.5715391 0.21748231 -0.6547098 -1.3392936 0.78573525 -0.6423851 -0.5108254 -0.31014007 -1.3452398 -0.43109447 0.36327708 0.09584744 0.17141324 0.45069462 -0.027127925 -0.43151635 -0.052584454 -0.18332934 -0.38589588 -0.3339573 0.12988363 0.6169204 1.0882522 -0.08597421 0.18611571 0.4052099 -0.30819884 0.10795318 0.2586522 -0.59628415 1.2043996 0.9617358 0.33444118 0.78020304 0.29457074 0.21056868 -0.06183357 -1.0143082 -0.025434662 -0.10363162 0.6982229 -0.06340203 0.11106408 -0.15612368 -0.13727939 0.04625885 0.008266042 0.031634107 -0.5257873 -0.61510116 0.510414
y 0.41837436 0.016108796 0.13274191 0.50652003 0.87112427 -0.67594755 0.3904369 1.3905525 -0.30049485 -0.8440741 0.13568354 -0.6079438 0.52893996 0.2470293 0.87840855 0.44353005 -0.05332999 0.16247015 -0.052001163 0.40018708 0.32598305 0.23513061 0.013996446 0.059888065 0.23181893 0.46168542 -0.8343784 -0.08799066 -0.6183712 -0.32865742 0.5372086 -0.11303006 0.4649873 -0.6437327 -0.6335867 1.3965483 -0.35653085 0.3226518 -0.350071 -0.86863744 -1.023434 -0.48475403 -0.54600596 0.7479008 0.289816 -0.19805734 -0.2863967 -0.7973955 0.5818541 0.6901806 -0.28021947 -0.89777 -0.6047958 -0.85220593 0.6644056 0.41634628 -0.07584389 -0.5499813 -0.28691763 0.21748455 -0.06557689 0.11607008 0.18341595 -0.025551856 -0.82696325 1.0944482 -0.3164443 0.8664415 0.1265492 0.5070388 0.48404652 0.2153884 0.6460685 0.75120366 1.1069742 -0.7091376 0.23268892 0.71554726 -0.38929972 -0.6930501 -0.7361782 -0.37185362 0.22212666 0.7209738 0.23734877 -0.6185948 0.4910217 -0.38127473 -0.07297974 -0.94302905 0.9487001 0.6441941 0.81007725 0.73561734 1.1319064 0.70877254 0.23490325 -0.4643695 -1.419427 -0.21137416
double 0.3051086 0.4143675 0.08184636 0.18207389 0.074506246 -0.35804754 0.8116012 0.57556987 -0.3665333 -0.51930106 0.11534621 -0.16018914 0.17395692 -0.31963494 0.30554006 -0.23735063 -0.038336672 -0.6215967 0.15324257 -0.8011836 0.024351303 -0.257467 1.0870188 -0.3703336 -0.46053025 -0.12280641 0.04455123 -0.35734776 -0.1397383 0.27678505 0.43019187 -0.6466959 0.6120913 -0.076258875 -0.3993411 1.4608209 -0.2521569 -0.3121395 -0.00016149136 -1.600749 -0.10089825 -0.26487666 0.27208966 -0.07935013 0.560963 0.2413365 -0.23770377 -0.61980426 0.21259609 0.53043807 0.017696999 -0.67389804 -0.7627293 -0.12141355 0.12187746 0.39830065 0.052103944 -0.40561903 -0.77125424 -0.48904857 -0.05736349 0.077623166 0.008805767 -0.1640868 -0.5686553 0.7552138 0.040164515 0.6858451 -0.72877556 0.49711204 -0.34902024 0.48964575 0.59368825 0.5075156 0.48332924 -0.147261 -0.33097175 -0.03844496 -0.47850546 -0.0005818227 0.13484089 -0.49017558 -0.14794569 0.55240035 0.59685445 -0.14862697 0.031688463 -0.040420096 0.13576494 -0.15692669 0.2111114 0.2797128 0.028219892 0.28626502 0.77593064 0.40256646 0.013311795 -0.6764829 -0.067382336 -0.22058147
p -0.05246031 0.9624576 0.13549198 -0.2758866 -0.16647495 0.048197847 0.7240561 -0.20513617 -0.1902148 -0.13112944 0.15184891 -0.675684 0.07453003 -0.32030547 -0.12845159 0.0042958963 0.5499189 0.62998265 0.14855579 -1.7161779 0.20205668 0.7135285 1.2396402 -0.28210098 -1.2826785 0.48859075 -0.118224 -1.2328352 0.6519886 -0.28389788 0.69694495 -0.19639759 0.37238365 0.06842091 -1.0077842 1.7243606 0.73729897 0.16416578 -0.38133487 -0.69773823 0.98819387 -0.1875336 0.4819258 -0.4454941 1.151917 0.9960566 -0.65701157 -0.66465724 0.1923937 -0.27696183 0.3026003 -0.8688734 -0.3097413 0.3495711 -0.9574615 0.37484476 0.22747381 -0.1726334 -0.061991565 0.27541685 0.122256055 0.035452295 0.76440483 0.5032801 1.0022236 -0.08730154 -0.44797832 0.73246163 -0.33035335 0.15838374 -0.41025877 0.22703281 0.15813555 0.1394482 -0.2626742 0.2356681 -0.33947924 -0.30858988 -0.13806951 -0.034397487 0.040054493 -0.6676506 0.1862085 -0.011958127 0.14232287 0.5344211 0.52400917 -0.22661738 -0.1738235 -0.025166478 -0.06904309 0.22943014 0.105447516 -0.40063742 0.27591416 -0.13478889 -0.12225751 -0.14927708 0.47404072 0.33490762
text 0.0630663 -0.64062244 0.6618957 -0.18319067 0.3191022 -0.4550909 -0.39518017 0.6279299 -0.27617073 -0.37935513 -0.00821782 -0.52109003 -0.1298472 0.22057895 -0.3099483 1.1783088 0.56678754 1.2557731 -0.08391238 -1.8987813 0.13361633 0.873242 0.002604492 -0.16548307 -0.17628105 1.2472291 -0.23842904 -0.38435003 0.05859757 -0.28107074 0.4471055 0.68351555 -0.10592209 -0.49785477 -0.14249073 0.2117219 0.7870425 -0.11526004 -0.5758565 -0.12667768 0.3668474 -0.61412585 -0.41545257 0.4009104 0.65085703 0.14126706 -0.580238 -0.0399835 -0.018541494 -0.29411703 0.19359638 -0.4207905 0.20389004 0.305112 -0.7454871 0.11746791 -0.2766969 -0.47671288 0.2747856 0.4497954 0.22049105 0.03148911 0.59113455 0.6076667 0.90449166 -0.116824165 -0.47419962 -0.0117052635 0.30284193 -0.16574767 0.24618407 0.052144647 -0.18765247 0.17244714 0.32200134 -0.1365812 0.22899005 0.09421203 0.56727123 0.24184398 0.2855031 -0.3132268 0.014689977 -0.6289667 -0.84872 -0.12126526 0.26948652 0.11721871 -0.071278185 -0.027455004 0.26066825 0.38146743 0.17685047 0.009693602 -0.16136001 -0.027004477 -0.53482753 -0.30865338 -0.012192673 0.047348086
g 0.2521371 0.6066175 0.6327267 -0.13086154 0.035296068 -0.44132155 1.2345405 0.55403197 -0.9816973 -0.3872475 -0.057860717 -0.7329708 0.4467066 -0.42354575 -0.00810337 0.26746786 0.53646743 0.6097788 -0.18160611 -2.7720423 0.40876836 0.41073596 1.8566307 -0.76578104 -1.2553824 0.2391612 0.53601676 -1.4725523 0.31463793 -0.009143683 1.1687566 -0.67124337 0.70994765 0.19402203 -0.7422549 1.8563732 0.4980231 -0.18528862 -0.20068724 -2.0531673 0.8467179 0.04501197 0.44573152 -0.4467038 1.3509429 0.9677806 -0.59398335 -0.6588882 -0.2669168 -0.41586432 0.42715862 -1.3570839 -1.0024483 0.22593981 -1.0886942 0.3554662 0.029038936 -0.4844297 -0.5911438 -0.7525025 0.49269938 0.3051605 0.7699106 0.11420107 0.7657711 0.08232137 -0.48026323 0.7532744 -1.117304 -0.16744034 -0.5982118 0.5648947 0.056576677 0.77288884 0.31258142 0.27661717 -0.80790067 -0.65726644 -0.41555178 0.2559564 0.9020786 -1.190373 -0.20930707 0.172239 -0.38573262 -0.053599417 0.5166882 -0.6955734 -0.06669204 0.10502321 -0.27403435 0.38387412 0.13672103 -0.2666624 0.86157995 0.21214683 -0.67610306 -1.0088125 0.79362804 -0.3329245
length 0.16697016 -0.974489 0.42165223 -0.099490166 0.39980757 -0.6904773 -0.789784 1.0605292 -0.103843115 -0.41385123 -0.14736325 0.023195645 -0.27615568 0.39103585 -0.38575044 1.1295336 0.21978003 0.5772902 0.04852217 -1.0052854 0.1495822 0.4615522 0.07955837 -0.20919546 0.26793224 0.79527557 -0.24058421 0.5263846 -0.29173014 0.22774735 -0.11581299 0.4586648 -0.09320288 -0.5300121 -0.05540405 -0.23502313 -0.06780941 -0.33463496 0.04106913 0.017092435 -0.19364654 -0.20745175 -0.5635389 0.5604683 0.25524083 -0.22550735 -0.17909212 0.01790188 -0.10185884 0.35827872 0.0030796507 -0.27178338 -0.0011441685 -0.16122246 0.16429985 0.042346526 -0.52475554 -0.60701936 -0.20297597 0.53432477 -0.09257381 -0.14004028 0.15201706 0.3566467 0.04082607 0.5022017 -0.21342903 0.00841211 0.32558537 0.2543178 0.43094382 0.4009183 0.05917779 -0.099911556 0.37108997 -0.32618093 0.4265482 0.1591462 0.50943017 -0.061498526 -0.049988523 0.22149415 0.027371984 -0.00029793958 -0.5004147 -0.31005767 0.04659112 0.18081583 -0.0024133476 -0.11568267 0.70928955 0.24544352 0.25655115 0.13516954 -0.1299257 0.0025224003 -0.17616512 -0.18903153 -0.45162007 0.0036878902
: 0.54017955 -0.07717561 0.159695 0.20200373 0.30713195 -1.2850311 -0.33941656 0.99497336 -0.3189427 -0.65765744 -0.055900495 -0.3096239 -0.3753874 0.1833419 -0.18924536 -0.06559705 0.39487427 1.6116085 -0.31818283 -2.3624294 0.19931124 0.22355105 0.027584732 -0.31417876 -0.88638407 0.26582333 0.31439766 0.17064889 -0.6641858 -0.10735403 -0.27668026 0.006084661 -0.37759027 -0.9991757 0.6381146 -0.58597964 0.38498884 -0.35985753 -0.7139987 -0.64618915 0.3993682 -0.81645924 -0.3526182 0.37658986 0.7236231 0.239509 -0.2673804 -0.12420255 0.7983196 0.18896042 -0.31139028 0.52231187 0.34614733 -0.60294515 0.3315929 0.13104513 -0.5864592 -0.18814117 0.32071522 0.21755168 0.020411737 -0.28343588 -0.21114069 0.117641404 0.058044117 0.98837334 -0.5076829 0.2560863 0.04541934 0.17322437 0.22822928 -0.09758374 0.54107916 -0.3024992 0.44140118 0.37160304 0.923405 -0.11733701 -0.23729569 -0.031206245 -0.90898395 0.06443266 -0.82107204 -0.19859833 -0.16692494 -0.16511914 0.27330655 0.8458136 0.5707041 -0.18860777 -0.048628394 -0.30229446 0.2733105 0.32510325 -0.17324658 -0.14841413 0.28350556 0.10162395 -0.20927335 -0.16694996
r 0.22206509 0.38671672 0.48707408 -0.13699676 -0.08847092 -0.36565477 1.0671613 0.42001915 -0.81081796 -0.35590968 -0.06374686 -0.4298632 0.29018882 -0.3647689 -0.022258256 0.21848729 0.44114953 0.4148059 -0.15827507 -2.4585645 0.29537138 0.20139506 1.7449301 -0.6459413 -1.0006568 0.25091675 0.54004145 -1.2087845 0.1416727 0.17611529 0.95004404 -0.63203907 0.6353604 0.17005052 -0.5057508 1.5246176 0.24927738 -0.27010337 -0.039068628 -1.9117354 0.69569606 0.09537933 0.37729692 -0.469667 1.1301074 0.81266403 -0.45735204 -0.5439099 -0.23224266 -0.28337857 0.37825692 -1.2590898 -0.9854206 0.24152777 -0.8757506 0.28261113 0.01672091 -0.41055077 -0.6541469 -0.78705627 0.4497197 0.24451123 0.60342 0.012565666 0.5230003 0.1259736 -0.39531335 0.5720311 -1.0943282 -0.14018936 -0.57248986 0.5739239 -0.007349443 0.7107258 0.2998378 0.24687849 -0.84996855 -0.60158277 -0.3964148 0.31574246 0.95808196 -0.9506246 -0.25408074 0.21550828 -0.33809185 -0.12264122 0.3979236 -0.50213265 -0.051030945 0.15117843 -0.20777972 0.26668358 0.09062849 -0.28942078 0.6904583 0.251316 -0.6655156 -1.060177 0.6869779 -0.42810386
PNG_CONST -0.10536675 0.20914266 0.41270348 -0.18799819 0.31090733 -0.07283458 0.76634 -0.108370334 0.20302267 -0.06431813 -0.016948784 0.040940396 -0.36311245 -0.106724255 0.20493127 -0.9457988 0.231507 -1.6228155 0.22236879 -1.5733114 0.029106006 0.058632012 1.728931 0.23403949 0.2842105 0.5528842 -0.7911433 -0.59640676 -0.4428611 0.40977305 0.80413353 -0.043822933 0.74662644 -0.83572066 -0.6559311 2.6311438 -0.5396077 -0.6392418 0.13988693 -2.0061522 -0.5012397 -0.8219377 0.22710814 -0.046797447 0.31288442 0.40089715 -0.61155576 -0.7509501 0.3209327 1.3320286 0.004163462 -1.235527 0.014868622 0.2865477 0.34728834 0.57889706 0.15776932 -0.5837677 -1.5283222 -0.09374594 0.06455295 -0.61794806 -0.22483614 -0.6759284 -1.0489756 0.2232147 0.49391726 0.16979036 -0.44052416 0.91315097 -0.84156275 0.7508333 0.8927946 0.42557833 0.37448028 -0.5409906 -0.29772234 0.6252254 -0.02918785 0.0058755088 0.5642296 -0.11170035 -0.67441916 0.17756878 0.43113896 -0.37187365 -0.08733607 0.3024325 0.06211806 -0.17488615 1.6930312 0.8588965 -0.42920795 0.030962374 0.36976987 0.6410734 0.055762984 -0.7941055 -0.3814658 -0.38141707
4 0.13690418 0.09360623 0.531474 -0.08877512 0.6697516 -0.36694434 0.110716045 1.0657208 -0.45204237 -0.507842 0.0800963 -0.8712687 0.44916117 0.25882182 0.18562327 0.73930246 0.493829 0.898145 -0.12543586 -0.6770573 0.25810936 0.6205684 -0.15385917 -0.038766626 0.052949473 0.39743853 -0.5279372 -0.57691306 0.4324251 -0.65791714 0.5156408 0.16608693 0.25180668 -0.16574584 -0.66024005 0.8139741 0.70979434 0.31911057 -0.44965732 -0.18759435 -0.3437107 -0.22696714 -0.17716186 0.7501027 0.61144143 0.088179804 -0.62201154 -0.5508164 0.060599294 0.023973329 -0.02449487 -0.98250395 -0.52924 0.018312255 -0.6520474 0.1198433 0.044702616 -0.61234325 0.13693945 0.37558892 0.1322508 0.29000604 0.7708165 0.42936346 0.21042648 0.26494518 -0.4482842 0.4612988 0.2322533 0.07114864 0.6062403 0.3173767 0.12859385 0.51999295 0.5226434 -0.43089497 0.46820533 0.39587232 -0.033572357 -0.15626888 -0.022174792 -0.63110626 0.28470927 -0.10112955 -0.44168854 -0.025643213 0.49835718 -0.63589734 -0.4602723 -0.19264083 0.3224767 0.69575185 0.42619273 0.2914118 0.8496585 0.38077262 -0.04125763 -0.14764272 -0.55906755 0.19607559
name -0.14178152 -0.07820787 0.6448521 0.23134105 0.86344063 -0.72369415 -0.37387854 0.7632693 0.04058527 0.004579819 -0.5029005 -0.5426192 -0.41119686 -0.34219953 0.08102416 -0.108552255 0.15731552 0.062294897 0.071784005 -2.249651 0.30509883 0.44759607 0.4405019 -0.21232702 -0.45393416 0.92568856 -0.78795683 -0.06683186 -0.7364559 -0.46867642 0.52181655 0.6560106 0.12881868 -0.99043256 -0.024556678 0.4666401 0.32912412 -0.31100646 -0.6159712 -0.24545568 -0.06021644 -0.7402734 -0.708768 0.34903792 0.14135906 -0.048826616 -0.07548751 -0.22040094 0.36172947 0.5681107 -0.22473994 0.22051178 1.250572 0.20548093 0.11878199 0.031515718 -0.32619247 -0.4001293 -0.208502 0.60818857 0.30144763 -0.34894413 -0.2907395 0.120481886 0.5246681 0.09450446 0.25811267 -0.11376976 0.27054343 0.10694586 -0.42618394 -0.24154429 0.60431874 -0.042177115 0.21324031 -0.17519066 0.3420511 0.4686903 0.7385164 -0.5964528 -0.100967966 0.07878084 -0.7693992 -0.5529016 -0.8254541 -0.40618244 0.58475995 0.5101746 0.2675999 -0.42034018 0.9543685 0.2512363 -0.027131459 0.22493042 -0.00026295352 0.11045552 -0.14405134 0.30127135 -0.14724311 -0.21496786
chunk 0.21752134 -0.70348805 0.5921242 -0.26424673 0.118388794 -1.2767421 -0.71091545 0.99416155 -0.17354359 -0.55025136 -0.18812117 -0.06436912 -0.6038997 0.045223553 -0.7481248 0.52273244 0.5274317 1.229804 -0.02453915 -2.580753 0.05687454 0.35957503 0.37780643 -0.4090336 -0.5107433 0.7307301 0.23235351 0.32332814 -0.3221984 0.2711383 -0.25257778 0.40014675 -0.4320886 -0.5904965 0.39356473 -0.7186381 0.41278177 -0.65781057 -0.35007423 -0.19252829 0.6059739 -0.49586698 -0.28172433 0.15273584 0.53512365 0.15705633 -0.12454933 0.08145285 0.09380455 0.06872035 0.05879517 0.3691411 0.3383127 -0.044752132 -0.1463843 0.0053937286 -0.6549276 -0.45782045 0.023583086 0.5027676 0.07947331 -0.3494984 -0.17293513 0.28516412 0.5807161 0.39691538 -0.3839609 -0.20966658 0.13450629 0.09287648 -0.071666576 0.12437771 0.13601395 -0.49875516 0.033071052 0.32033998 0.48845068 -0.23046274 0.3007321 0.39059395 -0.12221795 0.33705115 -0.47195458 -0.41086978 -0.44618216 0.060212538 -0.0073344046 0.8545351 0.3480002 0.006383642 0.05204185 -0.3688349 -0.09643114 -0.046526298 -0.6029137 -0.4963715 -0.027432296 -0.056465268 0.1349902 -0.035798755
file 0.22103655 -0.5442434 0.43933785 -0.21583523 -0.09250558 -0.9380666 -0.4006978 0.4642767 -0.18227948 -0.3308438 -0.15590046 0.051862378 -0.52030027 0.041154414 -0.5943304 0.121254176 0.41977105 0.936733 -0.18767495 -2.6161788 0.0009714211 0.14362848 0.56977 -0.37413296 -0.53262305 0.42116278 0.5388573 0.068201296 -0.3546405 0.36505607 -0.21037908 0.0921212 -0.3029477 -0.5651509 0.6138749 -0.7026857 0.19529746 -0.7139521 -0.25739077 -0.6531728 0.66006505 -0.43031192 -0.18405409 -0.14873327 0.59019744 0.29138932 -0.18789922 0.085542634 0.14572167 0.16918914 -0.06050879 0.17521052 0.23882183 0.07668807 -0.091268405 0.007849435 -0.5454397 -0.24764396 -0.13785385 0.010880316 0.17040718 -0.31066635 -0.20225841 -0.019868003 0.25151178 0.29328763 -0.34056285 -0.24580094 -0.2667147 0.07519928 -0.14556614 0.21620533 0.1991188 -0.36216232 0.07977978 0.34277552 0.35004398 -0.35240522 0.050562542 0.53503126 0.18693432 0.14753735 -0.81034815 -0.29122555 -0.4275123 -0.09106243 -0.051632453 0.8270643 0.43573624 0.21313807 -0.10692324 -0.3003888 -0.13993482 -0.023277594 -0.5473472 -0.24730508 -0.16526678 -0.30855674 0.43590137 -0.24784468
#ifdef 0.07304461 -1.3330443 0.68680865 -0.020301254 0.5060331 -1.0603312 -0.7943508 1.4678147 -0.16557847 -0.6959686 0.13787049 0.09142571 -0.2802733 0.46716347 -0.48920426 1.0663337 0.37425935 0.26480404 0.046114378 -0.98419535 -0.10782487 0.22049613 0.33734173 -0.3939735 0.47206956 0.5419747 -0.031831015 0.6624592 -0.29470882 0.5062904 -0.094023675 0.4058379 0.2832606 -0.6261924 -0.019092718 -0.31837416 -0.43090683 -0.7493159 0.061117124 -0.29494423 -0.32162702 -0.08599874 -0.5717558 0.50773937 0.32054156 -0.35195974 -0.07707003 -0.010800264 -0.26369858 0.7733553 -0.016506406 -0.28956127 -0.58384657 0.08751204 0.37904143 -0.1340323 -0.65129477 -0.9133817 -0.569566 0.32871658 -0.120391235 -0.025045583 0.17989162 0.20912261 -0.55122346 0.7678781 -0.22598657 -0.0142430235 -0.061307292 0.5172835 0.61569494 0.9211929 0.37588045 -0.10728609 0.5782956 -0.4343655 0.49445575 0.062669136 0.18567905 0.31579903 0.24563709 0.36782792 0.11856349 0.25111118 -0.24652669 -0.46563366 -0.3141686 0.3433584 0.06722248 0.27755588 0.6139964 0.1974084 0.24890696 0.3200736 0.2918226 0.083909675 -0.17851308 -0.51484406 -0.58252394 0.012282774
error 0.31301817 -0.28572553 0.53984106 0.402175 0.6651037 -0.9579948 -0.18602304 1.3673507 -0.6627849 -0.58217543 0.050492335 -0.7411113 0.30569354 0.18330653 -0.14601709 0.772911 0.11372025 1.0367695 -0.43244883 -0.7847656 0.124066405 0.28468454 -0.11399893 -0.6598674 -0.5877266 -0.18465629 0.5161688 0.13512792 -0.03803918 -0.24624114 0.20908499 -0.12843776 0.2452452 -0.4063933 0.07236984 -0.43690714 0.33000803 -0.15168506 -0.44900498 -0.28184322 0.19090539 -0.05375337 -0.5680886 0.36581182 0.7291351 0.043542776 -0.041286148 -0.16112989 0.11405777 0.02815776 -0.20668572 -0.059003886 -0.43498266 -0.21571602 -0.12102075 -0.08653258 -0.48041955 -0.35615373 0.33182636 0.049233034 0.11083087 0.25722352 0.42439443 0.36941436 0.031004367 0.7318091 -0.48522463 0.4822811 -0.22830479 0.10913009 0.69756323 0.2845551 0.418862 0.17235751 0.5014492 -0.031040495 0.6835457 -0.38472772 -0.17957377 -0.09508452 -0.37115347 -0.31770203 -0.08690294 0.1292565 -0.38605806 -0.4433812 0.33575332 -0.14465702 0.23042572 0.15017866 -0.25381777 0.12791257 0.6545688 0.5168806 0.6153304 0.07587425 0.008764711 -0.13330711 -0.0017579551 -0.0018062281
dest 0.08592969 0.16580509 0.9365277 0.36463347 0.79178303 -0.09083627 0.96121097 1.0497581 -1.0983611 -0.25389367 -0.03290121 -0.9969854 1.1339166 -0.43737406 0.35383803 0.3732804 -0.72740424 -0.7228685 -0.33682758 0.8904988 0.13088642 0.27170187 0.6100624 -0.860089 -0.26661527 -0.9309348 0.5120351 -0.80005085 0.53588414 -0.51356643 0.89603645 -0.54038376 1.568234 -0.21455863 -0.84219265 1.8772161 0.19176355 -0.59093463 -0.41940913 -1.9866927 -0.24497983 -0.22782199 -0.54704577 0.26356885 1.3040608 0.39942515 -0.20533569 -0.9133202 -0.65181077 0.3522614 -0.07124165 -1.6768394 -1.5783545 0.33331963 -0.69619936 0.29223576 -0.23233078 -0.7778418 -0.75229055 -0.3899037 0.4853576 0.7602359 0.93141216 0.13627392 -0.3337309 0.8029923 -0.6557705 1.0627011 -1.1645398 0.6489403 0.45770186 1.3111511 1.066073 1.2500403 1.0293618 -0.8204211 0.10759451 -0.30376017 -0.4154017 0.26131928 0.9373459 -1.2746091 -0.08834 0.6011116 -0.5149562 -0.64312756 0.81698567 -0.9459465 -0.18532845 0.22243962 0.013907487 0.9151245 0.6178905 0.6732307 1.9309007 0.77273476 -0.47870055 -1.2376757 0.21943417 -0.29134008
argv 0.20675792 0.46317512 0.24236329 0.39455575 0.54244184 -0.36950547 0.015367672 0.83041096 -0.41502985 -0.19934297 0.011275498 -0.9053061 0.40490934 -0.17387176 0.11065879 0.2906828 -0.30621997 0.5361696 -0.031187976 0.28227863 0.19040228 0.4632472 -0.11290218 -0.6430325 -1.0187522 -0.32803363 0.13893162 -0.1221984 0.3313317 -0.5538984 0.20924093 -0.14013842 0.47408277 -0.35346645 -0.5147422 0.51978964 0.7220297 -0.09434116 -0.6909439 -0.16623476 0.28648007 -0.3161114 -0.38615188 0.36379796 0.89117116 0.3283785 -0.10034459 -0.54056036 0.29332522 0.0883051 -0.24807654 -0.0925563 -0.21810986 -0.13374567 -0.20765437 0.23230088 -0.2428445 -0.37432468 0.462569 0.5421734 -0.026553879 0.25572687 0.510795 0.6690641 0.2992294 0.8634878 -0.59344447 0.82457095 -0.07782078 0.56742257 0.5090872 0.19431402 0.7536478 0.08374552 0.29869395 -0.2190606 0.81016415 -0.15900403 -0.07478709 -0.34073642 -0.7631805 -0.55639136 -0.012569895 0.21002455 -0.09535324 0.0034301705 0.73461974 -0.14444716 0.16936307 -0.121836685 0.00062019547 0.27096114 0.51435816 0.5810666 0.75160927 0.015371426 0.19183362 0.17362478 -0.13074833 0.39126936
| 0.14466493 -0.13613208 0.5161989 -0.37988764 0.14398304 -0.47602695 0.27318895 0.9213734 -0.35977575 -0.7793715 0.34913972 -0.42087838 0.30293202 0.2748109 -0.04098309 0.69953454 0.650936 1.102205 -0.15504248 -0.7951181 0.06756021 0.4696746 0.11793036 -0.018965323 0.022417784 0.4484 -0.28452304 -0.78758866 0.48507413 -0.35335946 0.25100264 0.124262996 0.28255638 -0.10281154 -0.4943164 0.7723519 0.6177557 0.03187357 -0.48911837 -0.5983812 -0.13458897 -0.34787548 0.0065832743 0.5724494 0.97226506 0.23210011 -0.64221764 -0.5590708 -0.0019235502 0.15390617 0.09772245 -1.3383548 -1.1795616 0.18419051 -0.7906649 0.21473067 -0.011184931 -0.68883395 -0.15606217 0.10790786 0.13339728 0.42518753 0.85929096 0.33072492 0.13395528 0.4643949 -0.8320684 0.42295468 -0.12676156 0.05663095 0.6747915 0.7024689 0.07438408 0.513287 0.5707385 -0.22436453 0.10809462 0.22251365 -0.3714362 0.49120796 0.4890974 -0.46452487 0.3142242 0.07801318 -0.23896103 0.20257895 0.4181994 -0.28261402 -0.54309887 0.11667238 -0.08243397 0.44308248 0.27752322 0.1069571 0.7723048 0.2966319 -0.19719262 -0.75243866 -0.50678664 -0.010021429
result 0.08894054 -0.08188226 0.55429536 -0.2352058 0.26305613 -0.5606404 -0.0047468 0.7821164 -0.3534378 -0.59607977 0.09306131 -0.6203281 0.049581476 0.15529564 -0.23903999 0.7166266 0.7931457 1.27956 -0.044041853 -2.1048894 0.17846984 0.6508546 0.2976276 -0.2603459 -0.49037063 0.698081 -0.2384054 -0.62210566 0.31451008 -0.29239932 0.33294126 0.28938186 0.027338853 -0.2547542 -0.38142627 0.3287195 0.70416266 0.04606556 -0.47882468 -0.1002251 0.36993793 -0.26281145 0.037853505 0.31682914 0.8973583 0.32625178 -0.6160457 -0.37166977 0.1164573 -0.019007117 0.11496437 -0.6382079 -0.3747054 0.2757341 -0.758571 0.035181865 -0.11594061 -0.503368 0.12674236 0.35130623 0.10489655 0.16327643 0.6406482 0.4482333 0.6081434 0.15026136 -0.56066984 0.32265908 -0.0022026405 -0.040901303 0.30936337 0.36581707 0.0030975055 0.05761087 0.26313168 -0.06373111 0.27303195 -0.022527214 0.05654845 0.14325887 0.12987322 -0.3743993 0.08595229 -0.1523087 -0.37537858 0.17118846 0.3170285 -0.007312414 -0.15569142 0.049818467 0.001432514 0.32396427 0.2126333 0.0037258684 0.21371992 0.04766422 -0.2452014 -0.20346084 -0.021874385 0.22487499
colour_type -0.13609812 -0.018529259 0.516982 -0.57603735 0.2804603 -0.10015515 0.4270187 0.16805723 0.118304744 -0.22681734 0.13933754 -0.10406193 -0.1941287 0.49689284 0.08460781 -0.25874782 0.858965 -0.40673795 -0.07241353 -1.3174446 0.18037188 0.34116188 0.9666826 0.59233147 0.837217 0.82712847 -0.97032726 -0.8561995 -0.0038832198 0.057854995 0.68588066 0.15942208 0.26235902 -0.37454218 -0.61545885 1.7143432 -0.24215409 0.11663058 0.28171498 -0.9195184 -0.8468887 -0.051643956 0.45541707 0.3836193 0.011043346 0.051544823 -0.79942614 -0.4270937 0.040460244 0.7134007 0.1651199 -1.5643238 -0.28442922 0.17348476 -0.07577699 0.26364174 0.32291746 -0.5852191 -1.0049454 -0.10176125 0.0863139 -0.3255941 0.2810488 -0.5430246 -0.7390727 -0.30907336 0.1870464 -0.10922377 0.12515274 0.15708964 -0.15472427 0.6541904 -0.028592149 0.4791564 0.40152472 -0.38549906 -0.2689937 0.81204814 -0.0834036 0.11728854 0.6960751 -0.10021657 -0.08244335 -0.13129866 -0.097046554 -0.16708416 0.01889811 -0.42225736 -0.5748824 -0.034252375 1.3485452 0.92935 -0.2597261 -0.24135074 0.46083075 0.65745056 -0.14610168 -0.5897051 -0.7604603 -0.16383807
\n 0.548683 -0.30447286 0.22327985 0.42317027 0.49942923 -1.3850576 -0.62890375 1.2003498 -0.32382426 -0.54406613 -0.12497726 -0.3552718 -0.39671424 0.16344287 -0.26177126 0.15384641 -0.02986671 1.1885176 -0.24543615 -1.8065677 0.20408411 0.1607359 0.16912593 -0.6338961 -1.1264203 0.12559895 0.5071897 0.6150401 -0.78107226 0.028641213 -0.27790996 -0.03913186 -0.19799823 -1.142866 0.59496087 -0.66495764 0.18460292 -0.58197546 -0.6396846 -0.61695117 0.4033159 -0.7785248 -0.6839703 0.32999495 0.7699485 0.14070432 -0.017024098 -0.13190678 0.8011507 0.45498443 -0.42469192 0.6466595 0.44069132 -0.66302186 0.64397854 0.20670874 -0.8858971 -0.3526415 0.24264835 0.44146237 -0.05948225 -0.33377922 -0.21730816 0.34313652 -0.05526092 1.4105015 -0.4471242 0.44656754 0.0039880937 0.5362694 0.2754799 0.061813705 0.90316856 -0.38481116 0.5100432 0.22331989 1.1040331 -0.26861048 0.023337983 -0.22964883 -1.1435611 0.08750246 -0.8183114 0.019926433 -0.12297442 -0.37037468 0.30131695 0.88574195 0.8434336 -0.21616322 0.19435802 -0.2812671 0.47971863 0.48794332 -0.107026294 -0.2099879 0.29564455 0.22959973 -0.16023809 -0.09855107
safecat -0.19346595 -0.02561867 0.8824169 0.41641632 1.1932391 -0.9253169 -0.3421823 1.1918936 -0.122432046 -0.024403203 -0.6673049 -0.83049345 -0.3096429 -0.47628263 0.21258779 -0.021043874 0.23351482 0.22596097 -0.022397527 -2.7179513 0.38916743 0.5227916 0.4533374 -0.27771237 -0.5229617 1.1595824 -0.9634919 -0.20234925 -0.8939209 -0.796303 0.8430036 0.8659957 0.35192236 -1.2019364 -0.013895301 0.5660272 0.44112715 -0.28507307 -0.8607077 -0.438154 -0.23126183 -0.68779135 -1.0413749 0.46785796 0.17315091 -0.14508262 -0.04333634 -0.26018628 0.27294666 0.6250064 -0.27921745 0.07214257 1.3418858 0.23233119 -0.01049251 -0.14981826 -0.5354608 -0.6101671 -0.30772996 0.6597316 0.5542655 -0.22813289 -0.1874785 0.21998721 0.7035442 0.15956639 0.25979114 0.0010084711 0.1948767 -0.06289651 -0.39866242 -0.26635844 0.7920221 0.17709051 0.4171275 -0.3095308 0.323248 0.5880696 0.8625659 -0.7277575 0.11003948 0.005739465 -0.81685233 -0.7242992 -1.2649854 -0.71702677 0.9505307 0.2724651 0.19569528 -0.5326626 1.0421103 0.35748813 0.18107364 0.3335734 0.40741277 0.22066516 -0.25812575 0.23244531 -0.21707918 -0.33213478
pass 0.23650473 -0.46518832 0.19272943 0.26646507 0.47727183 -0.77189213 -0.23195636 1.2229933 -0.058748573 -0.78288376 0.1805606 -0.21713382 0.22497118 0.29510385 0.3662183 0.76696587 0.10108185 0.6890147 -0.14452639 0.49540666 0.11074861 0.23226294 -0.4224501 0.041741997 0.25293547 0.6991575 -0.6298974 0.27722457 -0.4443539 -0.2404674 0.11601723 0.41391096 0.20363888 -0.7457356 -0.23739208 0.29142842 -0.015435123 0.0012149469 -0.48590252 -0.15618517 -0.6713022 -0.4496601 -0.64744467 0.81240237 0.29029408 -0.36065397 -0.012766402 -0.34843683 0.4252697 0.47168827 -0.18523213 -0.5402243 -0.61732966 -0.5572537 0.41949216 0.17754424 -0.29190168 -0.5461302 0.057115294 0.45041862 -0.07544912 0.20114273 0.31274655 0.29594064 -0.33642387 0.9562554 -0.47107905 0.43398657 0.2635497 0.27713352 0.7330134 0.10574537 0.32800722 0.39492628 0.7512511 -0.3494803 0.3466514 0.51681525 -0.16814354 -0.23948056 -0.49702767 0.089631565 0.22534455 0.39051795 -0.08969456 -0.4424596 0.48565146 0.071596 -0.110443406 -0.4949015 0.5313036 0.27047533 0.6781842 0.5558906 0.6519791 0.23416449 0.15159492 -0.43789077 -1.2837847 -0.17082086
while 0.010697561 -0.23108532 0.32563716 -0.0062425276 0.22348408 -0.35473716 -0.12479933 0.5572542 -0.06528283 -0.40545005 0.07691169 -0.24193591 -0.01320316 0.07797871 -0.022736257 0.56226134 0.3628163 0.6217587 -0.09130967 -0.83553135 0.01989277 0.3478092 0.045790333 -0.07823754 -0.12628317 0.67632324 -0.2961517 -0.16830514 -0.0056114276 -0.1996473 0.18660437 0.38637328 0.08290032 -0.35772705 -0.22973964 0.24849649 0.31268254 -0.17416812 -0.46962777 -0.19119748 -0.014870745 -0.42427766 -0.2311318 0.40346766 0.46923727 -0.00498222 -0.2309156 -0.29224107 0.1394623 0.23394358 0.01793746 -0.45062283 -0.26693347 0.06062321 -0.2946391 0.066578 -0.2207038 -0.4218909 0.016549055 0.27066162 0.06216244 0.09526389 0.37204525 0.35360718 0.21577777 0.36065903 -0.41132903 0.25828695 0.009195063 0.11740551 0.381656 0.29074037 0.17994688 0.14308442 0.29747972 -0.12704375 0.20688953 0.1424798 0.0721071 0.10729479 0.035557862 -0.08578223 0.022672787 -0.06257228 -0.20271233 -0.08265497 0.3213819 0.13205825 -0.14613838 -0.07271214 0.14659457 0.16613802 0.20220791 0.1887876 0.24400322 0.08044975 -0.012460212 -0.28066063 -0.34455597 0.026673052
next -0.36450878 -0.9845306 1.0040042 -0.7903877 -0.06811807 -0.36164886 -0.005994138 0.029458446 -0.030182881 -0.38079476 0.18416645 0.11575233 -0.53244454 0.5537745 -0.683218 0.45642743 1.3286325 0.39189854 -0.38395387 -2.723902 -0.11715529 0.42527473 1.0348431 0.37766364 0.79031515 1.240677 -0.19277933 -0.8986038 0.1951651 0.42112026 0.59747005 0.5276749 -0.042120077 -0.2878557 -0.06968884 0.3991498 -0.1096073 -0.38519052 0.14543048 -0.7213454 -0.025588928 -0.008501215 0.37139982 -0.057870183 0.35814965 0.21557078 -0.80824536 0.08307765 -0.50896484 0.43849072 0.42669004 -1.4687997 -0.42001438 0.67862374 -0.7360159 -0.20030478 -0.070937544 -0.58553785 -0.87111664 -0.20735906 0.27773002 -0.23346128 0.4992175 -0.41555658 -0.10089622 -0.8249165 -0.14890586 -0.53234243 -0.20073777 -0.24704036 0.036767166 0.983448 -0.43656892 0.22028191 0.15831931 -0.066675715 -0.40200847 0.080665134 0.11882238 0.98840654 1.5598507 0.15014347 -0.096886285 -0.5749589 -0.49555808 -0.22264823 -0.3219307 -0.028822944 -0.4991858 0.62391967 0.5706725 0.5290402 -0.3290343 -0.51911086 -0.21393925 0.2744404 -0.62581897 -1.0947486 0.16864724 -0.25652537
