1886 100
) -0.07129712 -0.09292165 0.114778675 0.042434882 0.0973629 -0.21848083 0.16603763 0.25849003 -0.08229734 -0.024586516 0.18863264 -0.14507125 -0.04657059 0.052667547 9.495222e-05 0.17919199 0.36214462 0.2753909 -0.23380892 -0.49346542 0.11765189 0.048586745 0.5994876 -0.13646355 0.062853195 0.17578189 -0.1945918 0.3288618 -0.20834443 0.07694345 0.11471892 0.009233049 0.1345461 -0.13662085 -0.0116316 0.051420823 0.14330824 0.05504747 0.030721497 -0.20538118 -0.09847076 -7.779815e-05 0.0905221 0.23067807 -0.04537493 0.25133938 -0.0606559 0.09510462 0.049359333 0.3174895 -0.12548564 -0.5089382 -0.1959053 -0.02218849 0.08688822 0.06808877 0.1086411 -0.2577982 -0.4696526 0.088753276 0.12427612 0.1596529 -0.08290812 0.04820226 -0.2979657 0.19241147 0.056422956 0.2579223 -0.07330899 -0.0038975766 0.10712471 0.5627448 0.043862145 -0.024344187 0.117844224 0.11861058 0.008015836 0.066238716 -0.12415199 -0.12299438 0.16465643 0.13307706 0.04602502 0.037726037 -0.002946729 -0.27629027 -0.03299066 -0.004443754 -0.3863482 -0.02359176 0.1876153 0.081858516 0.12527604 -0.17030974 0.11053491 -0.026210288 -0.101981364 -0.12413625 -0.090493895 -0.32629454
( -0.12947875 -0.2072296 0.10623126 0.0010881877 0.008808279 -0.13966346 0.086839505 0.24406897 -0.1674419 -0.10937209 0.16070004 -0.15739354 0.011856624 0.0692186 0.019061 0.101047724 0.43848118 0.24179137 -0.1306679 -0.46586615 0.0490564 -0.057397723 0.5611876 -0.37947837 0.24919531 0.22771709 -0.24896084 0.4358319 -0.10302057 -0.042062774 -0.017811138 0.07277015 0.24424613 0.011179065 0.04836217 0.23118213 -0.0030807564 -0.116605714 0.0314251 -0.03539234 -0.039310887 -0.24820851 -0.13566741 0.28245568 0.25387138 0.11030525 0.14198723 -0.05341134 0.0002556167 0.19193204 -0.011621134 -0.67086303 -0.38459134 0.08444778 -0.12236542 0.17460425 0.15757646 -0.2971564 -0.47026378 0.1543846 1.8675928e-07 0.11991613 0.11065211 -0.05165963 -0.3419911 0.21145287 0.22012404 -0.03163808 -0.13590227 0.00086443225 -0.027537752 0.10037617 0.06643222 -0.025950996 0.03808773 0.10180032 0.033074353 -0.014438827 -0.03371942 -0.06112554 0.183073 0.19770688 0.059229966 -0.036818065 0.0329825 -0.30382678 0.17813562 0.09335305 -0.30297244 0.026720311 0.051493455 0.068294115 0.08946462 -0.19375053 0.026955457 0.021974474 0.10402253 -0.066409394 0.023898456 -0.38160083
; -0.28326923 -0.15901288 0.15565531 0.109443404 0.0481833 -0.114241555 -0.059575047 0.2924621 0.07712596 0.01867998 0.15744133 -0.29809237 0.3984127 -0.1677572 0.012549961 0.27326617 0.18878342 0.019177893 0.0071838708 -0.5436201 0.05521921 0.3067354 0.24857853 -0.046878435 0.2334492 0.14318717 0.17540808 0.42149916 -0.08477686 -0.025919197 0.14947172 0.09155177 -0.11525758 0.0069704005 -0.3854732 -0.05802492 0.23086049 0.015426303 0.08605163 -0.35561877 0.139341 -0.052193113 -0.12686339 0.19342592 0.057733897 0.037472848 -0.23894957 0.122576684 0.06867328 0.33152717 -0.0125575075 -0.66440386 -0.18286626 -0.1859627 -0.10499114 0.011523795 0.117083095 -0.5319458 -0.48508623 0.060983684 -0.017956488 0.044919 0.15631536 0.043796893 -0.047913168 0.19722812 -0.28030577 0.16324304 -0.20812443 -0.02200143 -0.12443665 0.21678722 0.099950805 0.18636303 0.18008809 0.0474345 0.13261412 -0.105644174 0.17715752 -0.005327624 0.060204044 -0.23044458 -0.044727296 0.1375784 -0.018876348 -0.26578054 -0.21688494 0.08751631 0.017947154 0.037960224 -0.024988052 0.21041599 0.015767261 -0.16727726 0.23229173 -0.033427328 -0.21548475 -0.21618839 -0.2654899 -0.43692824
= -0.36402616 0.06026449 0.25515297 0.09610805 0.1546832 -0.28659168 -0.13522838 0.36202383 0.084818214 -0.22335619 0.114754155 -0.14128567 0.28834563 -0.33328915 0.2585714 0.17538789 0.03552613 0.058731753 0.051362973 -0.45276985 -0.06228147 -0.11704527 0.5539909 0.004066063 -0.2633168 0.41093984 0.021246884 0.090241164 -0.02987306 -0.055068698 0.18834294 0.13404164 -0.16645786 0.06067604 -0.016584938 0.5855787 0.3492713 -0.1888733 -0.119763695 0.013752923 0.071835734 0.08778238 0.11745259 0.07057355 0.12657179 -0.055975337 0.15110473 -0.056963068 0.15815459 0.27797428 0.10928565 -0.9470714 -0.034308214 -0.11148532 -0.063224375 0.11719296 -0.0959216 -0.21180739 -0.2731348 0.025759755 0.219639 0.14891191 0.2771215 -0.13974658 0.03385233 0.18691109 -0.5536678 0.11553079 -0.20054686 0.06351549 -0.0100962855 0.32720003 0.10933714 0.11153174 -0.05232683 -0.04749482 -0.23673692 0.13376692 -0.018789746 0.099578284 0.040943336 -0.040268082 -0.026720306 -0.09660895 -0.29260397 -0.21460773 0.2911838 -0.044519734 -0.34508413 -0.094867304 0.006612556 -0.038109947 -0.12808983 -0.103003465 0.1931619 -0.21556854 -0.09817169 -0.177893 -0.4454415 -0.46027333
, -0.29362383 0.43825445 -0.030577548 -0.34502316 0.07350304 0.127015 -0.16896465 0.2781284 -0.21849626 0.22985232 -0.090776786 -0.0250991 -0.20360826 -0.08286836 -0.14876576 -0.18444636 0.19001128 0.13938455 0.21319063 -0.04518075 0.023707574 0.015414868 0.37217093 -0.19908667 -0.109871715 0.16774759 0.031421136 0.051612966 -0.44329265 0.005179763 -0.21197931 -0.05003824 0.15934062 -0.42754963 -0.04870773 0.02153372 -0.0918605 0.06904566 -0.042708345 0.16946186 0.012592105 -0.268458 0.07172464 0.4661588 0.4459026 -0.21807949 -0.15672529 -0.16864504 0.098281294 0.39792734 -0.33337003 -0.7233325 -0.10298883 -0.16927247 0.18598226 -0.22988921 -0.074107535 -0.648871 -0.51395094 0.0444053 0.04432662 -0.19362493 -0.07063699 0.0144405095 -0.43313625 0.20427524 0.21181308 0.26731423 0.2156619 0.22194123 -0.15848045 0.40159854 0.21454677 -0.022792738 -0.00842752 0.30263102 0.019304575 0.2348219 0.046929765 -0.28336307 -0.10284241 -0.16621248 0.033474565 0.47796434 0.056495238 -0.09786804 -0.06536327 -0.055198357 -0.43593037 -0.07371459 0.2782692 -0.10416437 0.07457838 -0.13030235 0.22077043 0.088432625 0.13693699 -0.00470723 -0.32934564 -0.27896717
- -0.27965337 -0.47239095 0.32560205 -0.027498696 0.17195308 0.017554183 0.16218561 0.14701176 -0.1504141 -0.14440252 0.005202413 -0.32102004 0.038435258 0.20987245 0.15316747 0.018560331 -0.2325178 -0.13396601 -0.21821316 0.14161037 -0.045544945 -0.13964075 0.4554764 0.6602862 -0.28626883 0.18830511 -0.0638004 -0.18545042 0.05133064 0.41024292 0.053230844 -0.093411595 -0.052194983 -0.14432436 0.3172766 0.2963464 0.053388372 -0.5384549 -0.17521702 -0.22146596 0.20859778 -0.44929105 -0.23232871 0.24742317 0.39903304 0.27364025 0.080062956 -0.234631 0.49170396 0.21941282 0.1368613 -0.92013335 -0.14078337 0.32846525 -0.26165906 0.2287017 0.03443899 -0.62473494 -0.33283323 -0.10411959 0.3706507 -0.08010954 0.07901991 -0.31591043 0.2046412 0.19078128 -0.6300799 -0.138641 -0.28756946 -0.05955387 0.007922906 0.09276297 0.1638305 0.1911857 0.13212977 -0.0790787 -0.17733668 0.3547394 -0.10407509 0.034343 0.24028444 -0.40547067 -0.34509808 -0.21648553 -0.33991358 -0.24031441 -0.050076667 0.23984376 0.07880501 -0.1460324 0.2811669 0.09645537 -0.21516092 -0.14171258 0.32415888 0.084229775 -0.11670011 -0.5775437 -0.4348881 -0.5337692
> -0.14883277 -0.35509 0.1656171 -0.12381405 0.2792613 0.12917617 0.11610053 -0.049100563 0.04665489 0.17524701 -0.014284242 -0.20703524 0.2815933 0.11894353 0.29861584 -0.08654333 -0.15702637 0.123814434 -0.08432507 -0.31750256 0.009492838 -0.14715141 0.6209063 0.50291294 -0.24622905 -0.10970584 -0.088205114 -0.4706185 -0.09008979 -0.056822322 0.21287368 0.08862348 0.006861583 0.0056777312 0.45154446 0.051378924 0.06189558 -0.3266802 -0.17941386 -0.11266884 -0.017056525 -0.6050574 -0.13995245 0.22246478 0.47949034 0.49078396 -0.0012526009 -0.39327034 0.45479912 0.31604785 0.06873897 -0.86965936 -0.29955804 0.2204651 -0.5200597 0.35636285 0.1160906 -0.46392885 -0.53029007 -0.07114526 0.26641002 0.27084613 0.15313366 -0.22760236 0.2362354 0.15344144 -0.5821509 -0.37297335 -0.6955286 -0.03538108 -0.07231708 0.35271484 -0.43030122 0.19340406 0.20084618 -0.3340649 -0.060893662 0.34061983 -0.17732799 0.056127615 0.38484073 -0.21613039 -0.28655386 -0.31724328 -0.45274392 -0.069089934 -0.045070168 -0.023743387 -0.06899874 -0.05454635 0.104668014 0.077221185 -0.30694652 0.06681588 0.21480033 0.15713635 -0.19431578 -0.6944951 -0.6341261 -0.4877266
" 0.33228052 -0.10136437 0.44946525 -0.15510213 -0.057855386 -0.42570832 -0.22406028 0.16402972 -0.0829557 -0.1044195 -0.050961953 -0.11295112 -0.2818973 0.15223938 -0.5149534 -0.09028272 0.27592763 0.35947588 -0.061826274 -0.20235159 0.17092206 -0.038321536 0.12984666 -0.18370599 -0.5404043 0.16919638 0.10109951 -0.2547208 -0.6303507 -0.17591289 -0.15492678 0.15549 0.048217498 -0.5344218 0.07907586 -0.38405034 -0.309062 -0.36072472 -0.19682002 -0.15938382 -0.036477376 0.09725747 -0.45457658 0.2709885 0.42382595 0.261611 -0.26339313 -0.17562439 0.17071755 0.5926259 -0.34616497 -0.22216102 0.34279954 -0.17558202 0.07630745 0.11625061 -0.34354138 -0.58692193 -0.31133175 0.22946413 0.09781974 -0.16618614 -0.3563891 0.089845136 -0.08596615 0.71245456 -0.38051873 0.26358044 0.12509783 -0.3931723 0.1845026 0.0038687955 0.13450234 -0.28434202 -0.22022727 -0.00015634939 0.52969265 -0.43156198 -0.25422275 -0.32012454 -0.43475133 0.1954409 -0.2953492 -0.11979843 0.10576695 -0.012687282 0.24300432 0.24123886 0.18587323 -0.14870349 0.045549534 -0.28381938 0.03556415 0.31456706 0.2481254 0.3359736 0.43247315 -0.22940353 -0.33714536 0.13058671
+ -0.075319245 -0.019939894 0.40576884 0.31659693 0.3801036 0.023247091 0.49588963 0.2896339 0.015760895 0.030036353 0.122265674 -0.245092 0.32376125 -0.5182707 0.4976552 0.42991894 -0.32320976 0.03600571 -0.22941826 -0.48493972 -0.020948848 0.5417802 0.7143704 -0.11310506 0.13452879 0.7759598 -0.29559687 -0.35944876 0.083816715 -0.13378817 0.17934078 -0.30995753 0.14850256 -0.21613261 -0.18389896 0.40155205 0.065436386 0.07314782 0.46523255 -0.52158254 0.12626955 -0.25613913 -0.7055481 0.2613795 0.11553227 0.0883111 -0.024777913 0.24922773 -0.001177397 0.38662186 0.29471081 -0.8572806 -0.025560107 -0.23815301 -0.26464123 -0.02724139 0.22505891 -0.3945321 -0.08097715 -0.08854908 -0.20043626 -0.072312385 0.449527 -0.24453293 0.03258412 0.22457527 -0.5253455 0.2565873 -0.36573562 0.22186248 -0.1229728 0.46000776 -0.033228744 0.21412028 0.03259708 -0.25807115 -0.16859278 -0.05250157 0.23113182 0.06354524 -0.16649486 -0.43662438 0.37573254 -0.16129254 -0.2329816 -0.46028095 -0.075138755 -0.14956032 -0.037203316 -0.14643465 0.073064186 0.43734214 0.0012425459 0.09870546 0.13131759 0.22164498 0.12974307 0.12686743 0.021282261 -0.505952
} -0.19087657 -0.5902946 0.21359651 0.16313608 0.3536517 -0.18204685 -0.10591059 0.007384677 -0.27150953 -0.06477731 0.13400501 -0.42525122 0.13513114 0.25237247 -0.06916783 0.35069352 0.13591297 0.0036060973 -0.17809866 -0.56852716 -0.034102872 0.19464864 0.44323695 -0.16640078 0.35995328 0.28529793 0.32167548 0.16038957 -0.051662453 0.26276243 0.11694362 -0.2001999 0.1203548 0.07833829 -0.040882315 0.031792868 0.20686807 -0.16820146 0.19650632 -0.31884554 0.20732784 0.012015394 -0.018791365 0.25326234 0.25784343 0.31205234 -0.103349544 -0.005872412 0.066986285 0.4443462 -0.10752213 -0.49312952 -0.1041597 0.105264395 0.037557162 -0.11553609 -0.010700967 -0.6334985 -0.62269205 0.070213415 0.022998786 -0.016634196 0.2278687 -0.14914282 -0.27237687 0.19885775 -0.3206928 -0.039194196 -0.3619439 0.03802818 0.09727287 0.56532836 0.06726365 -0.08154042 0.07057343 -0.07423601 0.107758574 -0.11482838 0.053705793 -0.08557553 0.056039285 0.018537574 -0.16393273 0.036913283 0.06259651 -0.19730847 -0.08792497 0.049350224 0.0025566975 0.012678209 -0.07939507 0.34993044 0.01861521 0.050143663 0.39705652 -0.15708975 -0.37703192 -0.053894028 0.040703498 -0.057683676
{ 0.030027272 -0.19377647 -0.031151006 -0.19181585 0.06788066 0.008251229 0.022029735 0.2210893 -0.014532754 -0.03027239 0.14435837 -0.26354477 0.0831981 -0.1611173 0.10192629 0.2733122 0.28366327 0.00039879073 -0.086146325 -0.99720454 -0.2941451 -0.02936283 0.8267095 -0.43771333 0.2222257 0.2865553 -0.016048027 0.37336078 0.2711986 0.51934505 0.11526797 0.055526387 0.34628096 -0.003826522 0.06697141 -0.062265262 0.14672656 -0.03611022 0.0388458 0.03901649 0.056853358 -0.278446 -0.26804847 0.20067824 0.34477222 -0.08097701 0.05308928 -0.31299543 0.21377078 -0.015682131 0.036867246 -0.3739958 -0.28068855 0.104054816 0.032289013 -0.07292917 -0.16367833 -0.5040635 -0.24278833 -0.07430894 0.04889192 -0.12247357 0.14736031 -0.033285417 -0.25772828 0.37900105 -0.04553032 0.028390061 -0.26010314 0.2628493 -0.116384074 0.27244368 -0.023818947 0.3884227 -0.23009211 0.17292686 0.0063169184 -0.19312607 -0.08456494 -0.14121605 0.15324341 0.2280567 -0.22376963 0.3340071 -0.09756203 -0.28342998 -0.27802292 0.05566955 -0.1289706 0.10591557 0.26343083 -0.0022032175 -0.23393096 -0.32897267 -0.1777757 -0.36605197 0.12163647 -0.16092366 -0.13256627 -0.5085626
* 0.18872087 0.14161159 0.057552792 0.46634236 0.2532262 -0.026791053 0.26619723 0.4324199 0.0792433 -0.09304039 0.08419619 0.28524935 0.051690172 -0.35492378 0.26411754 0.037623163 -0.0910677 -0.5332879 -0.41661826 -0.5668354 -0.16698475 0.2903849 1.1230261 -0.176535 0.2877681 0.26215944 -0.3824331 0.18524528 0.04357413 0.57796466 0.0272564 -0.26585925 0.1503662 0.047583323 -0.034714483 0.5752545 -0.31827882 -0.037677202 0.2954457 -0.23157603 0.05074192 -0.27122748 -0.21113178 0.5619425 0.1054615 0.060288496 0.43423772 -0.39096212 0.009625234 0.8996347 0.062897794 -0.84920305 0.0062001855 0.32864562 -0.29014626 0.2494248 0.07815338 -0.09595473 -0.45448598 0.05654361 0.008243221 -0.0069616027 0.22944789 -0.3459362 -0.40840083 0.44926357 0.121498264 0.27445987 -0.28715193 0.33162647 -0.21317302 0.42785951 0.089465395 0.65272903 0.27714065 0.21689259 -0.09744131 0.29215953 0.25955775 -0.18711798 0.01695953 0.11978288 -0.22803074 0.0050159423 0.25340325 -0.30062848 -0.23855515 -0.0833776 0.28185257 0.02695862 0.39510855 0.3739042 -0.14290313 0.08644581 0.14198041 -0.28643435 -0.17578693 -0.069213875 0.07573758 -0.37505463
if -0.18612193 -0.38998216 0.4217397 -0.058501627 0.33845872 -0.23664264 -0.19465844 0.2637063 0.323606 -0.011407267 -0.17658286 -0.53274465 -0.260636 0.04028446 -0.1250717 0.46452406 0.19922376 0.3022832 -0.0859038 -0.5677397 -0.19427802 -0.063772835 0.577032 0.11164152 0.16746166 0.36708552 -0.02804584 0.06931459 -0.008157966 0.26165032 0.20936482 0.15515098 0.03333681 0.13599399 -0.061752826 0.02921942 -0.0048346566 -0.051899973 -0.05931099 -0.1429194 -0.15230307 0.36413577 0.1541792 0.13852578 -0.13161185 -0.07961636 -0.024513701 -0.10017457 0.12458031 0.20731238 0.23816803 -0.6742952 -0.08207249 0.06986605 -0.03735169 -0.121468626 -0.25601026 -0.4721134 -0.18318968 -0.108227044 0.13415074 0.09340244 0.37452918 0.080718175 -0.13566884 0.016671691 -0.18704139 0.1652665 -0.4095979 -0.046507888 0.09005122 0.53711826 0.12898314 0.2166076 0.031549066 0.0046652434 0.039864324 0.022948802 -0.34907493 0.12458163 0.073427826 -0.005977859 -0.23928781 -0.23885657 -0.10192264 -0.21493617 0.14424124 0.20308663 -0.19959602 -0.06537239 0.13454512 0.05173884 -0.035599057 -0.031198204 0.11392156 -0.0951349 0.09293251 -0.049871136 -0.031768225 0.033853598
0 -0.29941902 -0.14042482 0.2191124 0.15213354 -0.045329172 -0.2494723 0.09474685 -0.09404291 0.17228635 -0.35655385 0.06240357 -0.4629344 0.16771063 -0.035222407 0.22056644 0.1932459 0.14495859 0.036750637 0.12226708 -0.6719036 0.04661735 0.060710713 0.16193984 0.12906091 -0.0151729295 0.39118198 -0.3373357 -0.048381835 0.075519025 0.23195356 0.19337966 0.1848799 0.040084813 -0.16664931 -0.35886544 0.23330948 0.19041666 -0.15799797 0.0022144313 -0.17849524 0.13988814 -0.21213277 0.13126385 -0.035545588 0.24963471 -0.19059455 -0.23990521 -0.2621978 0.36038285 0.20855968 0.04207067 -0.3116409 -0.09696267 -0.0048828563 -0.183102 -0.027305974 -0.010012474 -0.67142946 -0.26332846 0.17913923 0.0867796 0.019147877 0.40624857 0.0738248 0.14505291 0.20897397 -0.2906651 0.1368446 -0.24808754 0.096445695 0.03048614 0.14873794 -0.10076088 -0.0049202302 0.103597365 0.28436255 0.08106822 -0.18434297 0.07019234 -0.24267484 0.09691903 -0.23874615 -0.028603781 -0.0069183335 -0.15208791 -0.04868377 0.06359665 0.1844234 -0.06383277 -0.29445603 0.22317411 0.35605818 -0.21909025 0.17214862 0.06648905 -0.093013294 -0.02274447 -0.04506123 -0.44045475 -0.14211896
[ 0.48927617 0.6706443 0.03297282 -0.37375873 0.25537533 0.06287417 0.65417904 0.40146735 0.26459375 -0.4910069 0.56133777 -0.68942666 -0.10436673 -0.33330178 -0.20475292 0.40090877 0.19977014 0.07640879 -0.0105472505 -0.7209244 0.27630988 0.21852763 0.54473495 -0.16775443 -0.64635473 0.06511557 0.0029118403 -0.28163606 -0.18369365 -0.30875567 -0.7815239 -0.53286433 0.520573 -0.34250623 -0.42723638 0.21270642 0.11402762 0.062698916 -0.06980014 0.46627834 0.46512064 -0.17922401 -0.16354497 0.1890658 0.7089591 0.29386237 -0.17218198 -0.16899695 0.06154751 0.61336136 -0.27995056 -0.22117224 -0.0375372 0.030171042 -0.22288091 0.20040478 0.3054227 -0.055463597 0.000205462 0.37372917 -0.010468809 -0.4773523 0.24615659 0.22568196 0.5730615 0.12940462 -0.34593597 -0.067791216 -0.27192765 0.16985822 -0.07248799 0.054496877 0.7047852 0.0075261462 0.2853704 -0.062098645 0.08092377 0.36099145 0.14734259 0.34391022 -0.17782652 -0.07741427 -0.29237524 -0.22365043 -0.12332199 0.15494218 0.63107353 0.28405517 0.06094552 -0.5982005 0.1834269 0.62536097 -0.12138193 0.25419354 0.051515408 -0.19542089 -0.17010808 0.1509046 -0.37156138 0.3319674
] 0.15556121 0.58611125 0.2259733 -0.114490315 -0.047132958 -0.029760242 0.63449347 0.5820513 0.14409636 -0.30250952 0.38744044 -0.49448174 -0.038039517 -0.1941808 -0.13596937 0.22197221 -0.11065789 0.24310006 -0.03672576 -0.9922488 0.28731552 0.26093277 0.5540278 -0.10529835 -0.5839391 0.10706968 -0.18946621 -0.2376624 -0.3439699 -0.48322108 -0.70930076 -0.5650547 0.3231355 -0.19682063 -0.38695243 0.4317982 0.19967416 -0.036491394 -0.48021835 0.32471997 0.38634557 -0.270367 -0.21799563 0.15787388 0.60771656 0.1660932 -0.32747903 -0.24010234 -0.012603266 0.33053547 -0.29492432 -0.12817343 0.1784287 0.21750142 -0.13820708 0.30459505 0.23415245 -0.22333504 0.007122828 0.52906954 0.01737432 -0.31075802 0.34545434 0.24398601 0.8016369 0.0124575095 -0.5079918 0.28709227 -0.07392976 0.23302357 -0.2240795 0.0333549 0.52748406 -0.15164053 0.58204126 0.22842908 0.16363086 0.2537022 0.184068 0.16063917 -0.22785565 -0.1796224 -0.28468564 -0.098577306 -0.3267301 0.14351566 0.34802753 -0.057706308 0.11813191 -0.2183834 -0.064334 0.6309072 -0.240305 -0.07661099 -0.13768691 -0.06347703 0.08216618 0.19323662 -0.20972407 0.3665568
png_ptr 0.37991086 -0.8623996 0.031841125 -0.5113048 0.66003466 -0.588926 -0.6427959 0.6362874 0.13997856 0.3945306 -0.27380502 0.31886065 -0.43706313 0.30563253 -0.8602737 0.8354005 -0.10187096 0.9792777 0.13741396 -0.41724813 0.19681227 -0.012418664 0.33205628 -0.14911334 0.33985025 0.6403553 0.064777605 0.11096166 0.13062115 0.1567355 -0.31275028 0.015538992 -0.178966 0.3867382 0.3935242 -0.024673814 -0.16505678 -0.16691773 0.22540429 -0.4321237 -0.4032271 -0.48139483 -0.097904935 0.6792081 0.43687293 0.29860008 -0.07091303 -0.18502313 0.08259027 -0.16861555 -0.13845055 -0.21545422 -0.07004927 0.24005681 0.27591175 0.58857656 -0.41321707 -0.15200444 -0.38308018 0.34734854 0.14676248 0.06728418 -0.054097366 0.7365244 0.09841392 0.0031964697 0.009156487 0.048399784 0.56383467 0.18663792 0.022635631 0.42941183 0.19458227 -0.043374218 -0.053893395 -0.45594284 -0.1960451 0.2060709 0.22487023 -0.02338915 0.5546061 0.093302 -0.16877903 -0.10223854 -0.27904388 0.34308442 -0.06044795 -0.28750432 -0.5160226 -0.14368586 0.26118603 -0.14888677 0.24966347 -0.38636214 -0.25122383 -0.1987063 -0.24789812 -0.6291369 -0.75932467 -0.0651474
1 -0.08144833 -0.2782194 0.48038164 0.16753867 0.27057242 -0.37230942 0.17817397 0.25376004 -0.07457279 -0.30396864 -0.13487077 -0.5431586 -0.16376664 -0.028292092 0.045322027 0.1581855 0.21964909 0.20654646 -0.059533186 -0.5826631 -0.10821206 -0.028737435 0.3984919 0.03720415 0.034496397 0.16941758 -0.013665156 0.016320147 0.2903556 0.20503694 0.2669267 0.055005442 -0.21150666 -0.041470516 -0.20240206 0.22395067 0.10699081 -0.049689896 0.4106321 -0.15816219 0.25559872 -0.144422 0.12178837 0.09864646 0.33764833 0.10889079 -0.34704074 -0.21671426 0.19572008 0.3275905 0.038299616 -0.41656977 -0.009486616 0.034288645 -0.087729566 -0.054411344 -0.05775846 -0.44385317 -0.25990674 0.26047096 0.008606655 -0.17463209 0.27828637 -0.09835285 0.066656634 0.16073209 -0.14934236 0.22792105 -0.17599727 0.020821 0.011091857 0.24154827 0.24133985 0.11403641 0.115862735 0.16128744 0.11696548 0.023432858 0.07415323 0.124255456 -0.08006814 -0.5391117 0.18811281 -0.32046574 0.18811971 -0.06957945 0.103278875 -0.033305656 -0.0101135485 -0.28867045 0.24288331 0.37925437 -0.01118593 -0.023203645 0.18594243 0.049511362 -0.06724066 -0.11592737 0.09932228 -0.15296346
i 0.02848519 -0.26048324 -0.044766653 0.3198398 -0.097563244 0.20049995 0.31191304 -0.21044438 0.3029273 -0.5106738 0.35170984 -0.22070943 0.1605311 -0.029700007 -0.044262435 0.4911568 0.23945169 0.5321886 0.18011034 -0.5827778 -0.05803615 -0.074717075 0.15664381 -0.2287697 -0.08599634 0.6149412 -0.21655402 -0.0969285 0.1731683 -0.23123199 -0.10395724 -0.0037500274 0.35730624 -0.38723013 -0.3716666 0.55311286 0.12350144 0.089568354 0.21722704 -0.54661375 0.3060962 -0.5155318 -0.1754177 0.18166745 0.12706563 -0.071363874 -0.35397643 -0.12658331 0.668542 0.44450328 -0.29314858 -0.504808 0.004543598 0.15236296 -0.23257093 0.21887888 -0.07487516 -0.049488604 0.22140878 0.31693327 0.13704373 0.09387853 0.9993165 0.3142339 0.0985846 0.30904022 -0.064999565 0.36488035 -0.23394911 0.46329108 0.42773616 0.11463879 0.18712515 0.25400606 0.6280533 0.27848053 0.15261036 0.16190644 0.05869783 0.020675559 -0.25077662 -0.3719042 -0.15299103 0.120196775 -0.068051435 -0.1895645 0.38279152 -0.051696207 0.13495903 -0.01532332 0.32370427 0.51401645 -0.015699673 0.408449 -0.103093885 -0.20182139 -0.3847196 0.009823202 -0.1662966 0.059436157
int 0.20759393 0.19407399 -0.21203029 0.09456795 -0.36088985 0.29949462 0.20865948 -0.09795176 0.2766802 -0.23175852 0.07544798 0.022237394 0.04316729 -0.17674579 0.24416643 0.4196982 -0.028156783 0.06317953 0.13791081 -0.70223475 -0.117652126 0.08503817 0.49829727 -0.08181719 0.055276345 0.33033496 -0.41067243 -0.28254715 0.13096933 0.34200895 -0.15780655 -0.015091169 0.47022372 0.1640936 -0.3359622 0.5308449 -0.17047913 -0.08380027 -0.1606663 -0.28427616 -0.014387728 0.045475714 0.24751444 0.28894028 0.069317766 -0.35797638 -0.15354198 -0.26989806 0.30197513 0.45133102 -0.1812329 -0.64957726 -0.65996575 -0.087651975 0.2227623 0.37210506 0.16321282 -0.31073216 -0.0342792 0.07402868 -0.28236824 -0.101783924 0.18095802 0.18247512 -0.08399071 0.45657465 -0.203676 -0.2490934 -0.26117346 0.19175325 -0.41140985 0.40971327 0.15363485 -0.021676019 -0.1401189 0.16731347 -0.08918996 0.05932259 -0.022434607 -0.030838931 -0.039957415 -0.15736097 0.052855834 0.2111746 0.28354153 0.23580578 0.08399951 0.27829036 -0.20439011 -0.21270859 -0.35527238 0.14138474 -0.5339783 0.20861064 -0.14832743 -0.1115638 -0.013632757 0.25947562 -0.4988572 0.070235424
< 0.17392927 -0.17771472 0.17353709 0.038588453 -0.08069336 -0.3970876 0.16868101 0.46207094 0.395984 -0.28599805 0.44582018 -0.15242471 0.63135284 -0.2313124 0.28711662 0.17164698 0.16738892 0.6098516 -0.29879707 -0.73887897 0.23483607 0.169675 0.24751242 0.3770107 -0.58614933 0.81061155 -0.21298654 -0.35746685 0.016197953 -0.037493505 0.01984075 -0.14403056 0.0117815705 -0.23730707 -0.10755248 0.43032855 0.2852908 0.1040157 -0.005656154 -0.33668104 0.088551 -0.27752754 -0.18828882 0.039685786 0.052005056 0.039426822 -0.25229612 -0.17236005 0.33506313 0.063910514 0.2775071 -0.8039184 -0.078496136 -0.292944 0.11373269 0.34363946 0.18125659 -0.35369003 -0.40436435 -0.064673856 0.021928178 0.33395588 0.43057624 -0.26862955 0.06516216 0.3972397 -0.65566385 0.10822203 -0.26755175 -0.29688644 0.1801938 -0.14207745 -0.21254252 0.46011668 0.44950607 0.13066119 -0.018142391 0.2701473 -0.3235675 -0.018807188 0.23669073 0.104354575 -0.074757025 -0.33097127 -0.39250088 -0.010486353 0.12248743 -0.3006655 -0.13111383 -0.015329105 -0.3768666 0.12424287 0.0738996 0.3261901 0.13101564 -0.09748547 0.36268684 -0.124304205 -0.41741908 -0.4765023
else -0.16240053 -0.4151451 0.8707552 0.060982823 -0.017652698 -0.17887495 0.04652626 0.28564408 -0.37031093 -0.08504012 0.12492427 -0.38289747 0.04531531 0.2055911 -0.1515143 0.033739246 -0.013801416 0.23629448 -0.26438722 -0.438943 -0.2239662 -0.09093517 0.5128767 -0.06471136 -0.022075912 0.25510722 0.37796026 0.13571933 -0.008962379 0.13781568 0.29660633 -0.5357321 0.09465159 -0.3109571 -0.04741406 0.12830925 0.2754483 -0.34623998 0.004180848 -0.4492151 0.16769148 0.024419395 -0.1131142 0.15973577 -0.03130302 0.056765825 -0.13212737 0.022554435 0.18105803 0.310943 0.13426109 -0.6585555 -0.08605311 0.15015109 -0.10613398 -0.25901604 0.06191899 -0.5380306 -0.6793696 -0.2405993 0.13220665 0.2069709 0.11458607 -0.21668012 0.06445278 0.28143796 -0.17321144 0.23304608 -0.60569155 -0.1998793 0.07993835 0.5065841 -0.034290157 -0.28737772 0.13818406 -0.24171267 0.14531265 0.22100301 -0.056494858 0.19087368 0.0051451703 -0.46930408 -0.023637457 0.16584072 -0.17710182 -0.008376169 0.034133658 0.0004542634 -0.29853475 -0.13299185 0.012061743 0.21318668 0.16797763 -0.049542185 0.11308002 0.059504967 -0.23575425 0.029364167 -0.043725166 -0.19075708
NULL -0.18646611 -0.52647495 0.5293853 0.041630596 -0.26346216 -0.08934357 -0.19411716 -0.17494382 -0.279614 -0.16879554 0.13858388 0.3757308 -0.24589066 0.100186236 0.09989934 0.5147001 -0.11749448 0.09001474 0.072405435 -0.7961769 -0.058521155 0.35546398 0.22468008 0.18681106 0.41476685 -0.006979921 -0.3013447 0.33567923 -0.10442453 0.16196825 -0.24243991 0.21406014 -0.01356562 -0.16418667 0.1898411 0.09799125 -0.24665265 -0.37621042 -0.20505805 0.09777439 -0.0007448021 -0.42604333 -0.21433958 0.11360543 0.0712082 -0.26268706 0.31614822 0.10060445 -0.11370413 0.10952651 0.21615584 -0.12697457 -0.42864412 0.30899546 0.032394186 0.2892218 -0.21376352 -0.5396223 -0.5200429 0.15966655 0.078250386 0.10265691 -0.15351875 0.37822953 0.19924736 0.41040733 -0.21237059 -0.14977747 -0.1478346 0.56730783 0.13529529 0.71672976 0.16316998 -0.13596179 -0.0731904 0.10755318 -0.13739331 0.036971398 0.44854018 0.31014782 0.3246348 0.063025095 0.19511007 -0.10086239 -0.31149408 -0.096086875 0.29730377 0.29001358 -0.16269146 -0.10285828 0.3764222 0.035967946 -0.34900627 0.08090106 -0.023965389 -0.31156686 -0.11489433 -0.23001689 -0.49360508 0.00059377815
return -0.22537504 -0.6251642 0.027126256 -0.24947324 0.011227347 -0.09461468 -0.30271533 0.23710345 -0.18471016 -0.29838148 -0.23988734 -0.18000671 0.05190725 0.37223396 0.13860649 0.15752573 0.09446677 -0.17157407 0.007434704 -0.64463836 0.23839651 0.019503197 0.33710656 -0.36856496 -0.011039444 0.44632897 -0.11573807 0.018644812 0.21504326 0.05770953 -0.10526192 -0.14431605 0.15210849 -0.16601983 -0.37016013 0.24038096 0.36757275 -0.14051202 -0.14004071 0.04706267 0.11108097 0.0034885867 0.19831687 0.37808165 0.32472345 -0.054384638 -0.23811696 -0.170517 -0.26507488 0.26948076 0.14618565 -0.27266598 -0.074374944 -0.14121872 -0.15584795 -0.054637566 -0.2097867 -0.90298903 -0.4991471 -0.057304278 -0.45348608 -0.062237665 0.11097957 0.2038534 -0.19557168 0.29060507 -0.2657058 0.0658243 -0.2610628 0.012854867 0.15043889 0.5603461 -0.2977342 -0.13626288 0.22919849 -0.60005707 0.43726745 -0.11129041 -0.18696569 0.11508138 0.09505819 -0.0022739503 -0.016586445 -0.15455663 -0.14265853 0.0671313 -0.15623407 0.2009863 -0.44245946 -0.11134889 -0.2682463 -0.178449 -0.12995085 -0.20424816 0.015974905 -0.07392045 0.13408197 -0.14497305 -0.030078866 0.13881952
! -0.3859218 -0.25259385 0.6108583 -0.38068765 0.054349408 -0.4325353 -0.26607418 0.24357751 0.082163446 -0.38687202 0.1636565 -0.16412885 -0.3035178 -0.054361753 -0.11088935 0.48023558 0.40316686 0.5021539 -0.4138366 -1.0980433 -0.35955393 0.114343405 0.22016042 0.4454129 -0.19268583 0.16025713 -0.023801599 -0.04270446 -0.07048194 0.047313683 0.20522901 0.17877004 -0.005717515 -0.23585846 0.058129936 -0.19923186 0.11919343 -0.49940148 -0.044449132 0.24774452 -0.016653925 -0.24590816 -0.06658849 0.12332893 0.10908472 -0.18820512 0.22338511 -0.12493307 0.38778934 0.41583434 0.28148428 -0.50402963 -0.19611779 -0.060968734 0.018542076 0.120235346 0.016264088 -0.23059423 -0.20023116 0.205243 0.44621062 -0.06659315 -0.107448384 0.03632199 0.18590358 -0.35415742 -0.12198 -0.16233668 -0.38586453 0.08103074 -0.16702852 0.012097449 0.14582719 0.34546453 0.1719601 -0.09773797 -0.07703053 0.2984588 -0.10090332 -0.13872533 0.08779867 0.23895678 -0.2247114 -0.04256385 -0.16969433 -0.056252237 0.19469388 0.022508733 -0.29639697 0.028911533 0.2396317 -0.26190662 -0.061216984 -0.02503264 0.23640873 -0.31653923 0.18184803 -0.046305712 -0.28049836 -0.28317472
& 0.48596808 -0.35655752 0.98559445 -0.53915405 1.0522709 -0.53880334 -0.3350057 0.8132187 -0.19345881 0.1518854 0.0579429 -0.20511055 0.3415578 0.09811936 -0.094646454 0.16531341 0.38732213 0.7282897 -0.27214852 -1.4593085 -0.40983385 0.07566336 0.4282995 -0.35315886 0.082783446 0.17627023 -0.28486001 -0.15738903 0.08318171 -0.34294203 0.0287673 -0.37485018 -0.05625176 0.19639838 -0.019501349 0.031902004 0.2820842 0.21756655 -0.42870134 -0.014560399 -0.35268974 -0.31557816 0.05455989 -0.075475946 -0.18463568 0.16705814 0.14176944 -0.45390645 -0.1952339 0.16516839 -0.54496753 -0.27025908 -0.44266602 -0.0756279 0.040526997 -0.11797739 -0.21548153 -0.07696464 -0.35919845 -0.13642578 0.21269882 0.08552381 0.059324905 0.09822992 0.22825836 0.35144183 -0.21118906 -0.48474133 -0.39989075 -0.3411138 -0.29659897 -0.4022946 -0.16052718 -0.19017904 0.29711637 -0.6081966 -0.07243942 0.47363445 -0.35428882 0.33171758 0.520034 0.41375366 -0.22681902 -0.18039352 -0.2007959 0.16090247 0.12448229 0.20415181 -0.29082236 -0.25120014 -0.5913819 0.03516441 0.39548013 -0.085776895 0.22300065 -0.19338189 -0.616362 0.20317763 -0.4236351 -0.01363162
static -0.043012895 0.039025813 -0.3406103 -0.2384285 0.0020491912 0.018278157 0.29294363 0.48702788 -0.062178098 0.1662968 -0.21618061 0.43009388 -0.22978367 -0.3422283 -0.23786542 0.26378226 0.064393535 -0.6253957 0.46902218 -0.91162616 -0.03716585 -0.10803913 0.8415872 0.005169286 -0.3791355 -0.13269742 -0.44874063 0.012001982 -0.24246542 0.26505336 0.13374345 0.20139605 0.31160727 0.022063423 -0.44169682 0.6044539 -0.41178742 0.3464752 0.011924196 -0.40571094 -0.03763973 -0.38291106 -0.16299102 0.12383912 -0.13420098 -0.26725882 -0.0053191558 -0.30509654 0.43355656 0.90247566 -0.32258695 -0.67353666 -0.28457096 0.2956092 0.13514902 0.12771817 0.12091581 -0.48070067 -0.51701826 -0.20590822 0.026034331 0.010304751 0.35983887 0.3073473 -0.21358383 0.3549537 0.28263167 0.13911085 -0.26514885 0.4368968 -0.1115026 0.5770739 0.022667417 -0.088119 0.12170829 -0.050164975 -0.20457087 -0.043432362 0.09979944 -0.25936577 -0.0039712465 0.31377825 -0.015027797 0.64432335 0.3372358 0.13091663 -0.70241714 0.5268574 0.29120082 0.16347845 0.4174857 -0.010434136 -0.10178979 -0.16425672 -0.3355837 0.02270886 -0.062108602 -0.19298247 -0.16910353 -0.119771145
pp 0.102599435 0.27301767 0.19301675 -0.43846187 0.698325 -0.10590894 0.04017728 0.058853798 0.40701976 0.29251072 0.20113201 -0.23042038 -0.07164766 0.27435002 -0.58088493 -0.4371832 0.7368039 0.076995775 -0.20601532 -0.21630463 -0.44986463 -0.10515381 0.3906282 0.17887291 -0.31232953 -0.018253334 -0.25902376 -0.2759896 0.13882692 0.25398958 0.2736114 -0.059088632 0.05962827 -0.86261785 -0.16069283 0.612535 -0.13111986 0.03744218 -0.2661816 -0.61967695 -0.4507694 -0.47158766 -0.33944607 -0.24173002 0.3207273 0.13639903 -0.40218702 -0.43680787 0.11224094 0.23010744 -0.34694916 -0.54177564 0.18663327 0.2565479 0.2811114 0.03685292 -0.41141024 -0.7063748 -0.8704031 0.8508782 0.3619673 -0.5728267 0.16009192 0.04508603 -0.43475547 -0.47755525 -0.3417479 -0.1843082 0.34722182 0.1869934 -0.3157618 0.53546435 0.5544422 -0.048618965 -0.23310585 -0.41768184 -0.41119578 0.10605459 -0.1875809 -0.5268822 0.24026537 0.27221513 0.10678928 -0.014509236 0.22389841 0.007855107 -0.079884835 0.22263296 -0.0629881 -0.1560993 0.5748226 -0.15908511 0.28690436 -0.77095234 -0.31448343 -0.019396592 0.12211865 -0.5978094 -0.97778434 -0.32120508
dp 0.35381448 0.24762814 -0.10937167 0.18729648 0.43246728 0.3075935 0.31204304 -0.31060168 0.298955 0.39251092 0.25630713 -0.09748638 0.5518171 0.13041557 -0.17272091 -0.030745994 0.682386 0.08378097 -0.14710289 -0.5841094 -0.13887082 0.257429 0.6779778 0.029041437 0.094447784 0.5610774 -0.62320465 -0.49815395 0.13661228 0.20085427 0.4103248 0.19373825 0.77255726 -0.58103293 -0.0997253 0.1919041 -0.16425568 -0.5842155 -0.5520849 -0.74252117 -0.46662945 -0.20736429 -0.43058386 -0.020458486 0.119905815 0.23793876 -0.0025396633 -0.35664237 0.25277865 0.41030392 -0.5105477 -0.22091128 -0.123148344 0.32334343 -0.028920796 -0.049567062 -0.22335391 -0.44522002 -0.3346932 0.7262548 0.47047544 -0.06881962 -0.18573381 0.11997033 -0.23385566 -0.46530178 -0.5928341 -0.12042459 0.63112277 0.3747481 -0.07223275 -0.028028918 0.52667147 0.21890195 -0.42103198 -0.61326593 0.067481965 0.44888175 -0.32393202 0.022339813 0.3389984 -0.10382902 -0.09541389 -0.100182466 -0.40686888 -0.4233574 -0.08873505 -0.10270567 -0.36084402 -0.08162562 0.5281264 0.18016699 -0.13562654 -0.25272962 -0.23902205 0.109938145 -0.15151446 -0.29220247 -0.36697572 -0.112411626
pm -0.124462284 -0.030504297 -0.39818054 -0.25949776 0.56647766 0.14491619 -0.41047487 0.019916423 -0.22084166 -0.14155087 0.03149465 -0.22958668 0.22633785 0.46883813 0.021313041 0.28329843 0.7538809 -0.24269329 -0.1998002 -0.8909421 0.062461086 -0.3644561 -0.25199085 0.29112837 0.2688441 0.25480998 -0.48804003 -0.5699554 0.25183448 0.038509194 0.02726331 0.3018877 0.08205063 -1.094548 -0.16150744 0.71777225 0.3795901 -0.39586842 -0.098026834 -1.3398662 -0.22661752 -0.99988246 0.23435007 0.65727943 0.55544513 0.062737696 -1.188124 -0.5537176 0.5161958 0.5504995 -0.25274342 -0.4016537 -0.2255622 0.60904646 0.11294734 -0.052809384 0.2413568 -0.43222454 -0.1774929 0.022329738 -0.227849 0.1371987 0.25531384 0.21925895 -0.1625871 -0.39891356 0.51176345 -0.12783368 0.08459382 -0.1783397 0.6383268 -0.38994324 -0.23907812 -0.13819729 -0.26343086 -0.71054965 0.577662 0.32304332 -0.15265074 0.13443011 -0.111356474 -0.34437862 -0.56849825 -0.85973114 -0.19736809 0.28471106 -0.7703908 0.11158611 0.1829674 0.17173572 0.3583015 0.68931717 0.084426865 0.51622283 0.34954587 0.46218163 0.45818734 -1.1551099 -1.0511944 0.13059904
pos -0.034773204 0.38669336 0.11038092 -0.04919358 0.40592265 -0.11915409 0.06105166 0.3515915 -0.035930756 0.49145728 -0.49788722 -0.09826477 -0.25509208 -0.49927956 -0.10715407 -0.22788633 0.14011183 -0.41485748 0.09411095 -0.6262174 0.06250867 -0.26223612 0.18238688 -0.18499522 -0.21532543 0.48894423 -0.6235671 -0.42797092 -0.3345895 -0.10817835 0.5578067 0.21097045 0.18457375 -0.7611082 0.014679019 -0.2144071 0.33659375 -0.24992365 -0.3421898 -0.8770055 -0.48847574 -0.68486285 -0.63364065 0.79250854 0.07848474 -0.2112085 -0.112220265 -0.19485828 -0.022979505 0.8307556 -0.15254147 -0.10823286 0.36058637 0.22147514 0.035894915 -0.07197585 -0.08834551 -1.3048346 -0.68901104 0.20203069 -0.06871062 -0.16135226 0.19514188 0.2625977 -0.0006641494 0.1474741 0.27145875 0.2153784 0.064026386 -0.24905826 -0.098973036 -0.06518651 0.2136728 0.23845226 0.16739774 -0.23115882 0.10255241 0.08200637 0.18122427 -0.4357628 -0.078747906 0.05631764 -0.13259512 -0.6061368 -0.7834919 -0.30495152 0.50367343 0.011932778 -0.115777075 -0.45355147 0.8447974 0.37999782 -0.21479946 0.2251463 0.36498863 0.2802107 0.09506559 -0.42835668 -1.1173965 -0.007122961
info_ptr 0.6511588 -0.8667317 0.16947944 -0.60676986 0.27249128 -0.46324077 -0.6397276 0.25061318 0.36161146 -0.005176095 0.13375007 0.63358486 0.1421188 0.36046538 -0.3631275 0.7728064 -0.07180603 0.7002663 0.4729424 -0.4163223 0.2697948 0.094655156 0.23901486 -0.39055336 0.24230264 0.35944772 -0.22249237 -0.32884824 0.2398114 0.1872768 -0.4822699 0.44595262 0.57966566 -0.07004511 0.05616312 0.762591 -0.24636622 -0.21232536 0.10826659 -0.49582493 -0.5751343 -0.74377465 0.08445717 0.46870762 0.54186195 -0.2459088 -0.25137356 0.037224464 0.0806975 -0.12414399 0.014926335 0.022347528 0.020766307 -0.14429781 -0.10438124 1.073135 -0.34163913 -0.183425 -0.09743224 0.71105886 -0.09524473 -0.12858786 0.07928742 0.8124641 -0.039718043 0.14200608 0.07836693 -0.22129294 0.871762 0.5658055 0.22985865 0.39725563 -0.12044072 0.31935078 0.35037106 0.1953113 -0.063251086 -0.006169201 0.43569162 0.34376195 0.442107 0.075530216 0.17397617 -0.22192037 0.19242379 0.550622 0.028482083 -0.370637 0.08957805 0.41915125 0.33568662 0.17860822 -0.20882687 -0.08378233 -0.0828054 -0.35041338 -0.54635173 -0.52122587 -1.1018877 0.020526646
void 0.06764514 0.0075092926 -0.30266416 -0.39905906 -0.20397043 -0.025117168 0.10685716 0.37010413 0.16852856 -0.16998915 0.026029767 0.7254138 -0.51104236 -0.2899287 -0.10671362 0.27405402 -0.012821733 -0.6259748 0.16680156 -0.95846426 -0.3298342 -0.17068091 0.9581255 -0.13002965 -0.05295836 -0.13742158 -0.21360727 0.10699354 -0.28461242 0.57140803 -0.20689015 -0.051189568 0.3431288 -0.41488054 -0.051229347 0.1969131 -0.71275413 -0.082085356 0.40586782 -0.34301606 -0.012564181 -0.37921813 -0.33761358 -0.043716937 0.19779745 -0.41900405 0.05366054 -0.1964694 0.350416 1.0830266 -0.28785902 -0.9819232 -0.41648436 0.31362945 0.38270026 0.0045226184 0.073277414 -0.28940576 -0.5676727 -0.17434105 -7.232005e-05 -0.013047773 0.3496861 0.26058066 -0.024730416 0.5601325 0.21776454 0.12187925 -0.5864298 0.20232016 -0.23935647 0.3648184 0.17456537 -0.072656415 -0.10199149 0.076544546 -0.42235872 -0.13101773 0.04931298 -0.3489915 0.38009673 0.13215174 -0.18488134 0.44071463 0.30437142 0.004683413 -0.5156086 0.2976544 0.15696529 0.1801432 0.07779973 0.027076371 -0.17016792 -0.22278392 0.020358399 0.14241152 0.15403521 -0.5238512 -0.3054305 -0.368766
/ 0.17003691 0.06479852 0.16756073 -0.08912925 0.17824005 -0.12257216 0.5202845 0.7580751 -0.18805045 -0.24976102 0.15347615 0.05614304 -0.0055289655 0.16387203 0.022005374 0.2462696 -0.087270126 -0.12803245 -0.010185025 -0.27712652 -0.0943047 -0.28287798 0.7162605 0.25955972 -0.43411317 0.35210475 0.19731969 -0.22591051 -0.7333787 -0.17373802 0.27815586 -0.4462767 0.16454384 -0.46076217 0.03630477 0.6407311 -0.1934309 0.31667644 -0.41217732 -0.57642996 -0.5222255 -0.26995227 -0.3693312 0.30994952 0.51970094 -0.16107874 0.038123745 -0.07599281 0.2941246 0.60652256 -0.21635993 -0.6656062 -0.3265451 -0.41578043 0.04436867 0.10382776 0.052103605 -0.27855593 0.06151763 -0.6195189 -0.29687476 -0.030051474 0.060764574 -0.025221657 -0.22137852 -0.07856685 0.10212096 0.2021809 0.21671513 -0.26882172 0.487096 -0.058122493 -0.121245846 0.34708086 0.4462766 0.16555822 -0.12671712 -0.14803222 0.18331093 0.002618736 0.21288215 -0.67800975 0.040619012 -0.4712011 0.62968165 -0.18007542 -0.39275643 -0.0067043267 0.32691374 0.08846367 -0.23185383 0.046265963 0.5070956 0.20825723 0.067471445 0.46098736 0.16831514 -0.069304556 0.24850021 -0.18010853
fprintf -0.023856465 -0.56334555 -0.04917408 0.15271898 0.054560892 -0.483175 -0.29776397 0.6898999 0.16685858 0.038744774 -0.36743334 -0.15071802 -0.029870905 0.34230122 -0.037805293 -0.12436076 0.17650895 0.4389469 -0.25557244 -0.5957135 0.22505073 0.21701106 -0.13412008 -0.13982897 -0.2952171 0.2755917 0.03115816 -0.29501882 -0.21891566 0.29225677 -0.52646446 0.2792866 0.48791668 -0.7401372 -0.11641475 0.07624093 -0.24518742 -0.66233045 -0.1206793 -0.4067549 0.06436944 -0.21351375 -0.35354805 0.59516907 0.22015758 0.12447336 0.28423843 -0.3381998 0.13690226 0.30097818 -0.16656077 -0.0013533183 0.18015628 -0.109352715 0.6485795 -0.34767407 -0.16357012 -0.3422759 0.39492902 -0.10658584 0.08598282 -0.32857028 0.18001762 0.19623181 -0.7665962 0.40637478 -0.03227466 0.23038033 -0.43324074 0.5740462 0.49784938 0.350603 0.5718643 -0.38170186 0.44214776 0.40671185 0.46144384 -0.11431466 -0.45140296 -0.030106919 -0.41223735 0.4378523 -0.12689675 0.011394386 0.36537984 -0.13767269 0.6462576 0.086720616 -0.15263458 0.45311314 0.07519396 -0.42449787 0.2540942 0.026522417 0.35747176 0.06973998 0.26391515 -0.277166 -0.6958961 0.458619
stderr 0.29393083 -0.57049227 0.30237255 0.034263473 -0.20617676 -0.3229547 -0.1220693 0.5170549 -0.1329673 -0.08891538 0.013892726 0.1654378 -0.011712922 0.3114194 -0.25864217 -0.026775455 -0.035190467 0.39013955 0.09898141 -0.50709045 0.33500013 0.18077038 0.3145894 -0.36891994 -0.5332774 0.22738513 0.0021320067 -0.04339925 -0.36943614 0.17540257 -0.40647283 0.18753861 0.43495506 -0.99833256 0.13118589 -0.06712406 -0.356908 -0.6693885 -0.39253604 -0.4852269 -0.3803036 0.022388326 -0.79764366 0.52828646 0.37213618 0.21651341 0.07563959 -0.2232823 0.35334438 0.24695697 0.16672981 0.3607291 -0.15714157 -0.13747846 0.64581543 -0.22786407 -0.39519444 -0.14539862 -0.03995986 0.03578042 -0.17531157 -0.06470525 0.35844862 0.11274378 -0.7834724 0.28282243 -0.1396938 0.018786164 -0.24414617 0.40016496 0.29808053 0.6133715 0.56680083 -0.42109856 0.20357703 -0.04061747 0.7571142 -0.41695753 -0.41643834 -0.10992152 -0.7496728 0.25991777 -0.34383914 0.21674637 -0.22538407 -0.22580181 0.40999505 -0.036578238 0.15934646 0.63106537 0.016380675 0.027607074 0.37220734 0.25328094 0.26114118 -0.100433625 0.47698724 -0.020589165 -0.9213738 0.13767761
for 0.23862801 -0.19495778 -0.0136410715 -0.0719257 -0.12579851 0.2675832 0.39872015 -0.25170007 0.5800742 0.11948085 0.08457151 -0.2313846 0.13838208 -0.24174057 -0.28897887 0.5547807 -0.1894963 0.33883423 0.0148990825 -0.57081866 0.044454936 -0.029758641 -0.18641928 0.24090302 -0.5071471 1.0752558 -0.17032167 -0.56905377 -0.21606326 -0.28361022 -0.27305147 0.021526875 0.2729178 -0.53152865 -0.25251988 0.08619179 0.05205188 0.40085354 -0.07064062 -0.2880179 -0.08935889 -0.19265923 -0.27474234 0.20844391 0.20005555 -0.17104138 -0.066348016 0.08314408 0.25878707 0.42117533 -0.27426895 -0.21436326 -0.17434868 -0.23381071 0.14281808 -0.053467505 -0.23181085 -0.46632347 -0.099125236 0.03323265 -0.21523166 -0.22597943 0.17551677 0.08921891 -0.066786215 0.18012561 -0.4465699 0.2886513 -0.15351264 0.24999528 0.5897653 0.6821581 0.035304017 0.28880394 0.7903229 -0.11874932 0.15234354 -0.14621755 0.041091714 0.08899113 -0.19825193 -0.0018800863 0.03458221 0.27157342 0.07478868 -0.35556328 0.013041231 0.33578008 -0.003743607 -0.2161946 -0.26109272 0.19747476 0.25176364 0.23647262 -0.21419227 0.15876633 0.009135699 0.5674298 -0.27381355 -0.08935471
&& -0.32601288 -0.36384323 0.7188084 -0.15128955 0.20779455 -0.37364864 -0.05818014 0.56360525 0.1445016 -0.19131844 0.093154274 -0.45644274 -0.2984731 -0.33816126 -0.09979561 0.6733238 0.51297903 0.6248731 -0.16580997 -1.0656413 -0.47335267 -0.010546502 0.45281214 0.19579317 -0.1632581 0.41068932 -0.11916705 -0.14276913 -0.0064624343 -0.07740424 0.19266775 0.26422152 -0.19748744 -0.07740054 0.0033460301 0.13891135 0.10360536 -0.014770508 -0.32951218 0.16893026 -0.037295084 -0.013914565 0.1993501 0.092425846 -0.21197638 -0.5868513 0.23757346 -0.15726803 0.35040504 0.08000984 -0.017006515 -0.3721941 -0.22702684 0.18631499 -0.03660321 -0.16475731 -0.064745404 -0.16467153 -0.001493118 -0.4095895 0.5248187 0.078158274 0.37538406 0.1783868 0.19739135 -0.20404874 -0.22467193 -0.04366927 -0.5294686 -0.007115695 -0.13949454 0.14516069 0.39518425 0.16661458 0.14974023 0.34461933 -0.29840603 0.17832078 -0.31498647 0.047135364 0.048945006 -0.13734639 -0.13795619 -0.40547737 -0.124970816 -0.22434653 0.17643213 0.38480988 -0.38165474 -0.053458046 -0.039639115 -0.14962782 -0.3542392 0.04137262 0.072658606 -0.10426349 0.25433037 0.012753587 -0.5332854 -0.3272314
2 0.0010792102 -0.1478018 0.34686273 -0.005688081 0.2480319 -0.21657379 0.25063646 0.5604801 -0.3111243 -0.54938155 -0.073230505 -0.12283615 -0.14306656 0.009252874 0.120115824 0.16476393 0.2476201 0.35550487 0.03131877 -0.8917005 0.10449069 -0.17239639 0.6961954 -0.18351008 0.2462188 0.3595607 -0.03913586 -0.029470928 0.064904384 0.09589539 0.002352186 -0.26199177 -0.044183016 0.05858664 -0.20169383 0.20493977 -0.19783859 0.28283164 0.47825956 0.102878526 0.14321215 0.1588435 -0.043771885 -0.12572584 0.301734 0.12457484 -0.38010585 -0.33587006 -0.058316257 0.35131586 -0.082222596 -0.321242 0.12858647 -0.13653977 -0.100973874 -0.10634533 -0.21410827 -0.47781733 -0.28588146 0.47964296 -0.14335819 -0.30083206 0.13161375 -0.033708747 0.06675575 0.21732259 -0.115211695 0.51026386 0.0993453 0.20107053 0.043132212 0.42208242 0.39082962 0.2162029 -0.06982362 -0.055114385 0.29801965 0.22250801 0.11254558 0.001355762 -0.0420868 -0.60179543 0.45678875 -0.21314876 0.29908463 -0.23813038 0.18288352 -0.41738904 -0.106477425 -0.34938657 0.23513901 0.31826892 0.09071407 0.033166643 0.23387843 0.1390849 0.1664731 -0.20233312 0.14744535 0.16139871
8 0.25562033 -0.2787495 0.42107704 -0.42512462 0.4517764 -0.4344495 -0.20581512 0.5907983 -0.35277817 0.057639066 0.30886805 -0.16339736 0.61466867 0.18032575 0.42389286 -0.03781895 0.3341117 0.43933523 -0.14826919 -0.6471537 0.29628187 -0.038426846 0.48443714 -0.083162166 0.04766523 0.5014919 -0.31898764 -0.37268674 0.16236435 -0.14191732 -0.11798518 -0.24793483 0.06236575 -0.05598409 0.12171909 0.2155974 0.107440986 0.119415976 0.343006 -0.42525956 -0.16176496 -0.2845059 -0.34700665 0.11280694 -0.013038463 0.06195891 -0.13693821 -0.07120232 0.047526494 -0.03885616 0.033845086 -0.5333323 0.034040865 -0.21523343 0.066475496 -0.04817997 0.00970271 -0.5334695 -0.33780792 -0.24065356 0.124579765 0.18890567 0.26301032 -0.26242834 -0.10870499 0.70022863 -0.29886776 0.10822659 -0.117203236 -0.12308098 0.04533928 -0.14879549 -0.26159865 0.28753707 0.112913445 -0.0755098 0.17517267 0.28537968 -0.31349725 0.033624843 0.07428508 -0.10904018 -0.029390626 0.100612156 -0.30012262 -0.2798782 0.13483886 -0.2894074 -0.3613007 -0.2425498 0.18244877 0.47301373 -0.0010474218 -0.105867 0.3778025 0.38106206 -0.1532793 -0.21984331 -0.5184615 -0.5738837
png_uint_32 0.42426398 -0.13231349 -0.41475487 -0.33076572 -0.020272525 -0.48343956 -0.11961091 0.47863558 0.4678943 -0.15972285 -0.15403216 0.14980017 0.0017621386 -0.099811316 0.037533283 0.31365654 -0.15946455 0.28256938 0.3414719 -0.6898778 0.070327416 -0.058164556 0.58137786 -0.08522877 0.10652272 0.92249995 -0.78010046 -0.11888494 0.022796525 0.3651562 -0.08676612 -0.2423473 0.25802407 -0.00051206676 -0.63245666 0.35135648 -0.2004328 0.14840157 0.10240924 -0.29946613 -0.054519884 -0.02371053 0.06260544 0.074304484 0.26660913 0.017837984 -0.27998963 -0.49691764 0.21011777 0.26831326 -0.058997553 -0.27589574 -0.18195346 -0.17250282 0.31837875 0.39541373 0.2184864 -0.23662665 -0.2460577 0.4177073 -0.31471032 -0.28439364 0.014788749 0.0063739405 0.25824836 0.1947092 -0.14301237 -0.18091471 -0.04415788 0.12071919 -0.5577898 0.06666122 0.11792075 0.019281907 0.12750791 -0.5841708 -0.22816652 0.30709237 -0.1433583 -0.25365958 0.09048547 0.22063124 0.01628625 0.47425017 0.2585458 0.36481652 -0.05260553 0.11331144 -0.1577304 -0.5157877 -0.12089055 -0.016738672 0.13530816 -0.17037815 -0.34739786 0.085709095 0.13145617 0.06933538 -0.4984121 -0.13642293
ps -0.147231 0.2981504 -0.00045630801 -0.22903644 0.096399724 0.04368582 -0.12659693 -0.45960924 0.35549548 -0.19656982 0.013844465 0.038187534 -0.2969625 -0.062612586 0.05022262 0.028873945 0.29044765 -0.24536134 -0.0029075565 -0.8789491 -0.25776154 0.14966935 -0.19890091 0.11158637 0.19437853 0.1149255 -0.32307303 -0.45316347 -0.15555151 -0.09485798 0.30365616 0.45186493 0.6249111 -1.1540985 -0.31466392 0.35004833 -0.13744682 -0.26244602 -0.837955 -0.42962644 -0.22232264 -0.74916065 -0.2945203 -0.063170485 0.07903524 -0.036109563 -0.23486301 -0.598776 0.030376786 0.5975403 -0.041585572 0.25954357 0.12415068 0.46781835 0.25397232 0.11081937 -0.10235984 -0.90239376 -0.86194146 1.130759 0.24899805 -0.09478666 -0.45830604 0.1777601 -0.012213405 -0.6586541 -0.34894153 -0.4576504 0.2825316 0.59891176 0.012448978 0.056043547 0.4737277 0.012399258 -0.04406008 -0.86750305 0.18882322 0.15528256 0.051009618 -0.34061894 0.40563738 0.62181664 -0.16873972 -0.44397068 -0.16732882 0.113624536 -0.17052275 0.6117626 -0.0747309 -0.40246692 0.96275437 -0.013095896 0.23381104 0.100977205 -0.5875474 0.09331851 0.36112082 -0.9184897 -1.0792078 0.14328928
in 0.47689688 -0.07696136 0.13254975 -0.5792905 0.41223913 -0.58946675 -0.0737026 0.3695848 -0.30543378 0.08926395 -0.32796636 0.25186867 -0.32828364 -0.30720022 -0.34619862 -0.036102086 -0.1071674 0.1627472 -0.1325502 -0.16522948 0.006621329 -0.38575265 0.5010906 -0.6546078 -0.82787013 0.1952875 0.43462947 -0.13663511 -0.3244687 0.10069706 0.528669 -0.18128918 0.3630297 -0.4770327 0.00030595524 0.6863688 -0.21136335 -0.23512493 -0.1463188 -1.2112314 0.34630382 -0.5254971 -0.49778825 0.29668796 1.2244853 0.47814724 -0.2715997 -0.5730578 -0.44762656 -0.31615964 -0.02253827 -0.044019166 0.106701896 -0.15345992 -0.07148183 0.42390415 -0.09176777 0.3048884 -0.23801555 -0.14700265 0.17070575 -0.5014799 0.08073172 0.02391412 0.36444503 0.5079119 0.041296463 0.20780799 -0.2140468 0.37026396 -0.48014215 0.5132723 0.5541481 0.10063617 0.35260913 -0.10313151 -0.048872422 -0.2980268 0.049478836 -0.24627148 0.12366521 -0.124060616 -0.41680655 0.16883074 0.04318389 -0.13831022 0.4407084 0.4346209 0.044001445 -0.6693086 0.18997014 -0.26482922 0.21130478 -0.03230538 -0.050766293 -0.056737714 0.32585004 -0.6759372 -0.38099527 -0.32498828
#endif 0.0935907 -0.8575141 0.221493 0.055854246 0.45112756 -0.35694098 -0.22699966 0.04012853 -0.11663359 -0.08436644 0.3544786 0.11848162 -0.14146876 0.4098794 -0.39758286 0.69279736 0.22943218 0.6797937 0.2746972 -0.5194216 -0.13608283 0.0037521198 0.34189436 -0.6265531 0.4556431 0.318533 0.018232558 0.18200827 -0.022927461 -0.02281567 -0.2524024 0.03371218 0.38973895 -0.19259262 0.05079954 0.07554914 -0.30047637 -0.52853197 0.0011227295 -0.41097593 -0.35712308 -0.10690781 -0.16312347 0.33792874 0.17943347 -0.07035192 -0.08075566 0.35303795 -0.016194064 0.19183381 -0.30204004 -0.14517106 -0.25734785 0.14303674 0.21394135 0.08987651 -0.20510945 -0.58756834 -0.17872854 0.06736435 -0.20634903 -0.109191746 0.0069789775 0.26226404 -0.21572407 0.0933976 -0.16488779 0.13367166 0.37971258 0.18239945 0.39471668 0.30939877 0.16213827 -0.15623873 -0.024004208 0.06819978 -0.066648096 -0.08968302 -0.06266903 0.33839378 0.112565815 -0.0151129775 0.28437525 0.17361814 0.34829006 0.10152908 -0.027428174 0.10379319 -0.30506033 0.30738223 -0.06746833 0.042983282 -0.20336372 -0.20710084 -0.012519049 0.11966951 -0.5830367 0.010962806 0.010242271 0.10429381
row 0.13089566 -0.23379584 0.24331796 0.33734283 0.48685163 0.13743623 0.12759995 0.009706587 0.064651966 -0.32774034 0.024271715 0.31115952 0.39095584 -0.014879021 0.050023112 0.24600817 0.2474604 0.32862842 0.1581924 -0.8400492 0.027984777 0.09528116 0.16024472 0.00840018 0.55671024 0.5230166 -0.4720826 0.116332516 -0.15049008 0.026409956 -0.36934158 0.30214489 0.018188214 -0.18190919 -0.35131067 0.07945144 -0.48582053 -0.123141274 0.58050346 -0.119696364 -0.3727003 -0.1875706 -0.5216914 -0.02263622 0.061592907 -0.06338534 0.32957488 -0.4996957 0.08765347 0.32934704 -0.06106277 -0.2859314 -0.3674004 -0.22745542 0.086255215 -0.13876766 -0.62915134 -0.5015162 -0.112344116 0.47138783 0.23391612 -0.08925025 0.049758498 0.12327155 -0.34707358 0.156689 -0.35721263 0.36175394 0.4585411 0.5575903 0.5026906 0.5761101 0.19787893 0.24342531 0.5305829 -0.1927548 0.14637007 0.05000206 0.18870117 -0.0987713 0.12160039 -0.41619214 0.16873343 0.43304992 0.003718109 -0.65956795 0.048826177 -0.475848 -0.17653698 -0.27354702 0.2892715 0.31916165 0.47664714 0.18018498 -0.00826798 -0.15832621 -0.25662124 0.4212832 -0.5503441 -0.25862318
bit_depth 0.34633762 0.032734547 0.03346091 -0.2292583 0.1387032 -0.26887393 -0.14267199 0.42951122 -0.18835698 -0.22580202 0.06840307 0.07507101 0.34692863 0.3665256 -0.02114228 -0.065356426 0.7010819 0.4504405 -0.1677211 -1.1379503 0.42517558 -0.013169864 0.39248195 0.10962887 0.43308008 0.15803467 -0.3335214 -0.28783032 0.2768628 0.22378793 -0.13155466 0.03727305 0.22487932 -0.27326253 -0.5270956 0.5046924 0.060143482 -0.23507208 0.08562596 -0.70179963 -0.48992383 0.41639182 0.46987748 0.14299588 0.0035871335 -0.004157449 -0.28476557 -0.29040962 -0.099579975 0.230189 -0.15426415 -0.5021366 -0.28754085 -0.42624727 0.42043906 -0.08742057 -0.18734358 -1.0048378 -0.46740657 0.027543 -0.17935817 -0.14428054 -0.17575221 -0.23154332 -0.47382197 0.1674475 -0.2259116 -0.017655142 0.35888168 0.056936964 -0.02258274 -0.06683966 -0.13338104 0.22082078 0.12178655 -0.31959984 0.34682256 0.20566337 -0.45681036 0.39136985 0.103224 -0.25779912 0.0048051025 -0.053901453 -0.13085586 -0.040244687 0.29075006 -0.53827626 -0.62270796 -0.20539983 0.37110457 0.50095534 -0.33543658 -0.11069164 0.13291566 0.16411066 0.13605975 -0.17645483 -0.757147 0.04315097
buffer -0.44763857 -0.035037495 -0.03202778 0.020128323 0.50118035 0.008010401 -0.14750756 0.36153072 -0.19700679 0.20151132 -0.09400906 -0.17843851 -0.00883375 0.25357822 0.34193313 0.16499707 0.22865064 -0.13974541 0.0015917823 -1.0427312 0.119503655 -0.22998972 0.5588505 -0.29411238 0.121485956 0.110999174 -0.84148735 -0.21433596 -0.46565494 -0.0058360333 -0.098505616 -0.057968166 -0.07647125 -0.40736452 0.18278013 -0.10350145 -0.08499637 -0.2828434 0.40494534 -0.103650324 -0.15233207 -0.22663139 -0.29821962 0.31026056 0.14668927 0.283186 -0.20385887 -0.06872792 0.1135238 0.98639464 -0.15800668 -0.5642167 0.3150959 0.38660666 0.14655614 0.077067666 -0.04516531 -0.74777883 -0.72076344 0.38960734 -0.282871 0.1138773 0.057657573 -0.056636415 0.023032622 0.13924213 0.3055793 0.049959168 -0.0943671 -0.17384349 0.3487372 -0.006036959 -0.2682672 -0.18158118 -0.16521029 -0.3522618 0.43588066 -0.026264887 0.201765 -0.457612 -0.07849904 0.1836527 -0.46542335 -0.28266373 -0.637687 -0.2729094 0.10788274 0.26362944 -0.11866494 -0.09351086 0.5407869 0.36401403 -0.267904 0.16001941 0.06059416 0.27816743 0.03537433 -0.2814517 -0.5220607 -0.31078795
char 0.081926964 -0.25163537 0.4072896 0.011699677 0.69175303 -0.079046674 -0.19926132 0.3595741 -0.23863468 0.3143862 -0.41705355 -0.08687328 -0.13483918 -0.31214845 0.29919857 0.31562322 -0.20909691 -0.30779192 0.17821574 -0.942356 0.006132056 0.092469685 0.8004413 -0.94426805 -0.017074047 0.25948864 -0.62174493 -0.23928708 -0.1546621 0.059354037 0.08112423 0.093200184 0.5500554 0.11027257 -0.23587511 0.4570412 -0.10077061 -0.11339328 -0.04167676 -0.15010077 -0.07847572 -0.32948825 -0.30045423 0.68418527 -0.34788722 -0.060770243 0.14390936 -0.32095692 0.09873766 0.84027904 -0.1151914 -0.5422852 -0.024794783 0.094534345 0.26389235 0.001675025 0.15136628 -0.11366151 -0.14228591 -0.15704712 0.13904943 -0.13008127 0.09184156 -0.0937249 -0.23701984 0.37321997 0.20401774 -0.13039549 -0.36606795 -0.12271075 -0.61375433 0.12222449 0.19953716 -0.04081665 0.23891658 -0.2808569 -0.19724514 -0.17169811 0.0132424915 -0.5458175 -0.40657583 0.30694887 -0.42542785 0.34880173 -0.1484868 0.17570418 0.480963 0.10076698 0.012546518 -0.23790042 -0.10892811 0.21258895 -0.46553475 0.20151676 0.17457718 0.29363677 -0.3250432 0.46307784 -0.4052667 -0.18132225
out 0.11921414 -0.23856878 -0.08066239 -0.23365167 0.02502089 -0.14513704 -0.017848114 0.061659962 -0.1218147 0.280064 -0.27278188 0.019359563 -0.052073196 -0.007546209 -0.091014646 0.21178687 0.04077059 0.27257136 -0.17583208 -0.80931485 -0.05293657 -0.48932573 0.62230825 -0.69768035 -0.6920926 0.2634344 0.24969657 0.04347626 -0.5864056 0.32249403 0.3013475 -0.0813863 0.43331304 -0.73119515 0.24094296 0.61031485 -0.42622852 -0.38746038 -0.069497064 -1.2398677 0.3990572 -0.61246586 -0.6189825 0.30499274 1.2938998 0.38561583 -0.29129326 -0.51992553 -0.12205468 -0.27660334 -0.09210283 -0.38649788 0.005932943 0.08918844 0.20384538 0.37952837 -0.26686692 0.24467638 -0.5486996 -0.27527043 0.12246434 -0.2981801 0.47204888 0.107100174 0.0086921975 0.44421846 0.3035392 0.14043805 -0.7220783 0.4430904 -0.3526782 0.43271592 0.5709689 0.14195643 0.48962244 0.2990896 0.06689328 -0.5914369 0.080342375 -0.17051822 0.1885876 -0.22477219 -0.7658491 0.14349778 -0.17390834 -0.3731039 0.67378867 0.7103045 0.09545211 -0.47595483 0.15424208 -0.08212201 0.2669925 0.14000328 -0.04234423 0.18436861 0.017150108 -0.964044 -0.7306439 -0.37430793
|| -0.2711532 -0.2520198 0.9339485 -0.28576988 0.19385563 -0.52743006 -0.13881947 0.72675097 0.23225577 -0.4022383 0.24785723 -0.22442384 -0.18356796 -0.16109495 0.26566312 0.581124 0.37346658 0.53017575 -0.33228573 -0.7297666 -0.32173926 0.13744666 0.1643478 0.5442829 -0.08787337 0.15202862 -0.17079458 -0.31812084 0.1477403 -0.23094389 -0.11772981 0.29032806 -0.50789195 0.002900555 0.03554489 0.0019972366 0.042170685 0.0037140632 -0.328868 0.33804253 -0.07752947 -0.03161205 0.18603657 -0.055326648 -0.092697024 -0.51462626 0.023264075 -0.055054538 0.2770145 0.115057856 0.28368637 -0.25222546 -0.35221642 0.18181516 -0.06694315 -0.08384204 -0.080020644 -0.42090178 0.117964074 -0.25651264 0.23996669 0.0567835 0.3044613 0.08952266 0.2782658 -0.046614252 -0.47872213 -0.163326 -0.553338 0.13873596 0.15979251 0.2540624 0.28752312 0.36064622 0.401442 0.06915315 0.08364184 0.40301272 -0.2550077 0.30250382 -0.10807225 -0.22630955 0.007527809 -0.44997162 -0.23375024 -0.17231126 0.33860883 0.40370348 -0.3609028 -0.081095286 0.119682245 0.06645213 -0.4448141 0.047332063 0.18507828 0.0040315795 0.2629223 0.020392196 -0.8979843 -0.2854115
that 0.4687661 0.13981749 0.14831431 -0.8755964 0.24049798 -0.31488332 -0.097446874 0.19436419 -0.2483518 0.19909063 0.41821665 0.36134785 0.05833904 0.019838942 -0.22702295 -0.24182312 0.38518426 -0.29330233 -0.203745 -0.081049964 0.07120354 -0.46514356 0.0470225 0.4049351 0.3332437 -0.23726042 0.10425831 -0.8312028 0.5081383 -0.024350572 0.23642996 0.20991065 0.48282012 -0.43600684 -0.17767987 0.78903645 -0.24034585 -0.124266356 -0.24090803 -2.0049202 -0.56057316 -0.5866328 0.22359124 0.6195298 0.7525022 0.1225195 -0.46558496 -0.3035282 -0.5532119 -0.13399674 -0.40415788 -0.4800321 0.030537944 0.2204995 0.28526115 0.29051137 -0.1586612 -0.40170187 -0.84343404 0.0665031 -0.076059915 0.26576105 -0.3361676 -0.51872075 -0.5787637 0.24548241 -0.16631941 0.10250643 0.5411515 -0.015649825 -0.08059176 0.55168605 0.16053885 0.3762429 0.36054775 -0.41560188 -0.07507648 0.50877905 -0.32833067 0.76334715 1.002165 -0.029929433 -0.37811744 -0.26010135 -0.054893125 0.16000669 -0.13731743 -0.11835551 -0.43927974 -0.36073613 0.75400835 0.65842944 -0.33688733 -0.00759095 0.17854248 0.52299005 0.31523722 -0.911408 -0.509268 -0.41490704
png_byte 0.02124215 0.30408272 0.01642011 -0.60156536 0.40615872 -0.1160861 -0.07156246 0.6858407 0.15144858 -0.065273255 0.11219043 0.04918721 0.24109998 -0.012650191 0.2204972 0.19521344 0.26089302 -0.15640143 -0.071769506 -0.8658454 0.26236057 -0.18983515 0.49846166 0.048726674 0.09331197 0.393295 -0.6952652 -0.34445816 0.3771728 0.16208024 -0.1827554 -0.008591954 0.22686094 0.080595456 -0.40044206 0.6835546 -0.019295745 0.16987617 0.3234313 -0.08238283 -0.057528794 -0.17779075 0.072362974 0.22409561 -0.04958894 -0.21704839 -0.22546883 -0.2522096 0.08983774 0.7563139 0.0018046668 -0.92362005 -0.0670948 0.23480034 -0.12967812 0.296216 0.12596448 -0.34628654 -0.42809555 0.39012307 0.23342168 0.009397118 0.30091926 0.07069589 -0.18530992 0.12415425 0.00052777963 0.018703615 0.011148493 -0.023057034 -0.21127291 0.1587464 0.0098826 0.29563823 0.15637401 -0.48650077 -0.17324808 0.38318667 0.029248932 -0.28150183 0.034693137 0.26758367 -0.11382035 0.24804196 -0.19111918 0.12832631 0.14758836 -0.2898771 -0.23180842 -0.30356178 0.416118 0.43672094 -0.12784548 -0.29065844 0.1584059 0.18990615 -0.03358917 -0.15963517 -0.38665256 -0.24703386
case 0.34606358 -0.23123445 -0.1488322 -0.43473598 -0.4423442 -0.13686305 0.12991512 0.44318676 -0.46524754 -0.35211182 -0.33540282 -0.430676 0.10241328 -0.5592745 -0.5546426 -0.18240276 0.19881058 -0.087345175 0.13957946 -0.95015985 0.50350684 0.4722125 0.13230498 0.052420758 0.007307591 0.6019959 -0.19391207 -0.114736035 0.6670092 0.043680225 -0.14642558 -0.0321529 0.4624817 -0.21548903 -0.7340105 -0.13674657 0.46953484 -0.20964192 -0.1552293 -0.26356015 0.030460898 -0.21298486 0.05315919 0.75123453 0.021203019 0.12597735 -0.24591158 -0.27655783 -0.4475028 0.27518174 0.106015794 0.019040765 0.0073602824 -0.3014455 0.039527953 -0.45013222 0.23007782 -0.86036676 -0.38342655 0.32469785 0.03128446 0.012501432 -0.17975052 0.36764613 0.116895586 0.37957957 -0.27493992 0.4510038 0.08962336 -0.051059473 -0.08436273 0.35093465 0.79040235 -0.18529388 0.12151823 -0.69905156 1.0571619 0.2937114 -0.44819832 0.08175254 0.029910188 0.03974238 0.27202898 -0.44144934 -0.31149557 -0.11697468 -0.047144536 -0.3972437 -0.81528986 -0.20780009 0.15795353 0.36100057 -0.039032724 0.2970168 0.7451124 -0.24944103 0.72535515 0.37651548 0.10822087 0.39285558
sizeof -0.43309078 0.3706707 0.08791903 0.11663343 0.4004692 0.02763063 0.012033228 0.27292645 0.058247905 0.28800058 -0.42301306 0.084903575 -0.048466776 -0.55178696 0.33055225 0.1706099 0.03284443 -0.47944874 0.07072465 -0.5530777 -0.008588711 0.32780164 0.21759044 -0.28668088 0.08355164 0.28723645 -0.48238397 -0.18993363 -0.35799298 -0.22387113 0.27679014 0.30336925 -0.039471097 -0.2385823 0.07034161 -0.046316512 0.15020922 -0.12470732 -0.15786862 -0.15697089 -0.10701324 -0.5815144 -0.5102747 0.23339568 0.079324715 -0.29753092 -0.101889856 -0.11761177 -0.006712879 0.91709447 0.00729469 -0.44766015 -0.008066694 -0.0033105346 0.01522818 0.06082241 -0.15932524 -1.1021887 -0.45812863 0.24943426 0.08224752 -0.027698597 0.018526616 0.53225493 0.14699306 0.1526573 -0.03876829 -0.114442505 0.036253013 0.00710128 -0.21346408 -0.19108418 0.37485012 0.06871869 0.0070911595 -0.09729358 0.19265644 -0.25301793 0.4900836 -0.2612596 0.16955552 0.03418885 0.036634453 -0.6772042 -0.7315274 -0.32210872 0.359286 0.26289606 -0.1706023 -0.30963752 0.35430837 0.2026592 -0.101351224 0.26180944 0.37025288 0.01593996 0.0010978455 -0.199715 -0.74444866 -0.050304938
a 0.1525873 -0.2596926 0.30989707 -0.012924851 0.15687081 -0.21496803 0.18226479 0.05513087 -0.3528573 0.089946516 -0.12163284 -0.070264705 0.002187332 0.06464975 0.008900442 -0.2748548 -0.23776138 0.35792634 -0.15576912 -0.211343 0.0067339237 -0.23260972 0.30841044 -0.41320786 -0.40023133 -0.19622631 0.5375452 -0.101361565 -0.43521523 -0.06281434 0.28745964 -0.3131926 0.38036272 -0.40971527 -0.059612475 0.24810551 -0.28309426 -0.2638022 -0.11403354 -1.0345957 0.28623572 -0.2663835 -0.6825863 0.11264244 0.8541265 0.66447496 0.075108 -0.44482213 0.06346376 -0.062370814 -0.10370768 -0.52412194 -0.0033631872 -0.19769663 0.079349756 0.10735581 -0.378333 -0.1144869 -0.2558959 -0.092040636 -0.0044096913 -0.11000004 -0.04579785 -0.37845337 -0.026981084 0.51521313 -0.17488523 0.44985422 -0.23678304 -0.015371706 0.060290832 0.542284 0.3410552 0.016010916 0.3896798 -0.0090974625 0.17669892 -0.33387464 -0.10255487 0.035142668 0.0002637464 -0.49689797 -0.38858756 0.41325822 -0.03537573 -0.2844634 0.38117585 0.20235707 0.09093992 -0.4577687 0.15525268 -0.016219301 0.60299945 0.15650481 0.44245192 0.22314645 0.0723574 -0.46198657 -0.22335334 -0.4267611
b 0.12752494 0.1812061 0.25408766 -0.047727536 0.27771845 -0.28683305 0.26509878 0.33812118 -0.21098687 0.02031004 -0.22765423 -0.3444597 0.3833234 -0.16491999 0.27272725 -0.24644844 -0.109726846 0.11408073 -0.10699945 -0.98839086 0.28637272 -0.13411084 0.4505147 -0.10424429 -0.51979965 -0.1638288 0.21376033 -0.2134835 -0.14475313 0.17769541 0.5203218 -0.07118548 0.17598152 -0.018908096 -0.31159368 0.5103075 -0.043233424 -0.18063036 -0.081616886 -0.89269346 0.2277041 -0.20872681 -0.40932226 -0.060735483 0.6433494 0.60384935 0.001245935 -0.7815566 0.022115655 -0.2324697 0.16533636 -0.64050883 0.030514397 -0.23543538 -0.10062313 0.11032931 -0.47732 -0.3198087 -0.52056354 0.12682618 0.27755785 0.11813815 0.35972887 -0.1356123 0.20580496 0.41925222 -0.31663617 0.40481743 -0.34313393 -0.042556982 -0.19167712 0.41578615 0.31284645 0.3332502 0.33922732 -0.054202627 0.06076326 -0.14007603 -0.035306755 -0.07547358 0.2631191 -0.4772598 -0.49050778 0.066800036 -0.5360079 -0.26938015 0.54007775 -0.11184568 0.028915104 -0.70017326 0.3183859 0.43781695 0.39745224 0.050236326 0.5169332 0.07480205 -0.0024613198 -0.7078096 -0.35628352 -0.45562002
x 0.4033541 0.2686615 -0.17130148 0.0081364205 0.09060866 -0.35614714 0.31128123 0.56075996 -0.097411014 -0.5260132 0.04432538 -0.2883849 0.11382551 0.014542446 0.3257116 0.045621388 0.22669564 0.56874806 0.23099296 -0.8247058 0.29153344 -0.4427091 -0.010622104 0.033459857 -0.25836888 0.6086539 -0.4076784 -0.28526276 -0.28429535 -0.040969245 0.262153 -0.22515087 0.34637132 -0.5216136 -0.7267424 0.3583134 -0.028677134 0.30048424 -0.242581 -0.64351994 -0.49511954 -0.079179496 -0.12312549 0.1298912 -0.084197976 -0.2419322 -0.31606185 -0.69120854 0.4493854 0.22525162 0.07844865 -0.2209112 -0.24470618 -0.67463803 0.3546911 0.08702426 -0.20755109 -0.94783306 -0.279407 0.463675 -0.3525909 -0.18647389 -0.10793309 -0.04226132 -0.35079867 0.16162142 -0.032400485 0.3905775 0.31179637 -0.21187311 0.13693088 0.026611554 -0.025411647 0.4155086 0.44089812 -0.33687305 0.06337339 0.16524015 -0.1929702 -0.29609713 -0.13221999 -0.33718333 0.2266456 0.3820923 0.20833625 -0.099645875 0.26975402 -0.70619464 -0.060297523 -0.74113315 0.20531532 0.33028984 0.53019387 0.2997861 0.31046504 0.35740307 0.0735428 -0.08237573 -0.5184729 0.08678428
this -0.08905568 -0.0006085418 0.12300227 -0.6112034 0.23429503 -0.15333745 -0.094482936 -0.14924632 -0.022726066 -0.018933263 0.3627563 0.1284762 0.008453136 0.17225567 -0.23403484 -0.12585947 0.36673746 -0.36247423 -0.2760761 -0.45562536 -0.025355162 -0.3180806 -0.007699594 0.32751304 0.34020886 -0.4109422 0.08897538 -0.6354853 0.39296222 0.10634908 0.09798669 0.18759932 0.5433224 -0.46650574 0.0079528615 0.6677036 -0.14535105 -0.20113474 -0.23410681 -1.2678754 -0.44818544 -0.65872246 0.38054466 0.43005863 0.6540767 -0.0038993408 -0.45134413 -0.31014246 -0.10779672 0.519181 -0.4099592 -0.61103135 0.023792725 0.26100528 0.38343194 0.20788953 -0.05789325 -0.39734343 -0.7133213 0.035351172 -0.12628412 0.19076861 -0.31163862 -0.47860682 -0.78905636 -0.08916077 0.00036570767 -0.0717305 0.4578021 0.06212844 0.03487728 0.44043866 0.14513652 0.15047842 0.2700105 -0.23652309 0.25694928 0.079333566 -0.20610207 0.4294235 0.72301537 0.2357486 -0.40039125 -0.25446826 0.11568878 0.08499917 -0.29298025 0.053794745 -0.46222395 -0.13295606 0.6544414 0.5502769 -0.33492124 0.079321474 0.20895225 0.33347246 0.2609217 -0.84049845 -0.68500453 -0.16480252
3 0.027615497 0.021034094 0.25601533 -0.046425 0.28617123 -0.19292681 0.13630767 0.51734775 -0.17595159 -0.50567406 -0.11122726 -0.2528499 -0.08744711 0.16759853 0.0006914118 0.06046291 0.20151365 0.2042034 0.07534362 -0.84812284 0.19584468 -0.17389768 0.4551509 -0.15607022 -0.058036312 0.18908913 -0.19442417 -0.13670233 0.011641738 0.19697888 -0.31705165 -0.19036241 0.05058635 -0.16900477 -0.32995433 0.28167814 0.093940236 -0.10632443 0.20481516 0.2830502 0.09548142 0.17829958 0.11577857 -0.011959984 0.28095183 0.013887338 -0.36926758 -0.43174243 0.26139647 0.3344426 0.043073356 -0.34058255 -0.021178106 -0.031769708 -0.018375793 -0.060483247 -0.05401369 -0.7206109 -0.26410985 0.23786819 -0.06343473 -0.26439622 0.0709688 -0.018602405 0.1400949 0.004902241 -0.30575275 0.17539644 0.006792283 0.0152699035 0.110304885 0.10007384 0.20916286 0.05961624 0.04879842 -0.15806696 0.2506922 0.24046229 -0.056125544 -0.09403259 -0.055075206 -0.5327699 -0.023754226 0.021077108 -0.0345583 0.11235957 0.258086 -0.19061536 -0.112036966 -0.28878343 0.20516826 0.40004152 -0.10543188 0.008630367 0.2759277 -0.03544462 0.04453435 -0.15518233 -0.33414683 0.10162627
image -0.020582924 -0.80463254 0.71593654 0.29057693 0.470515 -0.25966507 -0.14811449 -0.22616568 -0.36671364 -0.37967098 -0.18394305 -0.10259001 -0.46549073 0.19175655 0.45509353 -0.023549568 -0.2025655 -0.3177946 0.065629706 -0.9144636 -0.017102266 0.14355157 -0.005691288 0.13607925 0.0066217645 -0.18945658 -0.43814883 -0.17555612 -0.6830942 -0.27542347 -0.020526942 0.34797275 0.32086298 -0.73528576 -0.21861932 -0.14647846 -0.56810725 -0.5136919 -0.46152878 -0.22390117 0.011092513 -0.26039043 -0.2463834 0.115095414 0.15862383 0.7680963 0.030862642 -0.64773965 -0.19184598 0.549518 -0.157423 0.2794967 0.1710469 0.051748917 0.52815413 -0.10024262 -0.6820532 -0.36805308 -0.7775329 0.7505682 -0.20577286 0.22944556 -0.7634552 -0.12680364 -0.009858098 -0.16145161 -0.30858243 0.17022659 0.02893538 0.2047804 0.3221137 0.31905767 0.026429228 -0.6204226 0.31227812 -0.9785611 0.21590753 -0.0052865176 0.16001804 -0.59308386 0.3410562 0.34560454 -0.6463893 0.20087472 -0.52315086 0.27040517 0.0002762264 0.45703998 0.32283396 -0.62593585 0.16901156 -0.51353407 0.3566823 0.38617086 -0.11001147 0.1499034 0.106067866 -0.6055607 -0.5035455 -0.36966968
unsigned 0.04142092 0.06659884 0.037093688 0.06494529 0.004422639 -0.0075619402 0.07596654 0.21397519 0.031235214 -0.20100826 0.04071672 -0.043278597 0.063665114 0.41264138 0.24006732 0.0074479915 0.03665023 0.06837893 0.009450007 -0.70242155 0.4099033 -0.022654677 0.28215182 0.36279872 -0.53350675 0.21464875 -0.23543324 -0.04907944 -0.09819258 0.46551153 -0.27379555 -0.1500995 0.12683435 -0.20740739 -0.24294055 0.7668841 0.02817302 0.18946414 -0.15510283 -0.31505072 -0.012471995 -0.26339918 0.18040533 0.27525052 0.0790136 0.08826431 -0.28580981 -0.4134133 0.4008225 0.38045257 -0.11099014 -0.47832522 -0.5722107 -0.5409811 0.44864345 0.028617745 -0.05364591 -0.3973953 -0.04751307 -0.10208278 -0.14407739 -0.31419054 0.24414821 -0.03178109 -0.28550148 0.28972986 0.023240851 0.19094485 -0.13962908 0.19453664 -0.3058923 0.094083324 0.028926073 0.1692811 0.5318681 0.3734904 -0.20722894 0.27897882 -0.18340778 -0.24637802 -0.16718517 -0.038906883 -0.2842835 0.6307654 0.20298672 0.20517153 0.4885058 0.34840497 -0.12495482 -0.58701915 0.26261356 0.07990986 -0.18284667 -0.09458402 -0.35863438 0.015451757 -0.11199452 0.18670021 -0.6749267 0.11852867
msg 0.028176263 0.084277056 0.19767231 0.091493905 0.061894536 -0.09461858 -0.0607456 0.15885468 -0.21521606 0.49455595 -0.40970048 0.0010601933 -0.31460688 -0.3538695 -0.3667501 0.1778218 0.19314708 0.1807864 0.1866524 -0.8159957 0.010606008 0.0479535 0.24191819 -0.5800138 -0.0621094 0.5067318 -0.42621914 -0.08824423 -0.56086165 0.080016285 0.45083803 0.29277843 0.23414075 -0.48607546 0.27196407 -0.24517325 0.095598556 -0.39103082 -0.27656683 -0.50031865 -0.20871487 -0.4381662 -0.83856314 0.4664819 0.07429145 0.06107561 -0.09172743 0.09108622 0.13982481 0.6011127 -0.28591692 -0.18137145 0.26940608 0.15094201 0.09296994 0.13064124 -0.33123517 -1.0778345 -0.5749322 0.62564176 0.17973486 -0.15556417 0.10655205 0.5600378 0.20987481 0.25965697 0.4045208 0.27822518 0.2282352 -0.08209159 -0.31764695 0.044898037 0.33214688 -0.12096902 -0.24190633 0.043948516 0.24444252 -0.20869607 0.28057653 -0.41088286 -0.1100753 0.03274445 0.08951074 -0.28367525 -0.5775527 -0.4109433 0.5741855 0.21694306 -0.2104663 -0.09092391 0.47828487 0.12247761 0.04238897 -0.012962524 0.10735144 0.10849747 -0.07569272 -0.11113951 -0.37452337 0.16339983
break -0.039235804 -0.14952756 0.21736977 -0.25921723 -0.19528028 -0.17596494 0.049654797 0.48388982 -0.33072713 -0.11784386 -0.25613603 -0.2932611 0.13781993 -0.23063606 -0.210273 -0.01493274 0.17458741 -0.049639765 -0.12669945 -0.83005047 0.22559191 0.4196804 0.25105652 -0.21899065 -0.18381149 0.47702327 -0.048342578 -0.13814963 0.26464647 -0.010796869 -0.10842349 -0.048373327 0.12883908 -0.33171272 -0.29122958 -0.066808276 0.3677748 -0.40448904 -0.08446951 -0.055280488 0.24461171 -0.068302356 -0.12287156 0.5044475 0.16096282 0.041977514 -0.20939532 -0.041026562 -0.41264176 0.087266825 0.043770116 0.042451568 0.1674495 -0.052873626 -0.15175274 -0.39847717 -0.013077844 -0.6346547 -0.44935742 0.028960206 0.07689168 -0.013019937 0.13332544 0.2558539 0.23807986 0.47899386 -0.40413994 0.3962391 -0.45772535 0.011506402 -0.10047269 0.42047036 0.5292732 -0.22879112 0.03420209 -0.28682142 0.6041749 0.11808066 -0.34114242 0.107241035 -0.061158072 -0.06212612 0.09924417 -0.30345288 -0.34873614 -0.283229 0.360244 -0.021721661 -0.67993456 -0.13210736 0.06711168 0.27409694 -0.19244179 -0.05267784 0.4763444 0.02211249 0.27800632 0.0632423 0.15044783 0.14581783
# 0.1771369 -0.03696894 0.4696733 -0.45380184 0.080551125 -0.3540884 -0.40809208 -0.11779626 -0.024542524 -0.12230579 0.3618842 -0.6981484 -0.1881316 -0.095799126 -0.3375895 0.047578882 0.43671602 0.13548389 0.33033514 -0.46354526 -0.6176482 -0.1607758 0.19897445 -0.36468145 -0.2523206 0.49542537 0.20462379 -0.4696068 0.12568013 -0.11539951 0.77365875 -0.1396267 0.81841755 -0.5819701 -0.45243657 0.026720246 0.40076923 -0.21654817 -0.5060243 -1.0235308 -0.11730417 -0.06582697 -0.14130387 -0.022302765 0.29489946 0.14979042 -0.36215967 -0.15268444 0.0086437715 0.11241051 -0.34736893 -0.10603323 0.014260332 0.51507676 -0.2306164 -0.23335637 -0.23220421 -1.3511428 -0.4602482 0.3934358 0.085028216 0.24610102 0.036591426 -0.0009313414 -0.06758455 -0.016336063 -0.009507423 -0.2249048 -0.21438749 -0.1852438 -0.0916326 0.19390021 -0.2685683 0.11613623 -0.09982472 -0.47899 -0.32414436 0.26737848 -0.3626244 0.3890257 0.325715 -0.026146423 0.055458587 0.017575568 0.0378978 -0.017067736 -0.5564642 0.18236487 0.43352112 0.10558046 -0.21937175 -0.1215374 -0.165694 -0.16383432 -0.2422769 0.19795412 -0.30565134 -0.12927082 -0.11607816 0.37165222
y 0.17094728 0.0060627563 -0.19731587 0.09019503 0.20002732 -0.40397194 0.25615725 0.14593825 0.1207079 -0.38256633 0.24006332 -0.24661268 0.069482096 0.03567957 0.40535292 0.08118423 0.22724977 0.655491 0.16081567 -0.535631 -0.0023352823 -0.28135866 0.07646041 0.15015735 -0.059700713 0.7902729 -0.7186154 -0.25492328 -0.5047861 -0.06274358 0.23768845 -0.07244762 0.24550764 -0.65720165 -0.63210696 0.3775488 -0.4447961 -0.0020117343 -0.09363862 -0.6840986 -0.40826017 -0.25615224 -0.45738286 -0.105559886 0.023648072 0.11666758 -0.107981004 -0.59753484 0.36728704 0.16941124 0.056856886 -0.23067266 0.012548817 -0.54725194 0.21408501 0.22506891 -0.30407104 -0.7659503 -0.43586612 1.001082 -0.14625 -0.36220574 -0.06057143 -0.1767529 -0.13316287 0.018606847 -0.23280449 0.3018224 0.21856096 0.056254074 -0.09877555 0.019208383 0.06542775 0.43137577 0.2772757 -0.41718724 -0.1905147 0.14110602 -0.107675225 -0.4886826 -0.117671534 0.05805247 0.23642914 0.39016926 0.20445254 -0.14589839 0.37111855 -0.30162197 0.008741159 -0.7992033 0.3949687 -0.055813894 0.6577403 0.19825195 -0.0037854905 0.39471725 0.06020445 -0.1708833 -0.37270597 -0.24513361
double 0.054785185 0.5182581 -0.041528877 -0.19701962 -0.07026905 -0.4040341 0.13047786 0.40991902 0.07516615 -0.21865559 0.12785041 -0.40932393 0.022710921 -0.09874954 0.0873463 0.18999325 0.09877434 -0.18984093 0.11906328 -0.41103852 -0.22297484 -0.35023245 0.3964085 0.27283576 -0.5004176 0.2415152 0.05358754 -0.29831484 -0.28856486 0.03834692 0.54295844 -0.08026427 0.33835655 -0.25676647 -0.46443877 0.70550597 0.07942266 0.13945414 -0.5988731 -1.1482574 -0.3179728 0.004556106 0.17691346 0.109221354 0.4664126 -0.3954463 -0.30505618 -0.51286376 0.34230924 0.2231406 -0.055617947 -0.42743638 -0.53466946 -0.22821145 -0.16953905 0.00033669552 0.12531224 -0.49311396 -0.107974984 -0.37498134 -0.1453561 0.059227496 0.31565082 0.26652876 -0.18480435 0.10371086 0.25119668 -0.010293315 -0.41339308 -0.2758736 -0.2889617 0.17605416 0.051056903 0.21450642 0.07479993 0.33558905 -0.3799162 -0.115197085 -0.13909161 0.019982824 0.12741733 -0.4076378 0.1149564 -0.17532337 0.5080703 0.20875455 -0.12837483 0.1827748 0.27750537 -0.2329316 -0.20063598 0.28269407 0.1829374 0.21431428 0.45778543 0.4867759 -0.0053270496 -0.08214852 -0.0758573 0.1139043
p -0.2637755 0.12521574 0.35736427 -0.29012886 0.0706915 -0.25955936 0.2339239 0.72543055 -0.5001079 -0.29452738 0.55277395 -0.12090708 0.22010419 0.02725611 -0.07159661 -0.116247214 0.49083534 0.47905117 0.008004956 -1.4234463 -0.18767187 0.0627794 0.5004915 -0.4798055 -0.30957618 -0.38376287 -0.04162664 0.27755448 0.028729513 0.29762718 -0.19198835 -0.23805049 0.19407617 -0.21892391 -0.111384615 0.8493574 -0.5638549 -0.53233415 -0.3353227 -0.19231136 0.33116388 0.010412028 -0.6378333 -0.35174832 1.072248 0.5371634 -0.17846146 -0.4916344 -0.075345434 -0.296351 -0.13960096 -0.26546445 -0.10041142 0.40041107 0.36926213 0.05141002 -0.43009573 0.3545478 -0.4907701 0.79034656 0.12600873 -0.34335902 0.3794354 -0.06813213 -0.2888413 -0.31845647 0.21016107 0.22061823 -0.1204602 0.507978 -0.45569238 0.80270934 1.0563816 -0.38326034 -0.36876255 0.24307579 0.26956204 -0.063813336 0.18514672 -0.060188532 -0.03452744 -0.1841343 -0.24561933 0.5045676 0.04024075 0.03927435 0.7943421 0.5648176 -0.20087752 -0.0644693 0.13932642 0.08862 0.5473936 -0.06099816 0.15905254 -0.21769658 0.2396895 -0.426226 -0.082319364 -0.046655
text 0.37386337 -0.5653249 0.39395216 -0.36740175 0.12516175 -0.21198322 -0.2586039 0.29747957 -0.1833001 0.211595 -0.09679597 0.18775344 -0.39510947 -0.25368765 -0.40144613 0.9526822 -0.35762653 0.6378029 0.36252666 -0.199562 0.013303296 0.39868605 -0.019359512 -0.47197136 -0.2043255 0.6728737 0.06629277 -0.29872262 -0.119724944 -0.022881495 0.20362541 0.0437755 0.10672129 -0.33264348 0.45418552 0.2257627 0.19038305 -0.30878899 -0.18274629 -0.30817184 0.09268648 -0.96616197 -0.65834224 0.60995704 0.3813093 0.20713502 -0.43533328 0.31653434 0.30139703 -0.114214696 0.12698407 -0.19617595 0.28607392 0.11046052 -0.17289585 0.7379605 -0.03779398 -0.35301325 0.032574575 0.3374026 0.051614694 -0.005801181 0.18747988 0.6035573 0.5266092 0.47279721 -0.12813897 -0.09945365 0.2798934 0.40518987 -0.15620515 0.11611163 0.22313298 0.030445658 0.54191244 -0.3143888 0.24745533 0.21501586 0.42562214 0.10768396 -0.19078724 -0.2242025 0.22818509 -0.29688454 -0.60114247 -0.006008863 0.4792901 0.28801006 -0.20583996 -0.106316224 0.32328594 0.3056562 -0.20452154 0.052462332 -0.18220362 -0.025463365 -0.50128 -0.40112975 -0.6763178 0.22156797
g 0.01971144 0.3764548 0.36883184 -0.0360637 0.25006738 -0.21218342 0.25709185 0.19987954 -0.22828318 0.18751864 -0.1330094 -0.26387897 0.19051698 -0.11775326 0.1271818 -0.19350952 0.08216121 0.18515356 -0.28388986 -0.9301937 -0.03917374 -0.35824087 0.44873512 -0.17459449 -0.44260782 -0.3269321 0.28038102 -0.3464812 -0.29238945 0.15949233 0.79869163 -0.067626275 0.284875 -0.14271134 -0.08914089 0.60517126 -0.08533915 -0.2709203 -0.19318892 -1.328598 0.10006866 -0.30538374 -0.46597266 -0.08747945 0.8189659 0.46620813 0.032151617 -0.741414 0.20706366 -0.06705226 0.05580336 -0.79765713 -0.08725474 0.12575006 -0.14566126 0.16184701 -0.42699787 -0.35380578 -0.47922704 -0.044561185 0.38204595 0.22436412 0.44753575 -0.10364517 0.15194774 0.375084 0.124860786 0.2916226 -0.51762515 -0.07879536 -0.14130071 0.55254424 0.34436843 0.31402212 0.09513988 0.2985073 -0.005522641 -0.20478424 -0.02460127 0.042198144 0.28531346 -0.72363764 -0.5206358 -0.030818671 -0.33500016 -0.33424848 0.51243573 0.13949525 0.086463995 -0.4613997 0.41267526 0.64537543 0.49557796 0.12586004 0.67745537 0.20679493 -0.06379911 -0.7875079 -0.30259213 -0.35957325
length 0.56703246 -0.4818191 0.16995218 -0.43180037 0.48062155 -0.5247484 -0.18263629 0.64403224 0.043471362 -0.023390768 -0.28416076 0.30609977 -0.30026326 0.14242516 -0.51962996 0.5983814 0.019707961 0.2843837 -0.22506899 -0.8258963 0.34364203 -0.0005774392 0.122666545 -0.41403833 -0.09712145 0.36215812 -0.08208481 0.103093676 0.14446141 0.22492322 -0.42032108 -0.19450252 -0.27923352 -0.27376613 -0.27983987 0.30843863 0.054506548 0.060703963 0.5165361 -0.511976 0.06947658 -0.60105383 -0.10562761 0.686996 0.54605955 0.6037532 -0.42454252 -0.24163324 -0.60682374 0.265246 -0.2782788 -0.16222484 0.29933766 -0.12122397 -0.07397028 0.44586882 -0.10808519 0.21821792 -0.37111223 0.3504641 -0.3618098 -0.29875234 -0.032868486 0.0064140786 0.29262534 0.5405675 0.06609006 0.300035 0.20310766 0.20134883 0.29683647 0.2739773 0.024529865 0.29215094 0.4260239 -0.47806457 -0.108119935 0.15597862 0.24239786 0.04996878 0.06072857 0.46872982 -0.14710175 0.10909544 0.057140686 0.15052216 0.19944341 -0.1043207 -0.22588567 -0.6407234 0.3961625 0.20652711 -0.2047273 -0.2694657 -0.76016504 -0.039295197 0.0746966 -0.14772464 -0.05696417 0.21155253
: 0.13340361 -0.2808038 0.14006105 -0.19946018 -0.14023687 -0.2508386 0.11870203 0.40002254 -0.2238106 -0.087907895 -0.06329915 -0.3797751 -0.035148807 0.17139804 0.25423747 -0.45091555 0.21354339 0.345163 -0.06709335 -0.10622828 0.14645164 0.23779336 0.13366841 0.22598009 -0.09556116 0.10587394 -0.16396686 -0.42722663 -0.29198444 -0.19792148 -0.31444487 -0.0028851333 0.26379308 -0.5619061 0.14621347 -0.23252761 0.07882342 0.009859582 -0.43663847 -0.060716152 0.028818265 -0.112757295 -0.100822054 0.20372288 0.44093794 0.22824301 -0.35696724 -0.22949684 0.26220605 0.23586835 -0.1504148 0.06794709 -0.22485812 -0.27808866 0.15478382 -0.24573368 0.007175627 -0.84590983 -0.07826602 0.081217065 -0.072038084 0.0038836256 -0.102896065 -0.099696584 -0.25990838 0.28409353 -0.3082746 0.08724531 -0.10899627 -0.11357913 -0.023959355 0.0014395482 0.3645827 -0.003392831 0.40390462 -0.015040847 0.8960095 0.046115022 -0.566686 -0.16681774 -0.081889525 -0.017726546 -0.14744706 -0.22665863 -0.10347835 -0.2544215 0.04041718 0.48699805 -0.23615411 -0.17292325 0.07125207 0.07318724 -0.016130764 0.027282065 0.4113612 0.37644348 0.56466746 -0.21698369 -0.47557387 -0.2542021
r 0.016231922 0.35575542 0.2673479 -0.010562596 0.18024226 -0.21707368 0.20030221 0.28392568 -0.050658178 0.13549662 -0.104067005 -0.030411178 0.22540337 -0.14069529 0.12965244 -0.14069448 0.15133545 0.24369171 -0.27440888 -1.0026233 -0.036906604 -0.33697808 0.5832833 -0.2318104 -0.44885302 -0.17920072 0.16481481 -0.18712375 -0.3546434 0.17565627 0.54081255 -0.0018995462 0.2540224 -0.19468313 -0.027948808 0.67597926 -0.22927468 -0.22243436 -0.051801704 -1.2111559 0.057439774 -0.2354396 -0.48937452 -0.04767345 0.84211713 0.47236058 0.12213075 -0.7131648 0.12882955 -0.120111294 0.06647847 -0.7340868 -0.1916247 0.044595227 -0.11375014 0.1557047 -0.43941462 -0.1022821 -0.4674792 -0.0253957 0.25576943 0.17800461 0.47235373 -0.041212868 -0.0138145415 0.34833327 0.21642113 0.24416795 -0.56027436 -0.0378801 -0.16097897 0.4587423 0.26671448 0.3687399 0.07924759 0.3847759 -0.15258087 -0.28036663 -0.008780529 0.0074877995 0.31962547 -0.44823894 -0.47378907 -0.023446385 -0.29571265 -0.3208317 0.6076167 0.15239418 0.1111151 -0.40754217 0.38904616 0.41681397 0.5250789 0.042334367 0.5456011 0.10265569 -0.032143287 -0.81890905 -0.45387715 -0.4237081
PNG_CONST 0.1366196 0.65285903 -0.28579125 -0.16399688 0.013181716 -0.06393239 0.22551128 0.20040867 0.043460388 0.020858496 0.09137764 0.2207576 -0.13305183 -0.12931909 0.06535991 0.122187726 0.49060944 -0.42285168 0.07431591 -0.9030365 0.048146237 -0.23959349 0.5304227 0.23404385 0.1441266 -0.10513641 -0.66768306 -0.42404866 -0.16749227 0.14393826 0.3478136 0.24137923 0.4749237 -0.319574 -0.4206089 0.7397557 -0.18436772 0.07899619 -0.3595044 -1.0787231 -0.53473794 -0.28657395 0.2642958 0.06587707 -0.021106107 -0.2914003 -0.23045331 -0.46047112 0.43630263 0.84120756 -0.44519067 -0.62290066 -0.39106736 0.17051038 0.315142 0.26558268 0.14027286 -0.8404516 -0.41891462 -0.045949716 -0.01364576 0.15304524 -0.024460735 -0.013023216 -0.373951 0.20541668 0.26227188 -0.17475235 0.18831477 0.12663482 -0.30864188 -0.0974407 -0.14502017 0.17501338 -0.032226887 -0.082104035 -0.16338733 0.13157633 -0.21461701 -0.01781231 0.23076065 0.08307827 -0.13167082 0.052575752 0.15526076 0.067050196 -0.21125098 0.2087398 -0.094850674 -0.31222722 0.6668838 0.51945657 -0.3382433 0.121419385 -0.13077286 0.4717696 0.06677343 -0.3349168 -0.7096744 -0.027370578
4 -0.0795971 -0.17791894 0.2777046 -0.12237766 0.39687026 -0.14220537 -0.0028881705 0.6300588 -0.328562 -0.2355035 -0.12416843 -0.2356411 0.13690622 -0.0322362 0.067792065 0.31505787 0.14397514 0.38620505 0.1013827 -0.99681896 0.23547302 0.05441504 0.56470835 -0.3548537 0.22786902 0.6545363 -0.31065533 -0.018019794 0.10167783 0.05239556 -0.22615023 -0.20753323 -0.010530649 -0.13008605 -0.13124777 0.11818986 0.28405058 -0.11746277 0.50844014 0.028986642 0.060057007 -0.011164546 -0.16450468 0.29492915 0.19138259 0.12124786 -0.3177161 -0.09609025 0.031835236 0.3831135 0.10923481 -0.46185285 0.011253848 -0.11752145 -0.34568065 -0.25299612 0.016329618 -0.6634222 -0.13879694 0.15627961 -0.059130937 -0.062015757 0.26633382 0.15575744 0.3096297 0.21511954 0.056033127 0.24071501 -0.14957729 0.09462365 0.1663329 0.060487468 -0.088757165 0.09065228 0.009590389 -0.28117707 0.39099538 0.3723929 0.13439025 0.02152234 -0.09826878 -0.49624968 0.097148724 -0.18454756 -0.5935568 -0.2781263 0.24495107 -0.48478723 -0.361869 -0.08952628 0.3527117 0.55022556 -0.10688789 -0.08976088 0.42684153 -0.08689161 -0.051578753 -0.0901819 -0.31563705 0.028181657
name -0.11478496 -0.057078097 0.0933056 0.05633388 -0.079928905 -0.15236987 -0.23969164 0.30056116 -0.28016973 0.021054106 -0.40690282 0.08200121 -0.5632191 0.04747342 -0.13443829 0.25185618 0.09910348 -0.19859704 0.0012439536 -0.738478 0.23269603 -0.13897236 0.16512522 -0.4143403 -0.051910613 0.075262904 -0.34519568 -0.065802835 -0.44457886 0.23708774 0.118938886 0.12518303 0.17357206 -0.63317573 0.03238562 0.027307166 0.26192796 -0.2930773 -0.2122542 0.0023314687 0.0401732 -0.3834713 -0.044169128 0.5259012 0.12620983 -0.25130403 -0.21328026 -0.123126335 0.31776953 0.73971075 -0.3330667 -0.14667803 0.39040267 0.22456703 0.5073246 0.3299655 0.008757988 -0.9306095 -0.35288936 0.22022262 -0.111684665 -0.274734 -0.17410088 -0.02127716 0.02239231 0.3492913 0.3103929 0.026627433 0.22214453 0.22695826 -0.012866774 0.012926509 0.046961684 -0.13339032 0.09538295 0.095542245 0.3303525 -0.12787223 0.13286051 -0.45241788 -0.31207365 0.25000605 -0.21483304 -0.06934853 -0.19960418 -0.12261141 0.31213984 0.32493952 -0.3581936 -0.22612233 0.66305757 0.23221779 -0.4847609 0.21552555 -0.14752208 0.12083178 0.077956714 -0.22717017 -0.8589678 0.1022982
chunk 0.33949748 -0.78457564 0.10100444 -0.747839 0.09706953 -0.7933107 -0.35274723 0.43383372 -0.06317904 -0.039172817 -0.54960495 -0.034415558 -0.6209381 -0.02575131 -0.7299821 0.3377978 -0.11765855 0.14466105 0.099172376 -0.5307838 0.3379924 -0.14228937 0.031901527 -0.44042847 -0.32531017 0.10669274 0.17103863 -0.059531588 0.095904075 0.083434634 -0.12102126 0.11409367 0.004758453 -0.25940883 -0.05335535 0.16147068 0.1975284 -0.24582031 -0.16783682 -0.45885837 0.16470169 -0.6817198 -0.06183153 0.5867303 0.8105503 0.42562008 -0.42701387 -0.41922063 -0.25040624 -0.010642939 -0.25421235 0.19060285 0.4803037 0.110267855 0.12438472 0.42964458 0.12877263 0.0685948 -0.05082861 0.02256009 -0.0295726 -0.30205476 -0.055761654 0.086914696 0.37184155 0.53269213 -0.12770641 0.038081437 0.13094461 0.24072903 0.081079684 0.13414982 0.35191888 -0.20085527 0.32090172 -0.37995744 0.43870023 -0.19946878 -0.17770372 0.16905819 -0.08987592 0.4192433 -0.38923344 -0.31668782 0.042410158 0.44492957 0.20295298 0.5366398 -0.23652965 -0.47901773 0.27455884 -0.058488652 -0.30735615 0.12673286 -0.346455 0.012877064 0.5429085 -0.582177 -0.4814356 0.40634397
file 0.17473896 -0.89648664 0.17284581 -0.0951819 -0.27525082 -0.608215 -0.32672992 0.12017395 -0.21422657 0.15231632 -0.35760662 -0.10637742 -0.39090526 0.12745725 -0.25325102 0.100998744 -0.16552469 -0.061460406 -0.1035007 -0.49095824 0.011550652 0.183928 0.35611188 -0.5533973 -0.279533 -0.039574727 0.21492405 -0.12651514 -0.20378803 0.2269259 0.10428059 0.060749646 0.49252293 -0.5678496 0.052756272 -0.0034981254 -0.03353515 -0.41154787 -0.16599302 -0.62626314 0.23137604 -0.41274187 -0.3469309 0.3741054 0.6227544 0.5446793 -0.25281557 -0.3028688 0.11034256 0.41128734 -0.35955703 0.06148301 0.4697801 0.12170174 0.35886133 0.15263937 0.11234008 0.08221471 -0.20084268 -0.08467694 -0.08960315 0.060954295 -0.07215395 -0.0657365 -0.20247625 0.62491053 -0.09823451 0.021707455 -0.28303778 0.30046475 0.16939667 0.051057793 0.31960028 -0.4520529 0.05799471 -0.24394056 0.82485056 -0.482071 -0.24425183 -0.122436725 -0.1429357 0.36776683 -0.6309746 -0.15166546 -0.078911655 -0.015619541 -0.12362726 0.62988186 0.10493504 -0.028783124 0.16825894 0.010890274 -0.17041196 0.37979954 0.01352119 0.16849998 0.3763417 -0.70036423 -0.39833438 0.0016210735
#ifdef 0.117155716 -0.6395725 0.08321792 0.121834196 0.27967295 -0.28095686 -0.38937357 0.06833936 -0.14422944 -0.10151499 0.24763644 0.23681618 -0.11549191 0.42326623 -0.29968613 0.7199963 0.12103768 0.4225717 0.3303217 -0.50694865 -0.1357269 0.040771283 0.39864767 -0.55515033 0.44765228 0.569532 -0.036736295 0.07851749 -0.08949197 0.09839126 -0.15213333 0.08873462 0.37783283 -0.27932206 -0.05435017 0.11777898 -0.15689002 -0.4506682 0.009506568 -0.6266145 -0.31721732 -0.04117606 -0.026754402 0.51997757 0.1683329 -0.090863205 -0.11710732 0.16848089 0.036493912 0.28352228 -0.2962995 -0.062862806 -0.25246623 0.19332154 0.20314877 0.03826234 -0.1329353 -0.6442575 -0.19908564 -0.09915317 -0.2831882 0.006159231 -0.17279409 0.20977901 -0.23751488 0.24023916 -0.0107381875 -0.00020588227 0.2623003 0.21266587 0.3760171 0.27070594 -0.12750347 -0.2683995 -0.1944256 0.028406093 -0.054530524 0.049542073 -0.015174272 0.35167477 0.11776502 -0.09502807 0.21200994 0.14795451 0.31619036 0.12982515 -0.40220818 0.03493559 -0.17686807 0.4274601 -0.07671856 -0.035143264 -0.21351881 -0.10458288 -0.04241659 0.14453942 -0.439563 0.06313651 -0.02514205 0.09918298
error 0.025302164 -0.24929355 0.33765015 0.2850337 0.05215828 -0.2703598 -0.08119984 0.08081773 -0.30570817 -0.07811802 -0.09048715 -0.45227656 -0.26607588 0.117016725 -0.18100046 8.472541e-05 -0.004266498 0.2881382 -0.24735449 -0.39298466 -0.22015059 0.19289833 -0.104339436 -0.27954048 -0.41678578 0.12836793 0.30031377 -0.03640713 -0.43766013 -0.02112998 0.38361317 0.1621247 0.45985955 -0.7314279 -0.020832073 -0.052989718 0.04022254 -0.6597607 -0.53104246 -0.6575336 0.17611024 -0.21689834 -0.7665833 0.49979308 0.21811402 0.19042714 0.21674544 -0.43484572 0.31976545 0.29497755 0.11366923 -0.24368349 0.19932154 0.038966987 -0.057823464 -0.21232003 -0.30515355 -0.44986695 -0.25103235 -0.014075556 0.120254494 0.030587692 0.06509098 0.1765286 -0.2355558 0.38209084 -0.0077201463 0.30713245 -0.53108627 -0.079068504 0.3760537 0.12438954 0.32393038 -0.15231466 -0.049811125 0.17983074 0.44580463 -0.35164267 -0.09731932 -0.29453206 -0.3594733 -0.017803287 -0.36677635 -0.12924246 -0.21096532 -0.34140974 0.39861548 0.0723716 0.118653774 0.23440303 0.15461174 0.04057585 0.37626946 0.5062947 0.46479672 0.038887665 0.18724312 -0.23951668 0.2289117 -0.078575015
dest 0.2795373 0.0077120545 0.6518463 0.39295447 0.79266053 0.00953809 0.36977533 0.46743888 -0.22738805 0.19837774 0.19020797 0.0455139 0.6966762 -0.4444154 0.3813388 0.39597335 -0.17814894 -0.17339745 -0.16489182 -1.3454254 0.036920667 0.3514312 0.53620833 -0.63047093 -0.34682202 0.44081783 -0.20493771 -0.56191415 -0.14904028 -0.2593779 0.15188745 -0.106362686 0.94023514 -0.21881117 -0.30775833 0.7136763 -0.53230405 -0.4800282 -0.24934289 -1.1091714 -0.37217805 -0.5801088 -1.0292915 0.7266068 0.008849645 -0.044931546 0.5116145 -0.23199393 -0.36813933 0.23822801 0.11780947 -0.656646 -0.14746107 0.1490119 0.14010607 -0.025530197 -0.32088408 0.11174557 -0.4557804 -0.48552462 0.11623717 0.45272523 0.18374251 -0.13055503 -0.5443819 0.31089395 -0.4328488 0.51602864 -0.32028967 0.08995664 0.45897672 0.6000767 0.4429246 0.3193914 0.47919965 -0.13329566 -0.2734164 -0.18309034 0.16095635 0.025866864 0.35305664 -0.33531252 -0.5024901 0.33015427 -0.41217026 -0.4230136 0.51556474 -0.44079342 0.13966417 -0.1655387 -0.18802077 0.39859998 0.2534634 0.5473513 0.6335069 0.47824118 -0.39302102 0.044685617 0.11208776 -0.38755447
argv 0.18260661 -0.14498298 0.48216176 0.43569556 0.29300743 -0.14085037 0.2321455 0.7452289 -0.51729745 -0.08769705 -0.22991255 -0.4530303 -0.53384787 -0.08536068 -0.1069969 0.35512853 -0.032399297 0.25002697 -0.08898658 -1.423622 -0.326593 0.32455972 0.21596871 -0.69770455 -0.31921372 -0.13562946 0.24515834 0.30859032 -0.06241652 0.34885177 0.2685563 -0.16803968 0.33999106 -0.28956893 -0.30073214 0.29371592 0.13659768 -0.5502521 -0.50314856 -0.2771857 0.14398356 -0.30508524 -0.7098542 0.5678919 0.23675866 0.06408818 0.2156407 -0.49177727 0.09261969 0.51289666 -0.12506188 -0.30463004 0.27981487 0.24934497 0.16055961 -0.20837308 -0.012392735 -0.027752938 0.17758663 0.005513973 -0.30197436 -0.3972041 0.19196725 -0.0158455 -0.32869363 0.04063466 0.24032265 0.20930171 -0.45364007 0.60544175 0.2699117 0.37584296 0.50932604 -0.3699021 -0.12015235 -0.06237171 0.46371073 -0.054990523 0.35982156 0.011274237 -0.6232193 -0.10706022 -0.1315793 -0.17389798 0.07265951 -0.006874692 0.46608862 0.0043182895 0.11574836 0.29234275 0.11659695 0.04148762 0.0047679073 0.57931095 0.029312905 -0.18688992 0.19333112 0.0015007545 -0.13657588 0.6265347
| 0.1791127 -0.9910212 0.5657144 -0.48312774 0.37359396 -0.49755156 0.09391797 0.7610171 -0.09823403 0.08577345 0.35875425 -0.10069216 0.3963205 0.15266627 0.12964831 0.1408829 0.016627416 0.5392506 0.019325271 -0.7630233 -0.02446694 0.29333824 0.28206888 0.03749488 0.0042253723 0.38747615 -0.23517403 -0.36903659 0.2579033 -0.3004514 -0.38067168 -0.17504172 0.046819355 0.5164881 0.1825002 0.061629564 -0.041518778 0.29397285 -0.16906373 0.0466814 -0.067577824 -0.31317833 -0.32508376 -0.086238325 0.45635626 0.3619096 0.08163223 -0.0162189 -0.07491489 -0.1408397 -0.30192694 -0.097458735 -0.17175002 0.24493885 0.010218003 0.11923829 -0.058064856 -0.054518037 -0.23107004 -0.026436407 0.09515923 0.24091512 0.26802224 -0.003925252 -0.11402255 0.33112273 -0.60404646 -0.18246426 -0.17915109 -0.0044186166 0.16020223 0.18429327 0.3667231 -0.037680235 0.47556096 -0.29555857 0.29196942 0.20556253 -0.13419993 0.3600034 0.6301515 0.028331708 -0.14937596 -0.12659794 -0.26198357 0.00012604761 0.037972562 0.36117205 -0.15669139 -0.06740639 -0.396917 0.16820727 0.046961408 0.11325765 0.23062494 0.21160942 -0.18268156 -0.16068445 -0.3095257 -0.39152703
result -0.08015578 -0.31843674 0.7395236 -0.24358264 0.23928739 -0.22621231 0.047549132 0.3511364 -0.3331669 -0.27290902 0.19150315 -0.39445022 0.15530051 0.06394719 0.14074351 -0.04371548 0.081382304 0.034746103 0.24241793 -0.9895559 -0.18203382 0.1151633 0.22011384 -0.026898963 -0.4705182 -0.1442997 -0.14727092 -0.1614802 -0.26587245 0.025791755 -0.18364446 0.14720654 0.18550274 -0.18422914 0.03286357 0.38037136 0.013589408 -0.058776118 -0.75918317 0.1126005 0.16392182 0.040120166 0.039094053 0.15519767 0.7482046 0.46501145 -0.23302409 -0.41928276 0.09266403 0.0006247243 -0.09876129 0.12709302 -0.12649474 0.32500595 -0.10517448 -0.16241159 -0.28308174 -0.15605132 -0.55503786 0.32943696 -0.062139884 0.105167836 -0.038571388 -0.060765866 -0.24300005 -0.25614256 -0.04136992 -0.122745305 -0.39229488 0.026693372 -0.41937354 0.55292594 0.39591902 -0.5276897 0.22886449 -0.030382153 0.28683573 0.15295531 0.18987495 -0.06028082 0.27617645 0.003762582 -0.41960666 0.16082634 -0.19053128 0.4482191 0.33713695 0.8752461 0.10566694 -0.31748027 -0.1919401 0.060537424 -0.0022273269 0.21145472 0.12504403 -0.064825624 -0.27469575 -0.32825488 -0.5217604 0.02348545
colour_type -0.01827751 0.38261154 0.09573868 -0.48863763 0.3874077 -0.23436199 -0.11419275 0.27089074 0.02068194 -0.1648065 0.22553253 0.039230246 -0.006901228 0.095780104 -0.12473116 0.013201984 0.6681356 -0.04088024 0.0014551698 -1.0681771 0.25139564 -0.16960002 0.28838784 0.27406496 0.43504354 -0.012174449 -0.66916156 -0.5338191 0.28066272 -0.03731391 -0.006357881 0.2844749 0.29429653 -0.31419832 -0.41405523 0.5766946 0.028864156 -0.13330242 -0.13180467 -0.7229683 -0.6503509 -0.03172738 0.46379364 0.24553838 0.037599057 -0.2532925 -0.42188412 -0.29900503 -0.03273779 0.492502 -0.10808009 -0.42704654 -0.12222314 0.14834528 0.17049319 0.17077379 -0.1387167 -1.2263911 -0.7405127 0.25174567 -0.13376325 0.021159561 -0.21410975 -0.131728 -0.33838803 -0.17455718 -0.103322476 -0.052296273 0.51582456 -0.17172083 -0.102889575 0.10095845 -0.24135941 0.24649481 0.09152156 -0.31779465 -0.03411505 0.38430527 -0.25886777 0.11503301 0.39301902 0.068008155 -0.033945315 -0.3057896 -0.30241072 0.20601293 0.15537822 -0.32595032 -0.531133 -0.36127186 0.7453708 0.5700615 -0.5187345 -0.08808723 0.25897908 0.2067587 0.04334077 -0.40880102 -0.9465491 0.02963091
\n 0.37617788 -0.28247002 0.24254611 0.10153666 0.13814144 -0.30224138 -0.023986511 0.3436144 -0.040832356 -0.12640457 0.009845935 -0.06703178 -0.02339915 0.21942759 -0.038498692 -0.043821678 0.043810703 0.37167934 -0.07503772 -0.28388855 0.116355196 0.0973202 -0.10401418 -0.22457051 -0.47917813 0.08815216 0.12731841 -0.14127474 -0.3312346 -0.11024417 -0.23509653 0.045457426 0.20026578 -0.59422 -0.029432314 -0.11742075 -0.08626754 -0.17381006 -0.25957996 -0.33271325 -0.09863216 -0.3789129 -0.71297306 0.33818316 0.5385384 0.21582069 -0.14107528 -0.35304356 0.3783117 0.5263193 -0.21990462 -0.08270191 -0.24600632 -0.3751558 0.361765 -0.025216965 -0.33115342 -0.11087112 0.30273244 0.11993743 -0.2984804 -0.17585169 0.25018224 0.31204414 -0.41416058 0.582316 -0.16783361 0.21232161 -0.061827976 0.11390548 0.33408168 0.16778138 0.44434178 -0.23470971 0.124753214 0.06279555 0.54301745 -0.40411782 -0.12377399 -0.15051305 -0.534807 -0.05668329 -0.05722178 0.09078374 0.36382222 -0.0027168111 0.32512686 0.25424984 0.26204282 -0.025377436 -0.23223041 0.00016821157 0.35989106 0.33360744 0.13014884 0.1122331 0.32170203 0.043985456 -0.3370718 0.15082298
safecat -0.17931479 0.44727787 0.18294735 -0.03228863 0.32709682 -0.07850665 -0.044242255 0.35800734 -0.06648445 0.3931142 -0.46154165 -0.1412804 -0.25356883 -0.40199327 -0.0066962386 0.07544086 0.15633284 -0.33182546 0.086098924 -0.87737453 0.068470046 -0.045565397 0.22012433 -0.16567062 -0.20000397 0.532912 -0.64976144 -0.36203876 -0.51583266 0.05993512 0.38873792 0.22181231 0.07902877 -0.76369417 0.07154966 -0.1598742 0.20548277 -0.30657285 -0.32519016 -0.5557277 -0.32875642 -0.57548374 -0.681129 0.5234931 0.03757822 -0.18972208 -0.36885098 -0.17587186 0.17275427 0.8864115 -0.10195691 -0.11986791 0.33891743 0.121794485 0.17622538 -0.05680094 -0.19935629 -1.3762634 -0.6021257 0.35714906 -0.019045886 -0.2781471 0.09779527 0.42727834 0.15390602 0.15372877 0.26278642 0.038755827 0.001834904 -0.11134711 -0.30990988 -0.16951749 0.25503537 0.1497799 0.034656968 -0.27274436 0.22011147 -0.028391402 0.20631525 -0.5080724 -0.16874771 0.08347104 -0.037850287 -0.62051743 -0.75627625 -0.23453553 0.618076 0.11866752 -0.13311891 -0.48176545 0.7857242 0.3862633 -0.23912007 0.21814808 0.3466097 0.22484966 -0.025503011 -0.34187877 -1.1407834 0.2341564
